
#include "ap_fixed.h"
//#include "headers1/defines.h"
#ifndef __WEIGHTS_H
#define __WEIGHTS_H

typedef float float24_t;

float24_t    fc_layer1_bias[10] = {0.47737607,1.0326977,-0.35807756,0.403947,-0.033083946,
			 	 	 	 	 	  -0.22542481,-0.5138487,0.2086404,-0.2292228,-0.36816055};

float24_t    fc_layer1_weights[10][4*4*32] =
{{-0.6956237,-0.13644655,-0.35747793,-0.124617875,0.44025657,
  -0.531341,-0.9914063,-1.0494094,-0.87746066,-0.24687444,
  0.12845923,-0.16629153,0.11039587,0.5374978,0.23331894,
  0.17562865,-0.74533993,-1.2526417,0.70566857,0.3412457,
  -0.5931924,-0.16356388,0.51310396,0.36807215,-0.7483768,
  -0.10772777,0.044750825,0.96738076,0.15049328,0.103006236,
  -0.18300308,-0.43579513,0.011673652,0.055163283,0.028461218,
  0.039975256,-0.034807667,0.01208727,0.015102024,0.083104484,
  0.041930694,0.047547333,0.061962858,0.007025045,0.04808071,
  -0.0024344556,0.013323583,-0.051408812,-0.6748097,-0.7946258,
  0.3744982,-0.817652,-2.2015743,0.72916293,0.003716588,
  -0.7813425,-1.3263776,0.3895151,-0.08547049,0.65808976,
  -0.03140318,-0.16143893,0.056568712,0.3646608,-0.5342199,
  -0.10090349,-0.10351497,-1.0534348,-0.8550261,-0.17522229,
  0.18576688,-0.92224556,-1.4535081,-0.6379762,-0.38587812,
  0.025382707,0.037861988,0.086769536,0.4374173,0.3356888,
  0.38141197,-0.13030398,-1.0338427,-0.66323817,0.7722935,
  0.31910187,-1.1772395,0.11279454,0.60646766,0.12790035,
  -0.25905803,0.41119236,-0.10874461,-0.4705355,-0.16629732,
  0.225928,0.16890457,0.025877964,0.07496306,0.09396081,
  0.010947186,-0.01397121,-0.006131767,-0.02119679,-0.11889382,
  -0.12856397,0.016533934,0.0511881,0.012538235,0.059056863,
  0.038944803,0.100127555,0.007923284,-0.008804676,0.069503695,
  0.071374245,0.08807931,0.031485677,0.102025904,0.058515117,
  0.015126803,-0.02589152,-0.02833505,0.11365512,0.14562058,
  -0.011983276,0.030798549,0.12326924,-0.212872,0.07292413,
  0.15958664,-0.55788434,-0.496082,-0.9732222,-0.1335363,
  -1.3071762,-1.6832998,0.2349734,0.5296666,-0.45334807,
  -0.97709835,-0.31658506,-0.28691998,-0.1466563,0.03802741,
  -0.08370394,0.046598267,0.04124885,0.04947693,0.041808803,
  0.03838117,0.027402509,0.09971574,0.139718,0.14343894,
  0.052299786,0.071123615,0.079802305,0.09623526,0.04555868,
  -0.93228376,-0.59926105,-0.04638476,-0.59480333,0.064258985,
  -0.59921503,-0.27480876,-0.1269741,0.41921642,0.9380966,
  -0.63316876,-0.35331225,0.7915521,0.9283962,-0.30255306,
  -0.5842922,-0.83283144,-0.5614134,0.21538077,-0.60631424,
  -0.10456992,-0.3865679,0.07730874,-0.17297381,-0.88336515,
  -0.7258753,0.19819236,-0.3101796,0.3513959,0.5621028,
  0.15802367,-0.6596453,-0.025984356,0.30567327,-0.31320783,
  -0.6511973,1.0719923,0.11656644,-0.7328912,0.3892349,
  0.6435703,0.2075841,-0.5247663,0.011709425,0.36088118,
  -0.9086808,-1.9166652,-1.748084,0.0175466,0.055361968,
  0.45939472,-1.1072676,-0.8865118,-0.36783934,0.09989084,
  0.31049973,-0.17500082,-0.4698051,0.15560837,0.3969627,
  -1.8068911,-0.89759684,0.39929897,0.23247679,-0.15178414,
  -0.017260127,-0.61834407,-0.0490764,0.09690298,0.123491585,
  -0.26434192,-1.4956572,-0.47456837,0.2203144,0.021379545,
  -1.3990066,0.43557152,0.42766783,-0.018696962,0.34113216,
  -0.6852855,-0.36480317,0.45324787,-0.186114,-1.300797,
  -0.8064735,-0.6132862,0.5868773,-0.8347394,-0.8699694,
  -0.029768776,-0.43222147,0.11401115,0.025627939,-0.9562548,
  -1.0879297,-0.44540343,-0.31102267,-0.34439635,-0.14498928,
  0.18954146,-0.34579775,0.35008243,0.6717224,0.02097081,
  -0.26375616,0.025547594,0.6066465,0.5674242,-0.16841632,
  -0.5728187,-0.78815055,0.08603217,0.05980909,0.037289944,
  0.02508742,0.09621785,-0.030004619,-0.042997885,0.065170154,
  0.074594215,-0.10845937,0.10243203,0.06126566,0.025604587,
  -0.070155576,0.045218408,0.0769053,0.063049115,-0.13156633,
  -0.49112403,-0.293545,-0.3578839,0.8541209,-0.88806534,
  -0.33668777,-0.4693874,-0.8139649,-0.7828601,0.45582193,
  0.22521627,0.40460902,-0.06173166,-0.074973024,-0.13960469,
  -0.011452059,-0.04205934,0.45304456,0.6175074,0.022638794,
  -0.155723,0.11835063,-0.8296705,0.45853075,-0.9084118,
  -0.44398934,0.056492597,-0.1434083,-0.77711195,-0.2796407,
  -0.013885821,0.66287583,0.22070971,-0.4444374,0.6632789,
  0.43501243,-0.54233617,-0.2816012,0.016550133,-0.48068187,
  -0.27985802,-0.25629097,0.28162578,-0.703431,-0.892527,
  -0.12959181,-0.7084169,0.057336435,0.4265263,0.15705545,
  0.51936334,-0.34105355,-0.5157637,0.5264706,0.6195784,
  0.28177944,-0.467008,-0.60703766,0.38567367,0.41099632,
  0.16098672,-1.1027768,-0.19125713,-0.4332029,0.16386038,
  -0.058768086,0.23337957,-0.50484586,0.45456392,0.7128584,
  0.20784535,0.3904194,0.22856234,0.21134122,0.3247778,
  0.22365019,0.4872071,0.37681383,0.11115702,0.48902756,
  -0.93058676,-0.3808627,-0.35456014,0.23696016,0.44233018,
  -1.3431998,-0.07793735,0.10323762,0.03934887,-1.8677068,
  -1.2723423,0.25210965,-0.3625141,0.5950212,0.19431198,
  0.1541809,0.2193968,0.59000325,-1.0927112,-0.9561688,
  0.23309144,0.14266387,-0.09726909,0.42739835,0.45307678,
  -1.1728828,0.25039366,0.6672873,-0.089664266,-0.9432983,
  -0.14202987,-0.17023338,0.05484646,-0.05165625,-0.2451384,
  0.047334354,0.052992627,-0.08619867,-0.38788855,0.016245974,
  -0.2635412,-0.055448778,-0.35313034,-0.06256615,0.05164624,
  0.030274132,0.24090216,0.39767605,-0.91779345,0.37799907,
  0.46847457,0.2905289,-0.5279283,0.40418658,0.3459483,
  0.1428259,0.7965189,0.5590429,-0.9507744,-0.066691115,
  -0.3428693,-1.059907,0.27366903,0.0175221,-0.59939456,
  -0.9058445,0.7477608,-0.41065454,-0.0668915,0.19392149,
  -0.17163981,-0.19910519,0.5115855,0.082427636,0.28585446,
  -1.4415622,-0.58824146,-0.39302224,-0.02064332,-0.003028796,
  0.012390106,0.009986569,-0.04374345,0.058629453,0.010868577,
  -0.02268694,-0.02834828,0.092298016,0.09223851,-0.03704258,
  0.020374613,0.047272384,-0.020985156,-0.034690194,-0.09412785,
  0.02210707,-0.033739004,0.088090464,0.05624405,0.045541957,
  -0.07632778,0.036694765,0.056291673,-0.039996,-0.08667234,
  0.048251092,-0.04562157,-0.04820931,-0.09417421,-0.026681231,
  0.048147544,-0.2408484,0.4512622,0.36344978,0.40758765,
  0.14919363,-0.48101026,1.2386107,0.07985561,-0.3685246,
  -1.0472578,-0.71019375,0.21460444,0.5033721,-2.172559,
  -1.7992022,-0.31053182,-0.24182674,-0.25826308,-0.29448232,
  -0.17612383,-0.20180461,-0.41021055,-0.38549826,-0.14813681,
  -0.18966036,-0.11734263,-0.38764882,-0.08502415,-0.2526739,
  -0.25392178,-0.30095127},

 {-0.542604,-0.6252725,-0.7439636,-0.55691487,-0.10469667,
  -0.31073973,-0.5780064,-0.794283,-0.50963837,-0.28070775,
  -0.15021026,-0.6104409,0.57242423,0.1839606,-0.092612185,
  0.471333,0.068957664,0.21993493,-1.1317879,0.046985142,
  -0.0860455,-0.2907537,-0.51482034,-0.37072513,-1.1900553,
  -0.79388887,-0.27277538,-0.8260295,-0.2400803,-0.4836662,
  0.09070666,-0.72495127,0.19127536,0.1252297,-0.023602447,
  0.099760704,-0.10842775,-0.051172204,-0.07275411,0.037282366,
  -0.11892852,-0.026269147,-0.0648764,0.122099906,-0.15798832,
  0.006733227,-0.09419365,0.11223185,0.47546634,0.5071248,
  -0.031082517,0.0022453,-0.04686023,-0.010478896,0.2454884,
  -0.1202206,0.31477728,-0.44880602,-0.18385002,-0.66478807,
  0.052539356,0.7457341,0.6160712,-0.36424878,-0.48403868,
  0.45076665,0.006963451,-1.3454173,0.22491558,0.55647886,
  -0.92815167,0.2707233,0.308778,-0.88533,-0.19705829,
  0.044362802,0.3716494,0.10674489,0.21952304,0.37850875,
  -0.66194063,0.11307281,0.2869347,0.6300609,-0.9788182,
  -0.2600173,0.07106349,-0.49102604,-1.0011756,0.3317443,
  -0.34928203,-0.9117865,0.5968491,0.38328892,-0.58006287,
  -1.0171763,-0.06329716,0.011084614,0.19316822,-0.06268381,
  -0.060607284,-0.01780064,-0.021426754,-0.019289983,
  0.031043552,0.018456716,0.041517034,-0.0873462,0.12095985,
  0.029031876,0.09324071,-0.06164262,0.11635708,0.13713911,
  0.049822282,0.056886062,-0.13735189,0.08046417,0.048762176,
  -0.10239878,0.32481438,0.20440143,0.015317931,-0.0955317,
  0.22581686,0.06987838,-0.098165356,-0.099356696,-0.5486374,
  -0.37850115,-0.4124592,-0.17389981,0.005288397,-0.78737545,
  -0.7391326,0.029647611,0.36137968,0.323673,-0.11147406,
  -0.23668642,0.25051725,-0.8011848,-0.2613963,-0.14829595,
  -0.4244775,-0.10931911,-0.18875064,-0.13828956,-0.11275379,
  0.0887052,-0.36031964,-0.19296655,0.10815911,0.24504477,
  -0.10584332,-0.024859816,0.15611,0.27394205,-0.050250363,
  0.119009286,0.22707729,0.066038065,0.5484186,0.6497246,
  -0.10583124,-0.7330073,-0.010192178,0.377327,-0.21694618,
  -0.54509354,0.4100089,-0.18820266,-0.5207687,0.22123133,
  0.21412937,0.4395746,0.15926124,0.44899005,-0.34541452,
  -0.89129645,-0.17888051,-0.69435525,-0.013827863,-1.4964275,
  -1.0227529,-0.32345164,-0.14151323,0.75415814,-0.9448859,
  0.1951242,0.6268909,0.12998113,0.25647047,0.27674255,
  0.1400256,-0.009483469,0.7914657,0.23118818,0.38965046,
  0.5032151,-0.7882549,-0.42536807,0.26384407,-0.36072755,
  0.6571869,0.765571,0.4139358,0.25174558,-0.16142125,
  -0.6534272,0.5839504,0.3507319,-0.339142,0.13978593,
  -0.28751057,-1.0651491,-0.027374245,0.06519874,-0.3199605,
  0.32171932,-0.15414245,0.41482502,-0.009894762,0.23040962,
  0.16703229,-0.3958782,-0.93952036,0.14173652,0.14984266,
  -0.82386875,-0.675247,-0.3196757,0.59953004,-0.07907885,
  -0.07392345,0.2578037,0.14797874,0.3169059,0.50430065,
  0.5385386,-0.31637686,0.36428523,-0.4036902,-0.8352969,
  -0.49728084,-0.10620791,-0.82109463,-0.28783292,-1.5514873,
  -1.2001381,0.0804654,-0.92730886,-1.4524943,-0.37624252,
  0.11476005,0.14078055,0.57084996,0.5351943,0.33083135,
  -0.1978404,0.27598763,-0.3903493,-0.41275778,-0.29185718,
  -0.76849383,0.31848833,-0.2595586,-0.7949206,-0.3903764,
  0.690046,-0.46783447,0.5639729,-0.04685722,0.049114645,
  0.112957716,-0.102014154,0.081384845,0.06651475,0.10032222,
  -0.04389651,0.093537,0.09416317,0.115353204,-0.017913565,
  0.047995985,0.07396937,0.07561002,-0.012261488,0.4639442,
  0.65192944,-0.023210801,-0.27088162,-0.2357499,-1.0297267,
  -0.23733139,-1.2405626,-1.0916784,-0.66778564,-0.7241415,
  -0.102498144,0.0048629465,0.042279344,-0.54079866,
  -0.029471379,-0.55207807,-0.31117252,-0.34133568,-0.45745072,
  -0.11347395,-0.22702576,-0.4655877,-0.6551393,0.09065093,
  -0.17599276,-0.6541741,-0.97083145,-0.7096394,-0.15794347,
  -0.078140296,-0.073321715,-0.3808818,0.19577253,0.050225068,
  -0.21117514,-1.1417867,-0.7346633,0.2576153,-1.0075531,
  -0.083197616,-0.23392776,-0.25606608,0.4024086,0.19453023,
  0.096451946,0.92273283,-0.34000543,-0.37223014,0.010284352,
  0.5967454,0.17513321,-0.73933387,-0.0043781986,0.0053899395,
  -0.35311168,-0.37085605,-1.1487871,-0.096660085,0.024821538,
  -0.72393924,-0.48765492,0.48287115,0.6564307,-0.23331761,
  0.0027507143,-0.10843459,0.06321375,0.21026224,0.071540095,
  -0.32203677,-0.35896412,0.32312036,0.0784422,-0.14092715,
  -0.013494027,0.3459431,0.23652503,0.15310782,0.22446302,
  -0.22836167,0.5715317,1.1230719,0.8666013,-0.30358976,
  -0.21239741,-0.07737368,-0.52440804,-0.14145878,-0.07253408,
  0.7173019,-0.089624375,-0.003468457,-0.5344639,0.7710166,
  -0.19979668,0.40848103,-0.26154396,-0.2233942,-0.10661629,
  -0.34206796,0.16898447,-0.1370429,-1.4189947,0.17279181,
  0.035840087,-0.44057858,-0.0980838,0.13004951,-0.14844798,
  -0.7025663,0.27634257,0.00043595408,-0.106595285,0.056418613,
  0.045052547,0.06041766,0.039371494,-0.0069184834,0.08144738,
  -0.08597077,0.12760392,-0.09289074,0.014359958,0.29977798,
  0.20885162,0.08045238,0.092058934,0.224037,0.51080215,
  1.0828977,0.13533473,0.16614394,0.5588938,0.1338172,
  0.5836933,0.555798,0.2308042,0.9093318,0.15323067,
  -0.21951626,-0.021758292,0.47480038,-0.04832248,-0.37100333,
  0.2193567,0.39169118,0.19254065,-0.2768888,-0.23114121,
  -0.17351393,-0.01629682,-0.28871673,0.5333611,0.40899414,
  0.4828624,-0.45526916,0.021435266,0.66535157,-0.36417034,
  0.05050237,0.13945168,-0.005523341,0.021162398,0.13584873,
  0.09056681,0.0019730525,-0.0033186455,0.12613295,0.0037978108,
  0.04774751,0.1083844,0.13822013,0.051296692,0.09814834,
  0.03148851,-0.058817152,0.06811711,0.050096035,-0.036545098,
  -0.051774047,0.088106126,0.040473163,-0.10129826,-0.0900104,
  0.020653637,-0.02933624,-0.07611175,0.03580254,0.09307356,
  -0.08959811,-0.022102423,-0.12607613,0.3248516,0.33148158,
  -0.32027212,-0.5098166,0.21118096,-0.49013063,-0.45807305,
  -0.927072,0.47626397,0.14752266,-0.36465847,-0.23927025,
  0.3908444,-0.36352757,0.40189105,-0.077381685,-0.0635243,
  -0.16499461,-0.08969416,-0.05338995,-0.421805,-0.15934944,
  0.03733166,-0.026509203,-0.0048943604,-0.07089432,0.05742896,
  -0.11142512,-0.30079535,-0.1967711,-0.24882345},
 {0.32472467,0.21152775,0.37598506,-0.90473646,0.03598372,
  -0.47646868,-0.28610623,0.7573086,0.55432904,0.011679487,
  -0.07923916,0.2549795,0.052057687,-0.41948768,0.17188135,
  0.005413146,-0.14432847,0.3060553,-0.07003169,0.526242,
  -0.5153488,-0.23790237,0.14643076,0.15374047,-0.74730814,
  -0.98629475,-0.6517677,0.21956845,-0.12867369,-0.2630173,
  0.46484873,0.7153012,-0.08816429,-0.07178455,-0.017125705,
  0.017156644,-0.052943785,-0.08900857,-0.076082826,
  -0.014036839,-0.0024693573,-0.096506596,0.00929663,
  -0.022048134,-0.0059032864,-0.12412166,-0.09260684,
  0.038851663,0.71366566,0.076251745,0.22619477,0.6656155,
  0.2578433,-0.0553706,0.3954787,0.6931729,-0.60322493,
  -0.45722133,0.26278883,0.08784425,0.27065176,0.478092,
  0.47127858,-1.0151777,0.34916154,0.34065646,-0.1481924,
  -1.0529802,0.3036956,-0.09351998,-0.3034726,-0.5019401,
  -0.35251674,-0.3457008,-0.017686581,0.6898846,0.2118799,
  0.35200918,0.19567251,0.56393594,-0.5317234,-0.027444273,
  0.01045789,-0.77219903,-1.3508183,0.1617012,0.09880684,
  0.57739854,-0.05907114,0.07256461,0.19395676,0.5387123,
  -0.4109162,-1.1980758,-0.060381416,-0.8127133,0.043302216,
  -0.047949452,-0.17579705,0.019674702,-0.11683192,0.034310944,
  -0.059387334,-0.06279808,-0.036885533,0.21534893,0.078327276,
  0.10996507,-0.013286952,-0.048555866,-0.034488175,0.08030651,
  0.03200271,-0.020707466,-0.029994002,0.010553486,-0.007412608,
  0.008496606,-0.013431754,-0.020890687,-0.18581127,0.034912806,
  0.049974144,0.04136245,0.395882,-0.08744234,0.022256715,
  0.10574579,0.28435817,-0.08462629,0.17921872,-0.7413532,
  0.6081352,0.63649523,0.22808954,0.17044477,0.37619492,
  0.393028,0.41477725,1.1036288,-1.252904,0.5094584,
  0.33297357,1.1009787,-0.3260808,-0.17473711,0.20244065,
  0.18129948,-0.015558106,0.112583764,0.22312543,0.17556638,
  -0.20234892,-0.05914812,0.19911104,0.28101465,-0.4644969,
  -0.012719621,0.02154185,0.07565685,-0.6848352,-0.6496768,
  -0.44602832,0.10683486,-1.0487435,0.49178103,0.43113127,
  0.12446595,-0.806389,-0.69501376,0.0400952,0.19456927,
  0.41269386,-0.0081360685,-0.12429018,-1.0173945,-0.016954731,
  0.20216925,-0.27781236,-0.14301346,-0.23407765,0.3978076,
  -0.16001266,-0.3091975,-0.7834282,0.21353708,-0.23544645,
  0.013071325,0.3205178,0.08262439,0.38374767,0.5300505,
  0.6417198,-0.24764316,-0.007828816,0.2451027,-1.1859821,
  -1.0881499,-0.3874249,-0.2847673,0.11354839,0.03410177,
  -0.40101612,0.181784,0.064605005,-0.08181165,-1.2145405,
  -1.0354577,-0.3255188,0.64574635,-0.018693775,0.54857546,
  0.15376654,0.71254647,0.64212364,-0.038831826,0.42758423,
  0.6276701,0.13183333,0.058042802,-0.4061941,0.81427044,
  -0.33049086,0.2405512,0.07890012,0.515824,0.13587901,
  -0.35760677,0.20130911,0.3002066,0.49898803,0.52597934,
  -0.36173806,-0.37379545,0.062704496,0.64877623,-0.3889836,
  -0.15276214,0.36120698,0.98379344,0.21136233,0.08885447,
  -0.017165394,0.39669865,0.2806129,-0.06163592,-0.32677835,
  -1.039932,-0.5857683,-0.07306303,-0.059525423,-0.1841892,
  0.3193809,0.12593769,0.320934,0.82650363,0.06652408,
  0.052942373,-0.079066664,-0.29256114,-0.12637353,0.27346095,
  0.6996895,0.6103633,-1.46564,-0.58447677,-0.21617086,
  -0.5310069,-0.76849973,-0.64961123,-0.82756,-0.6674222,
  -0.019633263,0.023964485,-0.03679432,-0.05383665,-0.031537134,
  -0.014741823,-0.06934133,0.06952294,0.08642433,0.078749344,
  -0.04478749,0.04799959,0.12431466,-0.068028815,-0.04369671,
  0.05892438,0.21820745,-0.25766614,0.013594159,-0.061912566,
  0.4512817,0.04815662,0.109888494,0.10803934,-0.21997055,
  1.0025561,0.3814161,-0.061541248,0.7935152,-0.04203722,
  -0.0107532395,-0.39485848,-0.30738217,0.45062435,0.5336229,
  0.5796343,0.0027040392,0.28440973,0.22006774,-0.16507466,
  0.27312276,0.11940418,0.7576651,-1.3177834,-0.6766015,
  -0.4111737,-0.4182422,-1.452633,-0.11712686,-0.09290483,
  -0.5365126,-0.016671533,0.1492406,0.38550755,-0.13824521,
  0.34149897,0.9991595,0.6530705,0.07892004,0.80210066,
  0.5779501,0.16653638,-0.6156284,-0.05282325,-0.6467,
  0.36090863,1.1434374,0.5075287,-1.3986775,-0.25517115,
  0.03391088,0.38436845,-1.3486036,-1.1431698,0.007532512,
  -0.2884953,0.2554256,-0.081734784,0.40484098,0.1076544,
  -0.8634349,0.07208627,-0.09941329,-0.06779962,-0.6092807,
  0.1534546,-0.05051511,-0.756057,-0.25669122,-0.27888063,
  -0.0438742,0.30670917,-0.72727835,-0.14505646,-0.18484007,
  -0.24789898,0.46492428,-0.39821103,0.41089964,-0.32797602,
  0.3748609,0.14844649,0.1062401,-0.13057566,0.27578965,
  0.15416361,-0.050921645,-0.4197894,0.0019575278,0.56025064,
  0.541846,-0.41748324,-0.5269864,0.39967898,0.25926593,
  -0.123249754,-0.07578319,0.77113557,-0.0776121,-0.6773183,
  -0.41196993,-0.08009183,0.41937795,-0.06491422,-0.18063174,
  -0.03886606,1.1652411,0.61919314,-0.03494877,0.1632756,
  0.13750266,-0.0329404,-0.1646197,0.05993148,0.12181377,
  -0.07346535,0.10251944,-0.08238607,0.06018737,-0.012216306,
  0.2839039,-0.05615872,0.040957928,-0.03696176,-0.8877382,
  -0.27978548,1.0486076,0.5478415,-0.4294919,0.3499568,
  0.06469061,-0.050039552,0.5022967,0.1543181,-0.5217562,
  -0.78487605,-1.6582296,-0.46592644,-1.6052461,-1.5646365,
  -0.24116163,-1.1940807,-0.47701064,0.08412121,-0.16446964,
  -0.21625058,0.07016484,0.56567043,0.50105083,0.0012544554,
  -0.3229724,0.060163368,0.0022453642,0.22741212,-0.40593892,
  -1.3397825,0.027372949,0.0071291234,0.054415796,-0.08285282,
  0.038566362,0.022556309,-0.044368938,-0.075733595,0.038981736,
  -0.0055215457,0.035911143,-0.10329353,-0.07029301,-0.01482456,
  -0.020172283,-0.28289017,0.09247323,-0.030167818,0.043132327,
  -0.049946997,-0.073957,-0.055318207,-0.0932969,-0.05704866,
  -0.01953376,-0.03801028,0.24290179,0.037805963,0.020206308,
  -0.046109922,0.02454658,-0.024795543,-0.09334947,-0.6811364,
  -0.67201144,-0.31168815,-0.8435057,-1.130114,-0.17758636,
  -0.19104923,0.17196956,-0.03842563,-0.6569405,-0.08836916,
  0.35212588,0.54924804,0.4989751,-0.005024872,-0.1976742,
  -0.048511654,0.17653391,0.37652877,-0.15369125,-0.09419842,
  -0.19106759,0.24166326,0.2632583,0.10588697,0.21863921,
  0.22162794,0.045665555,0.18139058,0.33632952,0.33473137},
 {0.2511899,-0.24297869,0.20170873,-0.08638206,-0.01711396,
  -0.38551104,0.02757802,-0.09044705,-0.52940357,-0.44075543,
  -0.3774585,-0.7198165,0.5102785,0.11475182,0.26417866,
  -0.28404775,0.2084435,0.2862323,0.13225646,-0.3210069,
  -0.15901019,-0.002916091,-0.14902624,-0.2737984,-0.7235657,
  0.43308187,0.33384967,0.21855782,-0.3883664,-0.017828774,
  0.2512158,-0.4319,0.16913599,0.17360887,0.080497935,
  0.07343201,0.22865039,0.32421228,0.03540409,-0.094771914,
  0.00038206938,0.2724074,0.17556246,0.10834794,-0.06655025,
  0.1243918,0.22075497,-0.029900888,0.33267096,0.5255491,
  0.16792059,0.7353401,0.19274506,0.24711315,0.4826688,
  -0.11118158,0.4902775,0.0011764962,-0.20689176,-0.20630884,
  -0.024338132,-0.5679747,-0.6274892,0.614737,0.6987147,
  0.22127648,-0.2560431,-0.53525466,0.12660165,-0.058932863,
  0.26423052,0.47869855,-0.0735472,0.7164498,0.14602153,
  -0.7052126,-0.21915035,0.21566997,-0.11677029,-0.14749227,
  -0.44517168,-0.43617564,-0.15198134,0.09619087,-0.31842673,
  -0.42924958,0.095378004,0.24449955,-1.0177975,-0.48372352,
  0.08290261,0.11478164,-0.30635086,0.00603413,0.22601339,
  0.10476246,-0.5174016,-0.40025407,-0.009477228,0.009655493,
  -0.2935942,0.08602639,0.026159128,-0.038042754,-0.26467997,
  -0.15227917,0.052503202,0.08933219,0.11356566,0.050818868,
  -0.012530061,-0.15345778,-0.10628405,-0.0539217,-0.071227685,
  -0.13675724,-0.27509645,-0.27079642,0.06718421,-0.1156074,
  0.14854984,-0.09789003,-0.06152192,-0.09901263,-0.2185368,
  -0.20206125,-0.24570124,0.02337451,0.055015113,-0.024415167,
  -0.48139197,0.16395341,-0.21728972,0.035021793,-0.2854181,
  -0.026392056,0.35909352,-0.23931403,-0.34556395,0.008610011,
  0.5959639,0.4707451,0.044565044,-0.763577,0.30150884,
  0.20659374,-0.020712389,-0.040435147,-0.016931817,-0.29834935,
  -0.42945316,0.12193634,0.09141464,-0.04530272,0.057355344,
  -0.16538492,0.16546509,0.1755531,-0.076833345,-0.044315364,
  -0.6625791,0.80363405,0.5947713,0.89485466,-0.5748663,
  0.10426517,0.17425983,0.45036727,0.06187518,-0.9664146,
  -0.031790458,0.018154714,0.5831812,-0.60880345,-0.04992497,
  -0.04471366,-0.22585052,-0.5407776,0.2503425,-0.9468796,
  -0.052284088,-0.3448188,-0.37725884,-0.25374657,-1.609918,
  0.18283181,0.38520345,-0.4485203,-0.2724791,0.45564124,
  -0.4376812,0.041513246,-0.9502272,0.17313085,-0.29738945,
  -0.09842285,-1.1338259,-0.38604578,0.2287512,-0.031998716,
  -0.31754035,-0.17659286,-0.11295993,-0.19288918,0.28992584,
  -1.0748239,-0.43210515,-0.52468514,0.04801965,-0.68497646,
  0.27136588,-0.9677621,0.31303197,-0.06743001,-0.11909566,
  -0.612952,-0.8401871,-0.24990036,0.15155698,-0.7734038,
  -0.19040352,0.40804532,0.5507725,-0.6069618,0.15465008,
  -0.040079568,-0.17432739,-0.3616973,-0.48617306,-0.27003735,
  -0.0070781484,0.12339734,-0.15177004,-0.09111011,-0.77040994,
  -0.84482354,-0.24117643,0.091733016,-0.29276565,-0.3947859,
  -0.57781786,-0.8403027,0.08061139,0.4728283,-0.92731655,
  -0.025946435,0.4803596,0.65466547,-0.7333852,-0.056767453,
  0.50170356,0.5158518,-0.50614274,0.45250463,0.71287537,
  -0.37172687,0.09248422,0.2579108,-0.14040934,0.28877953,
  -0.23914377,0.085114144,-0.59816194,-0.36267993,0.8320039,
  0.6102692,0.12044913,0.089804284,0.18082109,0.051710896,
  0.23122257,-0.43816128,-0.01607182,-0.06174605,-0.03894173,
  -0.03748147,-0.06015323,0.056099482,0.028786218,-0.075802416,
  0.09406442,0.048636373,0.032752972,-0.06983234,0.015213931,
  0.0635601,0.035597906,0.064689875,0.6333328,0.65969115,
  0.6854904,0.773552,0.0900251,0.44286713,0.60233057,
  0.6042791,-0.043087337,-0.16488656,0.16709767,-0.09991226,
  -0.5879315,0.039712258,0.48114568,0.32845438,0.42441958,
  0.86220455,0.38581577,0.13756876,-1.0036252,-0.101422995,
  0.318597,-0.09930487,-0.62590814,-0.42345628,0.08410236,
  0.60859585,0.2374206,-0.40287155,0.2636746,0.4931472,
  -0.39865306,0.27934098,0.29666921,0.3507315,-0.6956859,
  0.049289536,0.35672373,0.1978704,-0.77181506,-0.40665284,
  -0.1666722,-0.51662064,-0.2930054,-0.56606084,-0.1603475,
  -0.26174915,-0.19286388,-0.07392046,-0.12603398,0.16323748,
  -0.854802,-0.46753687,-0.36812901,-0.07107919,-0.9736576,
  -0.41424084,-0.4917764,-0.19306648,-0.23742948,0.14157343,
  -0.64733905,-0.49662232,-0.64883924,-0.6588196,-0.16615933,
  -0.013006151,-0.16214435,0.101015285,-1.1005093,-0.47290573,
  -0.7658975,0.384876,-0.21172167,-0.11653108,-0.055165835,
  -0.3255365,-0.21255982,-0.34639797,-0.96401787,-0.3515991,
  -0.8100707,-0.18488598,0.69328207,-0.50084066,-0.5111467,
  0.37958804,0.56048733,-0.8465175,0.7390771,0.58504087,
  -1.2995299,0.028185144,-0.55574775,0.2662134,-0.18193398,
  0.1364259,0.08734475,0.16344474,-0.40727845,0.0828917,
  -0.3541714,0.5190519,0.49607402,0.3089884,-0.05272418,
  0.40367734,0.32299012,-0.16894569,0.09291944,0.15036051,
  0.12242652,-0.34584713,-0.29209673,0.051939234,-0.013287033,
  -0.30380636,-0.08605662,0.047224525,-0.4587057,-0.040521536,
  0.19932137,-0.06352541,-0.28944007,-0.41705436,-0.113289565,
  0.082346395,-0.813125,-0.24626037,1.1555403,0.66077703,
  -0.9547578,-0.87690884,-0.95887434,-0.38158318,-2.5467458,
  -1.039253,-0.7841174,-0.73550224,-0.8335452,-0.23664954,
  -0.15313171,0.70069724,-0.90187436,-1.4383082,-0.6578882,
  -0.12043054,-0.96736026,-0.10650279,0.121966235,-0.33784243,
  -0.08914508,-0.54132444,-1.2691649,-0.3502899,-0.72088903,
  0.4566935,-0.4107921,0.39733982,0.04075548,0.029276146,
  -0.06322625,0.34726334,0.07735021,-0.115527354,-0.014827626,
  0.33791864,0.011545042,0.01908105,-0.12115473,-0.012800713,
  0.03203961,0.075296536,0.009220898,-0.009096593,0.08921471,
  -0.023888033,0.08058892,-0.01998478,-0.08464177,-0.09549733,
  0.087905034,-0.06922754,0.023875264,-0.054271925,-0.105652615,
  -0.048285563,0.092236035,0.06708245,-0.08964588,0.018768033,
  -0.9142923,-0.54287034,-0.21954751,-0.18223053,-0.6056219,
  -0.43384168,0.006030312,-0.069548555,-0.71887857,0.097150125,
  -0.18038103,-0.17479368,-0.22347933,-0.92817765,-1.2788004,
  -0.6797967,-0.3001574,-0.50816494,-0.21811703,-0.014599757,
  -0.21571524,-0.18141149,-0.14157207,0.18457241,-0.3651699,
  -0.0632322,-0.25977877,-0.22251171,0.0059463247,0.18986115,
  -0.30165383,-0.37446317},
 {-0.5472522,-0.48280165,-0.6712425,-0.18164955,-0.043352943,
  0.28234956,0.3967216,-0.009228008,0.026513312,0.50861204,
  0.551929,0.70027304,-0.14137587,0.40584162,0.24982788,
  -0.030182395,-0.63541853,-0.7342008,-1.2343259,-0.9135761,
  0.11940508,0.07785881,-0.3277352,-0.9564104,0.53879976,
  0.3530799,-0.14764269,0.046115052,0.20216271,0.071345754,
  -0.4743956,0.0029253606,0.036010526,0.013250319,-0.010516804,
  0.055055566,0.047918867,-0.005427918,0.006271574,-0.020775648,
  -0.060647454,-0.0530845,-0.048967104,0.014010194,-0.101793505,
  -0.002258536,0.017203921,0.05132034,-1.1475906,-0.016794423,
  -0.26862076,-0.99757916,-0.7476357,0.36454967,-0.93376,
  -0.28663614,-0.2020159,-0.25938383,-0.4648773,-0.08862299,
  -0.30763683,0.48631895,0.18063523,-0.02449697,-0.67494804,
  -0.26081964,-0.79769266,-0.60031515,-0.70477545,0.7498741,
  -0.003453558,-0.091252714,0.4744496,-0.23923786,-0.257708,
  -0.066592775,0.33198872,-0.28699273,-0.6827018,0.09071,
  -0.64688,0.3582629,0.1782787,0.8425499,0.08831941,
  0.39237437,-0.7411053,0.29984006,0.49685672,0.6781333,
  0.1786672,-0.6990956,0.6493503,0.635842,-0.01848329,
  -0.18027332,0.06771062,-0.029324321,0.0023527984,-0.09294154,
  0.043147907,-0.017970309,0.027555738,-0.22938727,-0.115303434,
  0.01066654,-0.029436363,-0.0017636182,0.01297378,-0.030054074,
  -0.06354697,-0.14069416,0.043643616,-0.0012567787,0.05675301,
  0.08100956,0.009383454,0.0019886738,0.038722243,0.015018867,
  0.08770071,-0.074109934,0.08934414,0.028859014,-0.08306592,
  0.19938542,0.033733096,0.050630268,0.25311336,-0.068458356,
  0.10175492,-0.43114808,-0.21610089,-0.2080291,0.063301824,
  -0.6532507,-0.2394404,0.10993315,0.14717914,-0.013286828,
  0.099832185,0.13667288,-0.25619236,-0.019095227,0.20413329,
  -0.17670998,0.13700043,-0.18770184,-0.11422393,-0.37006733,
  -0.17035405,-0.23513983,0.1152841,-0.24417509,-0.09193342,
  -0.10517366,0.12935898,-0.075133264,-0.17223747,-0.39202368,
  1.0267562,0.92674905,0.012178021,0.24233106,0.32189906,
  0.366598,0.08938971,0.21932743,-0.17826691,0.055496167,
  -0.11654662,-0.36558706,-0.65203536,-0.3821068,-0.04780873,
  0.10919448,0.05573083,-0.69445324,-1.0637211,-0.5551412,
  -0.50877357,0.403646,-0.14343148,0.061715975,0.47077477,
  0.62896335,-0.025524396,-0.038326755,0.21792668,0.21419235,
  -0.5456296,0.3501323,-0.25900173,-0.52800757,-0.10704337,
  -0.16065343,0.10802462,-0.3730507,-1.2065829,-0.21855731,
  0.5299317,0.21404299,0.41464987,0.14300811,-0.29347718,
  0.31129166,0.7067728,0.51880497,0.69067425,0.13593455,
  -0.11217035,-0.06458405,0.55906796,-1.3137118,-0.26149368,
  -0.39399073,0.21686232,-0.4480147,-0.6213836,-0.4158958,
  0.48759937,-0.23024966,-0.2677039,-0.58353716,-0.9232265,
  -0.43697008,0.12854709,-0.38087344,0.2248637,0.43597627,
  0.46408135,0.33294523,-0.31597936,0.08218135,0.7668229,
  0.58389693,-0.44877124,-0.32969326,0.018986607,-0.71323746,
  0.9195379,-0.12592039,0.013081689,-0.10098394,-0.07602066,
  0.36225897,0.27416456,-0.05786253,0.18125173,0.58338255,
  -0.74561733,-0.10913496,-0.047569063,0.21761334,0.18215233,
  0.6781005,0.6424448,0.26380014,1.2691656,0.39206082,
  -0.035138376,-0.5617456,0.565049,0.19766977,0.15379259,
  -0.74711514,-0.097941115,0.04087782,0.06994762,0.008844635,
  0.46453625,-0.01938122,-0.0421158,0.017970162,-0.051026102,
  -0.022545477,-0.0008220995,-0.03602091,-0.00048761678,
  0.026915008,-0.05613299,-0.05480456,0.002388569,-0.029452952,
  -0.0149303,-0.017599324,-0.022962624,0.028770708,-0.06543166,
  -0.19146426,-0.7001839,-0.6823331,0.15363435,-0.5037198,
  0.19393529,-1.1324512,0.08338039,-0.23481794,-0.49149162,
  -0.5560374,0.2443185,-0.28748938,-0.99324536,-1.0896046,
  0.21695222,0.05500439,-0.964875,-1.2618173,0.46759883,
  -0.96959746,-0.83627796,-0.35947073,0.24122538,0.14666392,
  0.07342594,-1.3106147,0.6000092,0.11397897,-0.26157448,
  -0.8097033,-0.5967262,-0.5012509,-0.67463374,0.06989046,
  0.37425643,0.2240005,-0.08212244,-0.37346745,-0.036703173,
  0.20935348,0.4967354,0.63996667,0.30123517,0.011011924,
  0.13275087,-0.126086,0.464387,0.008077415,-0.27044252,
  -0.18762934,-0.05772298,0.12724721,0.2872512,0.36269945,
  0.0043804697,-0.099424005,0.4511104,0.41440052,-0.29768455,
  -0.3040554,0.00014889498,0.054555327,-0.74862087,-0.32730642,
  0.1214475,-0.0031096104,0.08031535,-0.07972136,-0.24893117,
  -0.079148225,-0.44519794,0.2651597,-0.34745204,0.16818179,
  -0.2418288,-0.0044967355,0.32309532,-0.16183586,-0.65237206,
  -0.6803806,-0.72938585,-0.7452839,-0.36208367,-0.86754745,
  0.6022087,-1.0921763,-0.38306108,-0.1771394,0.4658976,
  -0.21019244,0.7667532,0.01678932,-0.39491925,-0.16232991,
  0.124799326,-1.1518927,-0.36631906,-0.15942073,0.13748547,
  0.12731431,0.09666174,-0.4038912,-0.4943499,0.10847787,
  0.018040378,-1.0221692,-0.1257598,-0.7255926,-0.11878311,
  -0.11071791,0.20053409,0.24117084,-0.026365794,-0.07614322,
  0.13791811,0.015255774,-0.08451111,-0.07016339,0.19978042,
  0.13562834,-0.08735825,-0.07310617,-0.03678864,0.15662996,
  -0.019627277,-0.09291921,0.3599653,0.32057604,0.31823692,
  0.4540772,-0.1043529,0.04177593,0.06065138,-0.039823614,
  -0.42121243,-0.7528854,-0.5798565,-0.010261073,0.8247095,
  0.26133084,-0.4941506,-0.4904176,0.22385931,0.4117031,
  0.5816824,0.8774784,0.08080851,-0.20014213,0.64719355,
  0.02202859,-1.1467407,-1.0598261,-0.52929336,-0.28252134,
  0.3356313,0.14976683,-0.8032513,-0.14058894,0.00264916,
  0.024489857,0.025161615,0.080463335,0.030070785,0.061028946,
  0.01647831,0.0927343,0.036436915,0.0023065638,0.03661399,
  0.086499274,0.027333265,0.044137716,0.10263384,0.066527285,
  -0.03977278,-0.04847838,-0.07362763,-0.038354557,-0.0648055,
  -0.083782166,-0.049206674,-0.040145367,-0.030824916,
  -0.086866945,0.06238603,-0.08040373,-0.04764179,-0.088409185,
  -0.034550425,0.02232989,-0.016070526,0.1078381,0.20789167,
  0.715807,-0.06889631,-0.40239593,-0.0074081174,-0.25680712,
  0.16388747,-0.42316112,0.2994405,0.8695065,-1.0264326,
  -0.15668231,0.4748049,0.43095085,-0.092875026,0.14371929,
  0.08134612,-0.2401814,-0.3074828,0.2213115,0.3230312,
  -0.3316587,-0.21708994,-0.29381326,0.099457435,-0.33277908,
  -0.02568893,0.16179313,0.16167429,-0.44257382},
 {-0.3930492,0.11256208,0.36972022,0.5303112,-0.45567915,
  0.14168118,0.38524765,-0.25656778,-0.3400307,-0.06733337,
  -0.40787303,-0.51877296,-0.2129946,0.16160615,0.19777504,
  -0.19001292,-0.04671611,-0.7349414,-0.2892064,-0.4287868,
  0.15706109,0.13860597,0.40658438,0.44826943,0.2608014,
  0.24612936,-0.04365522,-0.0029943944,0.07835707,-0.017279383,
  0.14153634,-0.06188816,-0.08880346,-0.012803595,-0.06439742,
  -0.062349454,-0.03789064,-0.05160707,-0.072003916,
  0.0036697425,-0.0068786517,-0.04830301,-0.039496403,
  -0.0011027453,0.08053152,-0.036710814,-0.025974594,
  -0.016683007,-0.47721323,0.6363029,-0.035223804,0.21117167,
  0.36267644,-0.24533954,0.024115449,-0.25332275,0.24922931,
  -0.0017401488,-0.11265356,-0.52082855,0.094956875,0.042209845,
  -0.0868062,0.12044961,-0.55330765,-0.35525423,0.4987008,
  0.98116547,0.46361688,0.15268075,-0.118217915,0.828506,
  0.71291953,-0.13313536,-0.16568029,-0.34454346,0.12455283,
  0.0030121314,0.031168109,-0.46000043,0.095226035,0.138448,
  -0.2072535,-0.09514148,-0.43529484,-0.028562108,-0.57367516,
  -1.034791,-0.2047259,-0.20376317,-0.22236,-0.42697448,
  -0.095358014,-0.19512677,-0.37180817,0.24604174,0.14556576,
  0.07622507,-0.04088069,0.038116667,0.010043558,0.06678145,
  -0.038209647,0.1735257,-0.07564092,0.046327174,0.0017390695,
  0.062007617,-0.1299436,0.010169597,-0.05708268,-0.040604208,
  0.077490985,0.03567891,-0.004414959,-0.047093578,0.09118983,
  0.035845187,-0.052674014,-0.066542484,-0.18963338,
  -0.024637394,-0.097928874,-0.057995718,-0.53789127,
  -0.28488368,-0.1466828,0.00044459547,-0.34277055,0.12257657,
  0.17261258,0.1591967,0.14920327,-0.04855858,0.20279,
  0.20235811,0.28844148,-0.10790496,-0.022576906,-0.04230583,
  0.51056784,-0.25510043,-0.06095633,-0.2410764,0.13348822,
  -0.029838882,-0.13601013,0.0647435,0.052437212,0.05263526,
  0.09199572,-0.122909084,0.14493327,0.111146905,0.07864516,
  -0.043566883,-0.10386208,-0.08562215,-0.035694554,
  -0.109310694,-0.16556412,-0.36040735,-0.12301178,-0.4803032,
  0.13423401,0.2910421,-1.0650109,-0.4107571,-0.46343052,
  0.35962442,-0.08309736,0.14723298,-0.23329498,-0.5390097,
  -0.21861513,-0.1121709,-0.008235371,-0.27356297,0.5147249,
  0.9245873,0.26950926,0.58595055,0.19965439,0.97648346,
  -0.32951072,-0.28183502,-0.0050085057,0.7166899,-0.16645187,
  -0.17219973,0.22504319,-0.29950687,0.327381,0.5404807,
  0.13515258,0.3812426,-0.48662424,0.35769472,0.43469185,
  -0.061203633,-0.94367325,-0.061992366,-0.2546281,0.07046787,
  -0.1352632,-0.0535642,-1.3048179,-0.38643426,-0.06286302,
  0.21280898,-0.14698154,0.28070164,-0.020561762,-0.4006161,
  -0.5256121,0.44897845,0.1182838,-0.20316137,0.16804612,
  0.31312844,0.28052276,-0.070369355,-0.10346173,0.13392955,
  -0.31044814,0.033022687,0.5029739,0.71156764,-0.038827218,
  -0.02642364,-0.41262713,0.054766178,-0.30220923,-0.22830926,
  -0.33969337,0.037328772,-0.031102223,-0.04721074,-0.03320418,
  -0.9177955,-0.17106605,0.31422776,-0.15701021,-0.41414577,
  0.0400495,0.08426873,0.4462255,0.5179286,0.036750384,
  0.22898023,0.3744814,0.16244519,-0.32388896,0.033882685,
  -0.32712403,-0.3791905,0.5481747,0.30772933,-0.568066,
  -0.7508133,0.4225339,-0.00061724207,-0.115470886,-0.69466966,
  0.39398706,0.6884157,-0.1550858,0.10945019,-0.14702398,
  0.20578316,0.04609284,0.22866713,-0.0034657686,-0.034591302,
  -0.0690673,-0.03443252,0.037615277,0.017765572,-0.051639333,
  -0.032805312,-0.020882787,-0.049619988,-0.05212069,0.04681221,
  -0.047807496,0.016072288,0.03081741,0.037198562,-0.4484513,
  -0.65065837,-0.8019944,-0.84246695,0.5080198,-0.5229005,
  -1.0660897,-0.84189755,-0.0054464457,0.29130226,-0.076149516,
  0.045107033,-0.43294165,0.4669366,0.31241667,0.50805455,
  -0.25675645,-1.1186055,-0.81900626,-0.8796996,-0.7465247,
  -0.4239968,0.09127429,0.029239163,0.19598567,-0.13439113,
  0.2182899,0.66146374,0.08823284,0.7819229,0.635554,
  0.4987712,0.3491721,0.060297932,-0.018335763,0.032105163,
  -0.3173126,-0.35648787,-0.48956776,-0.050926525,-0.61911124,
  -0.60764134,-0.7537203,-0.20944974,-0.5154177,-0.83004504,
  -0.23709382,0.3323163,-0.043200023,0.31071803,-0.32912153,
  0.04174814,0.37084824,0.044645216,-0.26730695,0.30934596,
  -0.3571993,-0.0884469,-0.64020985,0.23199145,-0.16789488,
  -0.01330189,-0.71798164,-0.16726148,0.22699344,0.03324846,
  0.016242534,0.2735388,-0.35238916,0.0035274038,-0.17999287,
  -0.14982954,0.2855159,-0.21424659,-0.3360131,-0.03072405,
  -0.47820306,-0.1987197,-0.24435289,0.1442239,0.04007719,
  0.019536931,0.72719556,0.80499876,0.21512623,-0.34361574,
  0.1625902,0.6045731,-0.3882599,0.6234745,0.360849,0.5536812,
  -0.33706033,-0.40325618,0.089555934,-0.46819544,-0.39158562,
  -0.14468504,-0.20013854,-0.6345918,-0.20762788,-0.13541724,
  0.37504748,0.3429104,0.45657405,-0.16161403,0.19337459,
  0.4874898,0.15909305,0.19005477,0.20320365,-0.07749983,
  -0.18392363,-0.29385188,0.074774764,0.100499645,-0.28244734,
  0.23511262,0.06627461,0.052270766,0.19480129,0.04479158,
  0.07555309,0.055068824,-0.13596882,-0.18038432,-0.22697446,
  0.08180606,-0.22255932,0.084414095,-1.1506028,-2.3466358,
  -0.41126347,0.113672264,-0.9214879,-1.0500833,-0.50353914,
  0.70171976,0.061697226,0.45368147,-0.3125867,-0.7909911,
  1.0815234,0.57332987,-0.09553708,0.26928475,0.22017759,
  -0.62155575,-0.04679529,0.046446845,-1.185143,-0.98832977,
  -0.17767031,-0.09570816,0.5018784,0.042442575,0.08684809,
  -0.75322664,0.08781845,0.54028714,-0.020123294,-0.0721802,
  -0.0045226878,0.0438483,0.030199554,-0.024996927,-0.061465386,
  0.0015197749,0.04675423,-0.06533004,-0.03606031,-0.10159956,
  -0.043995164,-0.004260856,-0.04975839,-0.082201935,
  -0.086941384,-0.059865754,-0.026056997,-0.076687716,
  0.032201204,0.09950115,-0.030339882,0.06353981,0.034584362,
  -0.080258764,-0.055717926,0.10353935,0.096769035,-0.018665954,
  -0.075950995,-0.035013836,0.5548588,0.7210306,0.60894287,
  0.5688708,0.16633622,0.41609934,0.50735766,-0.59614587,
  -0.13856514,-0.02005612,-0.79386955,-1.1511965,-0.18873729,
  -0.819388,0.0085554505,-0.4056661,-0.06173162,0.0036079013,
  0.038166,0.02369142,-0.008600957,0.058705743,0.008271838,
  -0.12922195,0.03932428,-0.026087398,-0.03874604,0.00038882406,
  0.0764469,-0.018121528,0.069931544,-0.07042184},
 {-1.7856199,-0.03048696,-0.4106596,-0.3796389,-0.47284946,
  -0.125714,0.097748175,0.3941105,0.06560661,0.075617515,
  0.48594978,0.40762904,0.03516579,0.057652228,0.2520241,
  0.0671766,-0.40466988,-0.20063642,-0.08098197,0.17599988,
  -0.9878912,-0.87733996,-0.9169009,-0.027673967,-1.498746,
  -0.74907637,0.033968147,-0.41099548,0.009021133,0.48837736,
  0.49001405,0.31309703,-0.008158075,-0.026301835,0.08366315,
  0.06054739,-0.062891185,-0.099310406,-0.08335104,-0.07194184,
  0.015868274,0.007871187,0.10828543,-0.005620871,0.024300748,
  -0.1520525,-0.16690306,0.09663526,-0.36578038,-0.37478918,
  0.6232381,0.5641147,-0.34307003,-0.82258266,-0.010520709,
  -0.07814264,-1.2475775,0.11895769,-0.08902233,-0.17290264,
  0.44530708,0.11947439,-0.029301452,0.27551642,-0.90138865,
  -0.13216193,0.11543841,0.30744082,-0.6194993,-0.012183388,
  -0.5161915,-0.05305296,-1.6926419,-0.5639927,-0.8599775,
  0.02341561,-0.34886461,0.08453215,0.4766859,0.33362538,
  0.46543795,0.5241503,0.51724386,0.18589883,0.018364688,
  -0.16379859,0.30044726,-0.8818565,-0.11263436,-0.719462,
  -0.049010843,0.24103566,-0.7028463,-0.060839117,-0.19637479,
  -0.35172865,-0.074239455,-0.11867351,-0.023938062,0.056193575,
  -0.022170013,-0.06782873,0.07730514,0.053476825,-0.20966558,
  -0.09019419,-0.074309334,-0.21774419,-0.07920317,-0.07924558,
  0.0027885775,-0.13397358,-0.31329688,0.055836126,0.03595111,
  0.022070775,-0.17053336,0.01684804,-0.0232504,0.09281646,
  0.07011684,0.061367992,0.010288965,0.08105855,0.08488542,
  0.05680366,-0.021916157,0.059854813,-1.5534053,-0.8671085,
  0.3297377,1.193287,-0.83227444,0.00908917,0.18560198,
  0.8397714,-1.2012234,-0.13854992,0.18049915,-0.199988,
  -0.67387587,-0.7513464,-0.4785808,-0.39561117,-0.04531403,
  -0.10426427,0.27379426,0.19314097,0.09173491,0.04373781,
  0.1698898,0.21999338,0.31144026,0.19602288,-0.026161063,
  -0.035014335,0.39398703,0.28321603,0.3655718,0.24243428,
  0.63875973,0.8842177,0.022862002,-0.94345343,0.45279863,
  -0.0685008,0.015220176,-1.200859,0.19936202,0.10790463,
  -0.3868394,0.056637153,0.018531812,0.5044652,0.33513534,
  -0.096147805,0.038102627,-0.14905185,-0.6539145,0.14623792,
  -0.24796572,0.4183925,-0.23410319,-0.72174615,-1.0255356,
  -0.6498715,-0.022958923,-0.49822325,-0.41924775,-0.47762582,
  0.20570514,-0.28926942,0.57936144,0.06805078,0.82555974,
  -0.0147743225,-0.21086936,-0.1345548,-0.15017116,-1.6588967,
  0.3894654,0.4257143,-1.04567,0.094429396,-0.6066322,
  -0.104032375,-0.41276497,-1.1421614,0.42567343,0.26126012,
  -0.49704054,0.5274979,-0.13542016,0.08971866,-0.2807535,
  0.4680421,-0.92138356,-0.19261189,0.32514933,0.46461633,
  -0.5101064,-0.97860557,0.05344988,0.026442464,-0.4217234,
  -0.19026022,0.19906329,-0.7865944,-0.5620463,0.010726631,
  0.14806427,0.35000366,0.10377527,0.14120789,0.3251696,
  -0.28871754,0.24952559,0.14558971,0.19487505,0.22620155,
  -0.13911197,-0.32972184,-1.1989256,0.32961276,-0.7671728,
  -0.95839936,0.21679746,-0.31194967,-0.70082027,-0.4725634,
  0.027010709,-0.17761396,0.4649017,0.13117075,0.084141426,
  0.39073092,-1.4492389,-0.48880836,-1.1697816,0.10590639,
  -0.52629066,-0.7257646,-0.9718374,-0.6939685,0.35260805,
  0.038276616,-0.15742426,0.22424439,0.4695562,-0.25241762,
  0.37114486,-0.5249848,-0.07465042,0.00043721014,-0.042846974,
  -0.047349896,-0.021003958,-0.004258532,-0.12351499,0.09430076,
  -0.031489614,-0.041087877,-0.068567134,0.07385677,-0.03528663,
  -0.10650718,-0.042037513,-0.11618331,-0.85707134,0.4850819,
  -0.11156929,0.053230338,-0.09488723,-0.8158182,-1.360704,
  -0.9350485,0.3537993,0.30338824,0.205665,0.64617133,
  0.22156087,0.3551051,-0.051411286,0.26219803,0.4346327,
  -0.06613328,-0.5331907,-0.57643473,0.7719754,-0.58752596,
  -0.71130323,0.3405348,-0.068471454,-0.3980793,-0.094689265,
  0.35489884,-0.55449474,0.21324374,0.1079036,0.38115996,
  -0.06942897,-0.15985663,-0.020287892,-0.37139902,0.12019326,
  0.28463772,-0.18270008,0.3474204,-0.27291813,-0.02081097,
  0.090733774,-0.42246842,-0.78414834,-0.1681023,-0.29790282,
  0.08659634,0.6871708,0.46800533,-0.60247,-1.0250068,
  0.37322113,0.5174908,-0.7341587,-1.4559902,0.05431264,
  0.5633762,0.30443922,-0.16349928,0.43226728,0.42860457,
  -0.035271704,-0.17223279,0.49086565,-0.110150546,-0.32696554,
  -0.14236397,0.4627452,0.038253162,-0.5313806,-0.85596764,
  0.24767174,-0.23163031,-0.24548055,-0.1408968,-0.07523026,
  -0.52133447,-0.4386299,-0.28756556,-0.32531744,0.8853006,
  0.36805242,0.39568618,-0.2465356,0.9935042,0.2688892,
  0.31508067,-0.36886376,-0.48217645,-0.56956613,-0.70768124,
  -0.9498856,-1.3674188,-0.71833664,0.18815508,-2.3278887,
  -0.9423202,-0.24803121,0.13256678,-0.72705144,-0.2959082,
  -0.185983,0.6836083,-0.05036203,-0.12705535,0.5117664,
  0.4382525,-0.25668213,0.10845346,0.19497328,0.48419857,
  -0.28738186,-0.21597907,-0.06769075,-0.09042277,-0.25047418,
  -0.16196012,-0.19186307,-0.053706862,-0.06638669,-0.27081013,
  -0.17492798,-0.05844508,0.27032104,0.07689005,0.0256944,
  -0.09046992,0.43647477,0.50964946,-0.19829893,-0.92104334,
  0.20141561,-0.24709474,0.8321999,-0.15554512,0.26620656,
  -0.24035946,-0.15215363,-0.102926634,-0.9701095,-0.32919237,
  -0.86465645,0.33181912,0.21660756,0.5286054,0.8264405,
  0.1642936,0.22175163,0.8885128,-0.01559318,-0.6977604,
  0.2256259,0.23255238,-0.48386022,-0.82464933,-0.053727515,
  -0.7207381,-0.49617985,-0.22394428,0.068315916,0.047749065,
  0.03651146,0.08726991,-0.032110997,-0.04726311,0.12597348,
  0.16412598,-0.023590216,0.045928683,0.016685234,-0.048852988,
  -0.03540962,-0.11877712,-0.0786054,0.031066589,-0.09854068,
  0.10145862,-0.073186874,-0.01605163,-0.043310713,-0.07504958,
  -0.081709385,-0.09749562,-0.026104132,-0.06979176,-0.19316973,
  -0.017910503,-0.035816636,-0.026711384,-0.07772701,
  0.016919415,0.4103497,-0.085354805,-0.782492,-0.66040784,
  -0.31312695,-0.14954723,-0.25819254,0.17523192,0.6367409,
  0.04371427,0.6492491,-0.6549574,0.60682213,0.29357478,
  0.12993854,0.09489194,0.19160397,0.23481092,0.16534899,
  0.24205299,0.20638102,0.27323967,0.06347383,0.2011986,
  0.19770187,0.2443906,-0.08291018,0.2176682,0.17350683,
  0.3426869,0.18782467,0.16739704},
 {0.5214435,0.27069807,0.2020061,0.3886678,0.19119357,
  0.48793778,-0.041361745,-0.08655246,0.42283118,-0.46337616,
  -0.30993062,0.5843415,-0.81895345,-0.1389581,-0.6651428,
  0.15278213,1.2490332,0.54515946,0.5568438,-0.16896592,
  0.06980099,-0.31226045,0.30024594,0.060832784,-0.4156952,
  -0.35285524,0.48104632,0.02769826,-0.76893026,-0.4584572,
  -0.28762776,-0.3219614,0.066561736,-0.05163601,0.0062945383,
  -0.08430507,0.10699385,0.024423933,0.101313986,0.00954891,
  0.04053557,0.046784583,0.036628302,-0.05120884,-0.07464466,
  -0.06407321,-0.071443096,-0.011963424,0.20988396,0.031760547,
  0.015079099,-0.28357074,0.4591531,-0.15218294,-0.2737196,
  -0.23623101,0.20511845,0.052288897,0.022136573,0.4496745,
  -0.87583715,-0.6579676,-0.316493,0.33712885,0.52395463,
  0.35486963,-0.022457149,-0.84523034,0.456022,-0.09686374,
  -0.0856558,-0.5089259,0.19587998,-0.4812263,0.10651814,
  0.105070405,-0.47781655,-0.69073606,-0.67710346,-0.10760606,
  -0.25870025,-0.94640607,0.3604144,-0.2585452,0.062910914,
  -0.22418444,0.49075973,0.056261756,0.5652063,-0.071424894,
  0.17163324,0.11785028,0.7460193,0.14061067,0.19797163,
  0.30715257,-0.010969449,0.08204716,0.052198138,-0.0447709,
  -0.050230928,-0.062355503,-0.00034009744,-0.017977104,
  -0.19449721,0.013846076,0.011696001,-0.013337843,
  -0.0054800734,0.07690216,-0.019428156,-0.096774384,
  -0.09164777,-0.11963849,-0.031044636,-0.008661442,0.051287327,
  0.010628819,-0.05008739,-0.044356875,-0.15735711,-0.05843629,
  -0.015363672,-0.010684658,-0.107723214,0.0022540626,
  -0.037270885,-0.037252262,0.70631576,0.29177722,0.2660496,
  0.5054098,0.0604925,-0.10394751,-0.061105408,-0.9007161,
  -0.09762334,-0.36357927,-0.22596249,0.31127614,-0.20803489,
  -0.16329691,-0.12211928,0.15544333,0.26286814,0.3043451,
  -0.08404658,-0.010387345,0.15919021,0.25236818,0.34111157,
  0.17877775,0.13247618,0.23645407,0.20121972,0.043573875,
  -0.055213165,-0.10765727,-0.06084888,-0.029177705,0.5609706,
  -0.17336425,-0.034909412,0.15018547,-0.6717301,-0.5658047,
  0.23173612,0.1538536,-0.4733209,-0.4286174,0.010638802,
  0.14426218,-0.94737095,-0.20938547,0.15741667,0.123840675,
  0.63025516,0.56609595,-0.092613146,-0.6062684,0.46265754,
  0.037390377,0.23581576,-0.1263333,-0.026203258,-0.22644223,
  0.5471259,0.15335181,-0.84931004,-0.29265237,-0.162146,
  -0.1696653,-0.39543554,0.13615489,-0.14383799,-0.03846927,
  0.50586927,0.8332548,-0.18354487,0.57073593,0.96648383,
  -0.48149884,-0.09834166,-0.535973,-0.0072875894,0.4807181,
  1.1498729,0.86108077,-0.04093258,0.19857305,-0.044547018,
  0.11663261,0.21716358,0.10253149,0.14774692,-0.6753316,
  0.48758328,0.42239702,0.12010659,-0.394393,0.7164254,
  -0.3229154,-0.21812877,-0.12480156,0.51550794,0.49651715,
  0.1019261,0.3110681,-0.8973816,-0.3593326,0.3877858,
  0.491396,0.47550243,-0.94721395,0.5441739,0.5382898,
  -0.66209203,-0.3792656,-0.33135697,-0.66339594,0.15071978,
  -0.05575363,-0.06318339,0.23547927,-0.67286086,-1.0886704,
  -1.0085948,-1.361987,-1.1192107,-1.0656163,-0.50715244,
  -0.8245395,-1.165941,-1.2748835,-0.6378213,-1.2807851,
  0.58587986,-0.34250775,-0.7905698,0.0778996,-0.8318951,
  0.06679443,0.2393043,-0.58948404,-0.818491,-0.40164173,
  0.50103724,-0.12165342,-0.054214578,-0.167108,-0.14240447,
  0.090714544,0.0414469,-0.0130717475,0.019107549,0.085892014,
  -0.013727093,0.044663657,0.09047925,0.06732594,-0.035920877,
  -0.00010610287,0.026603846,-0.024880154,-0.03675058,
  0.06074376,-0.06818713,-0.008150372,-0.07562189,-0.04124454,
  -1.1052002,-0.0525917,0.20474161,-0.5922388,0.1714877,
  -0.33683926,0.08534318,0.12923981,-0.06832633,-0.25515097,
  0.33096215,-0.8098747,-1.1028515,-0.9324281,0.32586867,
  -0.016864812,0.28752494,0.09120305,-0.17122275,-0.067596965,
  0.053688,0.4769539,0.019868014,-0.59815156,-0.3441452,
  -0.17036569,0.059781946,-0.16034904,-0.38680258,-0.7012443,
  -0.39549214,-0.5187314,0.43564728,0.7891969,-0.5533414,
  -0.009167175,0.34794173,0.75234985,-0.59952676,0.002005565,
  0.070073865,0.25759932,-0.00040529767,0.10740595,0.551707,
  0.63626635,0.06479989,-0.2517079,0.46806243,-0.2873901,
  0.15969776,-0.09604551,0.38984,0.0387066,-0.14308466,
  -0.96053624,0.23682089,0.60204977,-1.3740599,-1.3658223,
  0.558991,0.2993578,0.48000592,0.47848186,0.2700425,
  -0.086109154,-0.11585153,-0.10511929,-0.17886531,-0.1511108,
  -0.19121088,-0.33924726,0.3022925,0.21668795,0.2200078,
  -0.4234605,-0.5238963,-0.410683,-0.38133138,-0.7388793,
  -0.57983583,-0.546249,-0.20249824,0.12961408,-0.97995836,
  -0.0011428685,0.13626438,0.25941285,-0.28302982,-0.49619797,
  0.25094673,0.35570514,0.05334562,0.3571532,1.2001493,
  0.82893616,0.26422295,0.057568688,-0.09039857,0.28976914,
  -0.0031328278,0.0074463836,-0.28549373,0.08510022,-0.43592986,
  -1.2357019,-1.2443757,-1.0453677,-1.4215873,-1.1495839,
  0.0038447971,0.25681946,-0.07514552,0.08144939,-0.22000742,
  0.0017387599,-0.22325887,0.02017665,0.0034105377,-0.44828108,
  0.045621652,0.026764743,-0.18224812,0.3996761,0.011405507,
  0.104012296,-0.14583604,-1.3885889,-0.88965595,0.06755781,
  0.27466774,-0.5592608,-0.009160755,-0.12831032,-0.39833874,
  -0.17214414,0.26893213,0.108642235,0.68820614,0.2648304,
  0.6024595,-0.3606305,-0.14516613,-0.45473585,-0.780296,
  0.37620172,-0.7944408,0.13367127,0.0488755,0.37056893,
  0.13202049,0.17590271,0.91223145,-0.2599521,-0.14219473,
  0.09263518,0.31510305,0.16573447,-0.04964133,0.011864974,
  0.0016642803,-0.21065982,-0.02072631,-0.051950753,-0.07038497,
  -0.11958979,-0.07457192,-0.028615361,-0.08836732,-0.04242313,
  -0.00094060233,-0.0033270183,-0.042153288,-0.003254756,
  0.015815614,-0.072133854,0.032588433,0.09399049,0.08794294,
  -0.10314809,0.079740666,0.093569815,-0.08289945,0.054384984,
  0.10338723,-0.039916627,-0.023736969,0.05732929,0.022436533,
  -0.03858566,-0.0878329,-1.0927157,0.26285937,-0.21043585,
  0.09256108,0.11944122,-0.25558576,0.58624,-0.19384478,
  0.3042669,0.2364072,-0.86982244,-0.38512033,-0.20219392,
  0.7043941,0.06499564,0.010294276,-0.21420138,0.23622186,
  0.011995277,0.28293222,0.07748225,0.2946455,0.24484253,
  0.04277824,0.30355647,0.052598562,0.17630346,-0.102184504,
  -0.030543387,0.07767655,0.33349955},
 {-0.106638074,0.12876995,-0.32300568,0.17686485,0.20407139,
  0.283038,0.037913866,0.23589341,0.070058,0.121948205,
  -0.027954217,0.034743194,-0.096963465,-0.340321,-0.54584223,
  0.075192414,-0.5327946,0.12831625,0.054076303,0.13053146,
  0.27303752,-0.20178455,-0.10843216,-0.32152465,0.07803395,
  -0.4280101,-0.24006306,-0.10624906,-0.19298281,-0.36415327,
  -0.6962444,0.022510486,0.057461493,-0.16698132,-0.0055030067,
  -0.03006892,-0.06890334,-0.12298033,0.11523355,0.09442197,
  0.10986071,-0.04396014,0.20552145,-0.17244633,0.018363375,
  -0.04004838,0.108008616,0.027090058,0.14334837,-1.1341746,
  -0.33413842,-0.34654903,0.30674088,0.21396564,-0.24577875,
  0.48891032,-0.5296539,-0.116899624,0.9091507,-0.32183853,
  -0.41403,-0.5159072,-0.38863274,-0.06609674,-0.5652193,
  -0.6219807,-0.11875431,-0.12857991,-0.7709963,-0.5688066,
  0.39777073,-0.093449675,-0.40286356,-0.41283795,0.9057292,
  0.12981264,-0.4223476,-0.10035412,-0.05515346,-0.34310457,
  0.03298349,-0.6445287,-0.26407936,0.21122724,0.57703006,
  -0.06988103,0.20733646,0.5276671,0.18706173,0.0749792,
  -0.12787844,-0.31830084,-0.6442746,-1.2190979,-0.29157564,
  -0.08218509,0.1422236,0.19472182,-0.10264773,0.072540686,
  0.26024923,0.1236875,0.0056742257,-0.024378695,0.15866564,
  -0.060123596,-0.06678743,0.13386855,-0.10934795,0.004901489,
  0.13178678,0.1452598,0.039599333,0.15653044,0.04938162,
  0.10636272,0.028915633,0.043728404,0.025057513,0.09049055,
  -0.36277962,0.025741424,0.03026326,0.04592708,0.19229834,
  -0.017441269,0.041729208,-0.14036441,-0.020024015,
  -0.010241158,-0.16167101,0.35626152,0.094309345,0.09877148,
  -0.2870284,0.3640897,-0.57385033,0.19616246,-0.41244677,
  -0.61644167,-1.0675821,-0.25942287,0.5563244,-0.26834142,
  -0.40996864,-0.6184905,-0.5039623,-0.5867648,-0.112543814,
  -0.5507211,-0.59481025,-0.58404267,-0.39511225,-0.38925147,
  -0.7137765,-0.35911462,-0.2021539,-0.19158821,-0.38857603,
  -0.24278842,0.17721385,-0.29374582,-0.19074179,-0.38640985,
  -0.26294366,-0.2369313,0.076728866,-0.48565066,-0.3551802,
  -0.5807189,-0.4945845,-0.42029074,-0.2093307,-0.18685289,
  -0.63284427,0.20958154,-0.37660298,0.1954793,0.0162356,
  -0.119197294,0.35078603,-0.43380794,0.31667218,-0.22035304,
  -0.0066749295,0.14445491,-0.4414537,0.20066959,-0.534054,
  -0.86147076,-0.44359133,-0.8885965,-0.25250307,-0.026409017,
  -0.30241337,0.17074454,-0.3096638,0.13215965,0.24415982,
  -0.027387349,-0.44962305,-0.22872056,0.2346204,-0.053672675,
  0.118612394,-0.28017518,-0.88098186,-0.27145758,-0.06399441,
  -0.59382254,0.07433063,-0.101775855,0.013912026,-0.28837755,
  -0.1401097,-0.33061102,-0.20807661,0.21572147,-0.40030947,
  -0.20463298,-0.10903318,-0.41562337,-0.3814453,0.6896261,
  -0.5447935,-0.45361754,-0.3081088,0.17698285,0.36223325,
  0.07966987,0.10478487,-0.44007462,0.3899582,0.30281672,
  -0.33367717,-0.8962916,0.16571382,0.07075529,-0.43238533,
  0.04697834,0.5323435,0.29484,0.5855527,-0.08419354,
  1.0231389,0.5864211,0.4152702,0.24687226,0.77048326,
  0.2281676,0.030100495,0.45465356,0.36463162,-0.12197816,
  -0.17773153,-0.1743126,-0.09184451,0.3720341,0.28827417,
  0.3544483,0.43016776,0.71977764,-0.7659485,-0.6896545,
  0.45940074,-0.5178363,0.09398489,-0.34943068,0.22890106,
  -0.32133365,0.062414695,0.20282415,0.059387226,-0.021200316,
  -0.05311235,-0.05733258,0.046364296,0.03868459,-0.11499938,
  -0.061794225,0.04881959,0.073719,-0.10330618,-0.077086814,
  0.09723359,0.0046571014,-0.07030082,-0.04614151,-0.44119367,
  0.035389245,0.5222998,0.33534333,-1.1340489,0.26796463,
  0.28113544,0.63021696,-0.37198257,-0.09390775,0.3719734,
  -0.097907536,-0.06702785,0.043214,-0.060580764,0.2916031,
  0.3788497,-0.24062061,-0.050982025,-0.11156161,0.0888133,
  1.1443963,-0.06894817,-0.17015618,0.2926349,0.90340656,
  -0.08624407,-0.075902514,0.016163768,0.17863491,-0.17592081,
  0.70428157,0.18249719,-0.028339306,0.26156062,-0.15015364,
  -0.28196514,0.33544794,-0.008265459,-0.33826494,0.79068685,
  0.59783834,0.31826726,-1.0468127,0.5080329,0.64972407,
  -0.6028503,-0.31005466,0.5057165,-0.09128076,-0.39570734,
  -0.1316621,-0.18895684,-0.09416886,0.81988704,-0.09110854,
  0.36884606,0.5916558,0.7358247,-0.71290207,0.50363845,
  0.11277228,-0.043279428,-0.17708103,0.07172265,0.007199087,
  0.3232451,-0.19121212,-0.46444368,-0.12122161,0.41016647,
  0.1588853,-0.5144288,-0.4969929,0.23381667,-0.7079922,
  -0.31296304,-0.096049,-0.017101664,-0.39101422,0.57337224,
  -0.15735137,0.62383664,-1.253124,-0.25003076,1.0294826,
  -0.30498317,-0.60045713,0.18459646,-0.041775282,-0.7877061,
  0.1979628,-0.4062259,-1.132196,-0.19515224,0.3227659,
  -0.316649,-0.2380241,-0.117478624,-0.20593518,0.26689208,
  -0.26078245,-0.024701284,-0.35034814,-0.48061323,-0.10653163,
  -0.055120267,0.47592664,-0.21089244,-0.020095672,0.5041006,
  0.25978196,0.009372577,0.2825983,0.008125538,-0.039400734,
  0.061486017,-0.027827237,0.068216056,0.022896482,-0.24472332,
  0.07301856,0.03084206,-0.08492409,0.12619704,0.22084686,
  -0.2418268,0.06220262,-0.25867328,-0.7891997,-0.28311986,
  -0.014810583,0.33727795,-0.10499938,-0.8577733,-0.45858836,
  0.42598876,-0.1862717,-0.41651365,0.19847035,-0.8037636,
  0.05430498,-0.83721906,0.47502747,0.11414072,-0.08638394,
  -0.4528689,-0.44602773,-0.05813028,0.07539917,-0.18972275,
  0.022782555,0.32291627,-0.010247912,0.200724,-0.24252263,
  0.59269214,0.30110675,0.1502002,0.39797252,-0.004221257,
  0.092789404,0.094505556,-0.24131629,-0.18527457,-0.01895648,
  -0.07012004,-0.10371662,-0.16527177,-0.13228554,0.033090543,
  0.050864615,0.095584996,0.07500885,0.060893655,0.23697422,
  0.052907623,0.051314186,0.05066658,0.08037873,0.07187281,
  -0.06320899,-0.023127414,-0.060486794,-0.07203099,-0.07482778,
  -0.08286454,-0.09602481,0.096249856,-0.08492008,-0.09465326,
  0.043180093,-0.30121014,0.08914835,-0.24703303,-0.17129213,
  -0.04655973,-0.010849053,0.21626131,-0.6475645,-0.30430043,
  -0.43676957,-0.113956064,-0.057378687,0.44071788,0.40557125,
  0.21193422,-0.16572633,0.34966806,0.20295806,0.079374865,
  0.19869034,0.104817525,0.14268473,-0.15229584,-0.2713318,
  -0.120838895,-0.34548008,0.1333285,0.0852043,-0.049704682,
  -0.31390557,0.32264358,0.4362418},
 {0.38864326,-0.0042116195,0.20437275,0.026097067,0.4132272,
  0.009306402,-0.16122057,-0.24105686,0.23045205,0.12715623,
  0.05224644,-0.56957823,-0.28416193,-0.5497398,-0.31093445,
  -0.27935243,-0.41395357,-0.5760674,0.17645776,0.22947474,
  0.3105689,0.7714139,-0.5755455,-0.18767448,0.5371482,
  0.38836128,-0.05711822,-1.220508,0.29954547,0.30732605,
  -0.09751362,-0.25620297,-0.047707107,-0.12303448,-0.09807481,
  -0.111374274,-0.20666581,-0.06502417,-0.05931129,-0.0990091,
  -0.13092129,-0.19863842,-0.23787616,-0.024413945,0.12998757,
  0.120521285,0.06988547,0.023867887,-0.99966294,-0.030234352,
  -0.7642755,-0.91552275,-0.73813754,-0.4211626,0.18010105,
  -0.38469777,0.04780216,0.13785508,-0.40931153,0.57289296,
  0.19867127,-0.25702277,0.10369967,-0.29766935,-1.1815981,
  -0.32386363,0.0005181603,0.17806134,-0.33732927,-0.14436543,
  0.36437306,-0.6046887,-0.19664502,0.69559264,-0.047067676,
  -0.11167382,0.10800249,-0.104367964,-0.4933766,-1.1091393,
  0.4241177,-0.068214625,-0.34439147,-1.2561432,0.11962883,
  -0.06242452,-0.22084293,-0.4960884,-0.050810095,0.071216956,
  0.13700728,-0.12718578,0.24740933,0.8322938,0.47076494,
  0.049726997,-0.12029557,0.053614575,-0.035473358,0.07822127,
  0.20220076,-0.05813869,-0.111069195,-0.022493483,0.12916055,
  0.2071372,-0.0045531346,0.023885418,-0.119511664,-0.1277806,
  -0.09585665,0.060568877,0.14030424,-0.08685849,-0.011325983,
  0.018294625,0.29333615,0.01166071,0.015778888,0.012538229,
  0.025626121,-0.033224933,0.022624804,-0.052545533,-0.14382298,
  0.14438857,0.22991274,-0.08453816,0.2925981,0.18984875,
  -0.6261775,-0.83102065,-0.13417855,0.032297444,0.3752467,
  -0.12449901,-0.2080488,-0.17186569,-0.38115072,-0.33560663,
  0.16516344,0.43565816,-0.06999784,0.084870785,-0.3187462,
  -0.023697715,-0.20522948,-0.3395903,-0.338606,-0.39226773,
  -0.35351434,-0.48250312,-0.29948243,-0.16821119,-0.28487217,
  -0.25241044,-0.3255737,-0.40540102,-0.16551402,-0.15739907,
  -0.94146985,-0.7740977,-0.22199576,-0.010229613,0.3060317,
  -0.14275905,0.23846714,0.3153525,0.8266677,0.5770688,
  0.5019499,0.3247481,-0.96248156,-0.07892779,0.24599612,
  0.24688804,-0.50818366,-0.30062887,0.6044876,-0.08239311,
  -0.13510127,-0.11160155,-0.35868877,-0.22671455,0.8011758,
  0.2104742,-0.18637042,-1.2742171,0.35438156,0.120503984,
  -0.019879902,-0.3090927,-0.17630601,-0.818581,-0.48025876,
  -0.30647147,0.057916623,-0.038147323,-0.027710106,0.032579716,
  -0.750642,0.21145566,0.48426637,0.34221575,-0.5865953,
  0.3721494,0.5749295,0.4518797,-0.3713258,0.27350318,
  -0.22438894,-0.51332873,-0.47434962,-0.40458745,0.09986848,
  0.04516881,-0.10286543,-0.5217018,-0.18826139,-0.5664423,
  -0.29731834,0.25570196,0.23764428,-0.3152344,0.5304309,
  -0.16704547,-0.042844888,-0.19407189,0.2661584,-0.01648929,
  -0.53983456,-0.888434,0.4493762,0.46066934,-0.49864072,
  -0.6212156,0.43297812,-0.49823567,-0.0068508694,-0.019674638,
  -0.21161819,0.00655578,-0.076452024,-0.5006753,0.37344822,
  0.29685628,0.08936524,-0.61856,0.6064155,0.16299461,
  -0.11908202,-0.3962684,0.23642468,0.32843655,-0.059772514,
  0.019794306,-0.8426748,-1.3255413,-0.49021766,-0.8430664,
  -0.681983,-0.15883148,-0.3261297,0.17416893,-0.43942952,
  0.039044302,-0.130551,-0.9063216,-0.39773518,0.13650747,
  0.031438444,0.36350963,-0.10489206,-0.046456423,-0.03857193,
  -0.10191445,-0.078544274,-0.050617248,-0.054755274,
  -0.06834061,-0.07160112,-0.042140145,-0.04076565,-0.09551991,
  -0.025326746,-0.048204307,-0.046343572,-0.06651639,-0.5252886,
  0.20354502,0.47274747,-0.0237291,-1.1036949,0.60466856,
  0.36114818,0.5309201,-0.10074512,-0.33708024,0.25867715,
  -0.81435174,-0.813387,-0.46312436,0.4583119,-1.0177972,
  -0.66133684,-0.15409777,0.07784896,0.51935995,-0.16655914,
  -0.1789757,0.30780968,0.08815762,-0.13246775,-0.8912409,
  -0.13373193,-0.23780465,0.60048217,-0.32513234,-0.09565125,
  -0.7193794,0.41518977,0.17687653,-0.14972296,-0.23385163,
  0.29140353,-0.679346,0.07029319,-0.34811687,-0.48654577,
  -0.49271458,-0.059943475,0.27026504,-0.44740584,0.24460329,
  0.19651054,-0.121208794,-0.6233881,-0.87587184,-0.23567486,
  0.27133366,0.34294558,0.059754875,-0.22782373,-0.2073879,
  0.59736705,-0.08122036,-0.5807212,0.2607812,-0.2792193,
  -0.52104753,-0.16621572,0.18978499,-0.33674812,-0.4260993,
  -0.38036916,-0.25651145,0.09182168,-0.2609088,-0.2555917,
  0.077878736,-0.55124974,-0.011440662,0.06777801,-0.35432386,
  -0.0722358,0.054566827,-0.17390178,-0.12990573,0.69502974,
  0.45032838,-1.2383083,-0.118600436,0.030483505,-0.30817667,
  -0.5288222,-0.29332328,-0.50558484,-0.21401809,-0.7640325,
  -0.016305747,0.42945746,0.3774298,0.29202825,0.024862794,
  -0.7276401,-0.37273508,0.1325208,0.3280421,0.39533454,
  -0.13974011,0.12753692,-0.39960536,0.13493955,-0.29243046,
  -0.890312,-0.49223536,-0.108815715,0.264599,-1.1307454,
  -0.76766205,-0.31040636,-0.37452823,-0.045804624,-0.03914337,
  0.16903651,-0.1351631,-0.05366614,-0.04566342,-0.1436249,
  -0.29940265,-0.09002695,-0.07765106,-0.17096634,-0.31628314,
  0.19553584,-0.040966433,0.055707857,-0.14176908,-0.5734084,
  -0.089360036,0.013286811,-1.2302294,-0.47679892,0.6841853,
  -0.29900724,-0.47799602,-0.5857868,-0.10023858,0.48099244,
  -0.057891317,-0.30720577,0.19383097,0.20182534,0.13124107,
  -0.63180596,-0.7101749,0.33404908,-0.7893985,-0.050100245,
  0.16220699,-0.16265342,-0.4187523,-0.71436256,0.370185,
  0.28116927,0.028104447,-0.079907164,0.17156078,-0.007311764,
  -0.027076203,-0.026189439,0.06273405,-0.02514091,0.03260106,
  0.01813024,0.036587626,-0.033027776,-0.06587981,-0.08975822,
  -0.00071908295,-0.042469088,0.00042971806,-0.071684584,
  0.1167617,-0.05030041,-0.04429796,-0.02571168,0.04150146,
  0.039575677,-0.053877074,-0.026951483,-0.04168635,-0.07841997,
  -0.05844287,-0.039095752,-0.08242991,-0.025547834,-0.08184477,
  0.027821116,-0.025886552,0.29288217,0.4772839,-0.30160752,
  -0.29157683,0.29115012,0.34961393,0.3446543,-0.095015876,
  0.062267553,-0.08060557,0.41721594,0.66028446,-1.0791581,
  -0.3733186,0.16524346,0.929448,-0.030008929,-0.010168073,
  -0.08288155,-0.025508681,0.32899684,-0.1373886,-0.1208151,
  -0.016684337,0.27771887,0.21827713,0.18862095,0.14267151,
  -0.07477047,-0.25241286,-0.18484154,0.11884234}};

#endif


