{{{{-0.07437147,-0.23782337,0.069826685,-0.66321564,
    -0.6360288},
   {-0.93337005,-0.4502816,0.5043914,0.09687577,-1.3260986},
   {-0.3722545,-0.5198522,-0.041944537,0.41448057,-0.30490494},
   {-0.1395505,-0.6147631,-0.45440722,0.23253934,0.086143084},
   {-0.278005,-0.20637718,-0.41373456,-0.7019135,-0.61610895}}},


 {{{-1.0558174,0.05133926,0.07832822,-0.6585636,0.15204142},
   {-0.790711,0.51303464,-0.33905017,-1.2317353,-0.21613877},
   {-0.067726366,0.29653782,-0.83876973,-0.512967,-0.36547008},
   {-0.065127306,0.05704829,-0.5624346,-0.3600695,-0.19793485},
   {-0.107223675,-0.35131222,-0.25075355,-0.28758806,
    -0.07257513}}},


 {{{-0.19000152,-0.17173366,0.00075153064,0.44366923,
    -0.6253097},
   {-0.2879978,-0.17153177,0.22574332,-0.84637827,-0.98354596},
   {-0.8833706,-0.48662478,-1.6236072,-1.3439641,-0.21448632},
   {-0.43750215,-0.6726853,-1.7560419,0.07412742,0.70964944},
   {0.44031602,-1.3494235,-1.7920244,-0.16274539,0.6246082}}},


 {{{0.1091073,0.11850206,0.10036399,0.10351272,0.4869417},
   {0.0027296867,0.17226785,0.28308085,0.4841388,-0.21864726},
   {-0.8205946,-0.04951867,0.80000085,-0.03598082,-1.3022515},
   {-1.5525396,-1.4697628,-1.0432806,-1.3400025,0.039662633},
   {0.5424675,-0.66775405,-0.35309112,0.50059193,0.5421584}}},


 {{{0.06854952,0.09288239,-0.0081653325,-0.7520546,-0.4390082},
   {-0.025903298,-0.25177225,0.1815859,-0.20970349,0.10752778},
   {0.378051,0.22751595,0.51746345,0.7551602,0.14202425},
   {-0.14459912,-0.057301447,-0.36637792,0.4485988,0.11692526},
   {-0.56283617,-0.6901969,-1.1629732,-1.0740743,-0.028883457}}},


 {{{-0.0073999977,0.24575979,-0.060045216,-0.053968444,
    0.48088863},
   {-1.0613891,-0.51249844,-0.43256125,-0.120110676,
    0.24412069},
   {0.13522366,-1.5793109,-0.35721833,-0.28808564,0.59987026},
   {-0.18502283,-1.5571033,-1.1537031,-0.6213372,0.16023566},
   {0.25738683,-0.8497681,-0.11093824,-1.5205507,-0.7513552}}},


 {{{0.41251674,-0.17702141,-0.7244748,-0.84978724,0.5290626},
   {0.57513344,0.12140613,-1.0198551,-0.23569576,0.5545113},
   {0.18729028,0.6904046,-0.21859466,0.021872994,-0.011463946},
   {0.03772517,0.33293954,-0.06767303,-0.12963861,-0.37955305},
   {0.000770914,0.08582434,-0.1859931,0.122951135,-0.22009245}}},


 {{{0.2611826,-0.29938886,-1.0142801,0.20630029,0.46063676},
   {0.063761264,-0.5658869,-0.7683825,0.26317513,0.27289325},
   {0.03247341,0.077672884,-0.39695978,-0.14299455,0.07017531},
   {-0.7101043,-0.7168706,-0.057412215,0.08371707,0.30223703},
   {0.14251775,-0.41108528,-0.39431697,0.09549128,0.13222456}}},


 {{{-0.26236928,-0.8101444,-0.33009776,0.241676,0.19473563},
   {0.13085753,-0.07232667,-0.19127274,-0.28735325,
    -0.07105114},
   {0.15417175,-0.22208858,-0.4480534,-0.48893547,0.28216738},
   {-0.7244501,-0.2852961,-0.31599778,-0.61040694,-0.83053356},
   {-0.12885667,0.06676972,-0.10862192,-0.36682206,-0.5984472}}},


 {{{-0.26879787,-0.85723305,-0.92873365,0.00014262612,
    -0.91560316},
   {-0.44967413,-0.21857758,-0.1860665,-0.2107396,-0.96380895},
   {0.4503141,0.8767141,0.6709544,0.114461645,-0.6072591},
   {-0.21311353,-0.6510702,-0.31694874,-0.15165032,-0.5544255},
   {-0.8471492,-0.6116446,-0.30274227,0.042734347,-0.55654794}}},


 {{{-0.09093157,-0.8492719,-0.029947884,0.12569621,-0.5556007},
   {-0.76040554,-0.5127179,0.5526327,-0.006227753,-0.8008277},
   {-0.58880234,0.1261402,0.3151044,-0.6695052,-0.6478565},
   {0.1321314,0.02385573,-0.17018273,-0.56050277,-0.46514744},
   {-0.01022643,-0.6791878,-0.14272664,0.06089227,-0.20244354}}},


 {{{-0.65227455,0.0011001065,0.088452026,0.039823584,
    0.69947344},
   {0.49797684,0.50126535,0.18596771,-0.09886858,-0.09517029},
   {0.43802592,0.2876491,-0.251264,-0.07001074,-0.055336688},
   {-0.1863708,-0.044306956,-0.076339625,-0.18047437,
    -0.67424625},
   {-0.5713344,-0.4040111,-0.5723523,0.22759426,-0.2938295}}},


 {{{0.39745024,0.058734696,-0.3579855,-0.72664684,-0.17936501},
   {0.14479007,0.13321935,-0.22935508,-0.7051516,-0.33712524},
   {-0.5724231,-0.7227247,-1.050175,-0.41756254,0.07252368},
   {-1.2615421,-0.16036332,0.1636637,0.778127,0.69468546},
   {-0.04590082,0.34846318,0.04436148,-0.009661785,
    -0.30550537}}},


 {{{-0.58369297,-0.19374898,0.065403536,-0.10669003,
    0.65306634},
   {-0.80087584,-0.8025388,-1.7575506,-1.2252438,-0.8038234},
   {0.16563286,0.10734788,0.007875492,-0.19466823,-0.56329143},
   {0.3595056,0.15393616,0.23493926,-0.081768684,0.051306672},
   {0.12937057,-0.06360059,0.17210376,0.38565618,0.3082977}}},


 {{{0.37220535,-0.024371231,-0.37296447,-0.30659395,
    -0.3856993},
   {0.17014427,0.146929,-0.55389935,-2.733244,-0.12280555},
   {0.4549481,0.26387948,-0.6205636,-1.1484487,0.025355112},
   {0.15143698,-0.48341182,-2.1087234,-0.23032838,-0.17377464},
   {-0.65612954,-1.1104424,-0.7947921,-0.2285533,-0.15497364}}},


 {{{-0.080746435,-0.15125939,-0.37146956,-0.80231476,
    -1.5861077},
   {-0.335684,0.4981785,1.070829,-0.5734735,-0.54818237},
   {-0.6844776,-0.35759932,0.7614805,0.29303002,-0.21052957},
   {-0.48273996,-0.58518684,-0.4058787,0.05897724,0.01899741},
   {0.12564324,0.2535314,-0.12089554,-0.09041387,0.108951144}}}};