[[[['0.6234609','-1.1816844','0.35718575','0.51575553','-0.77417445'],
   ['-0.23942049','-0.6702065','-0.016445886','-0.07980946',
    '0.023016665'],
   ['-0.13834748','0.18647009','-0.37773257','-1.196439','-1.0346575'],
   ['-0.5026105','-0.10531115','-0.22544377','-0.74041754',
    '-0.24886957'],
   ['0.09424157','0.12696578','0.7564334','-0.46402124','-0.24125275']],

  [['-1.0434964','-1.3997542','-0.920222','-0.56696','-0.41240874'],
   ['-0.21971467','0.42412797','0.43042746','0.81169385','0.3235557'],
   ['-0.029650752','-0.019965459','-0.20588177','-0.674987',
    '-0.61182284'],
   ['-0.70590407','-0.15969259','-0.28640547','-0.5530835','0.20507824'],
   ['-1.3370789','-0.53635836','-0.37878788','0.18129009','-0.50228447']],

  [['-0.102182075','0.049006112','0.043367125','-0.010764791',
    '0.07096533'],
   ['-0.027879098','0.10124188','-0.045625374','-0.07904113',
    '0.06573684'],
   ['0.088460915','-0.10468914','-0.093757264','-0.10240717',
    '0.10844192'],
   ['-0.032887083','0.045277722','0.06409219','-0.03512626',
    '-0.107861705'],
   ['-0.028824696','0.07714297','-0.095345534','0.013648493',
    '0.09201806']],

  ...,

  [['0.21955484','-0.11159572','0.38770553','0.11652409','0.21450397'],
   ['-0.247625','-0.24197999','0.08301063','-0.071258344','-0.15360326'],
   ['-0.8017792','-0.49749988','-0.11235237','-0.11633462',
    '-0.76103985'],
   ['-0.5522026','-0.24904445','0.46897322','-0.07314966','0.019338818'],
   ['-0.19033699','0.30212802','0.40252212','0.06340108','-0.19666104']],

  [['-0.18341199','-0.77143234','-0.04491809','0.63890207',
    '0.008760005'],
   ['-0.01995961','-0.4176017','-0.41186723','-0.6704182','-1.1864637'],
   ['-1.2411395','-0.5950559','-0.114622205','-0.40722772','0.5681168'],
   ['-1.0038302','-0.3831942','-0.4385119','-0.7620737','-0.3030763'],
   ['-0.18369764','-0.018835733','0.11198102','0.22502095','-0.1813595']],

  [['0.23827153','-0.118662134','-0.24142936','0.37443978',
    '-0.72699064'],
   ['-0.044871945','0.1385925','0.34705365','-0.04821418','-0.7027543'],
   ['-0.03138133','-0.01847156','0.38386938','-0.2338782','-0.44625333'],
   ['0.011351608','-0.09796423','-0.8937415','0.06975832','-0.70572495'],
   ['0.1733387','-0.04063546','-0.305521','-0.21430829','0.30959016']]],


 [[['0.33563858','0.23162429','0.15094323','0.2792682','-1.067953'],
   ['0.22365686','0.038629968','0.040435433','-0.24199761',
    '-0.88592714'],
   ['-0.61250025','-0.6695298','-0.0042102896','0.27290758',
    '-0.15853319'],
   ['-1.2125257','-0.9801354','-0.38068643','0.019877022','0.25564316'],
   ['-0.49588752','-0.6594045','-0.36420634','-0.57409817','0.57788146']],

  [['-0.2354013','-0.5117632','-0.7243965','-0.33576083','-0.19971684'],
   ['-1.8161204','-0.10167927','0.23177366','0.06278716','0.51847583'],
   ['0.25518978','-0.12278904','-0.76250637','-1.6551684','-1.1143125'],
   ['-0.30545992','-0.09542868','-0.1397976','0.14605063','0.040375974'],
   ['0.28413996','-0.029108955','0.037223917','0.61217314',
    '-0.23402423']],

  [['-0.09859479','-0.0032026588','-0.08379612','-0.03338584',
    '-0.14652985'],
   ['-0.07274833','-0.10716635','0.10120548','-0.03715707',
    '0.009782224'],
   ['-0.028776588','-0.037077416','0.044817526','-0.09631233',
    '-0.059785806'],
   ['0.093540154','0.09105243','-0.045757998','0.0108478535',
    '-0.052821882'],
   ['0.07141902','0.074021205','0.04075625','0.048928082','0.052835684']],

  ...,

  [['-0.8501737','-0.10385267','-0.46486962','-1.2217655','-0.05100609'],
   ['0.25329635','0.08080071','0.43131277','-0.59416556','0.21036851'],
   ['-0.8643236','-0.25372803','-0.00013376538','-0.09504208',
    '-0.110452265'],
   ['-0.97906375','-0.38269174','-0.08100677','0.08035423',
    '-0.05433286'],
   ['-0.85907036','-0.21981503','0.08277958','0.5663116','-0.1801972']],

  [['-0.55903333','-0.7068433','-0.7071695','0.23831071','0.61262614'],
   ['0.4789883','0.9454522','0.190966','-0.6258467','-0.7840391'],
   ['-0.5752885','0.6008967','0.3731668','0.297859','-0.4461781'],
   ['-1.6661052','-0.5325116','-0.5622674','-0.23083593','-0.6714823'],
   ['-0.4723211','-0.58337015','-1.08274','-1.0919905','-0.9055837']],

  [['-0.8305545','0.12419318','0.3980806','0.008787012','0.99269253'],
   ['-0.95802915','-0.24660257','-1.0359154','-1.2495614','-1.1965619'],
   ['-0.9911234','-1.1456063','-0.6813495','-0.5529988','0.06526777'],
   ['-0.36269194','-0.85206497','-0.11768612','0.18064815','0.6670533'],
   ['-0.18757346','-0.40695822','0.16196117','0.85904676','0.51636225']]],


 [[['-0.29909423','-0.3191074','-0.017885884','-0.1687771',
    '-0.14176781'],
   ['-0.18429132','-0.14114979','-0.17070976','-0.13593969',
    '-0.112843186'],
   ['-0.04184368','-0.13924585','-0.18372102','-0.22575246',
    '-0.20209146'],
   ['-0.09379077','-0.10968368','-0.08026291','-0.23738317',
    '-0.29298967'],
   ['-0.109278865','-0.056121953','-0.082550466','-0.23995939',
    '-0.24724']],

  [['-0.22930129','-0.16718206','-0.22725455','-0.36002445',
    '-0.11899946'],
   ['-0.059351064','-0.27099937','-0.44650692','-0.3829115',
    '-0.30655873'],
   ['-0.01652362','-0.066935316','-0.25957188','-0.05612086',
    '-0.22459616'],
   ['-0.017991735','0.055110227','0.032199822','-0.18386555',
    '-0.131556'],
   ['0.13689137','0.07285117','-0.3706017','-0.27417278','0.08053299']],

  [['-0.023098793','-0.08712256','-0.10479055','0.054335866',
    '0.025750235'],
   ['-0.08153321','0.010659819','0.06782493','0.10971832','0.07863489'],
   ['-0.050065387','0.016002387','-0.087191336','0.035809096',
    '0.06999853'],
   ['-0.08267264','-0.029518377','-0.02579754','-0.059044592',
    '0.06286737'],
   ['0.02921693','-0.05978142','-0.011303303','0.0077198194',
    '0.08920835']],

  ...,

  [['-0.05388981','-0.017470198','0.0083062295','-0.063139744',
    '-0.04461913'],
   ['0.053985883','-0.030933471','-0.101878025','-0.02516731',
    '-0.0326062'],
   ['-0.076310314','-0.1574376','-0.23005092','-0.13153002',
    '-0.08283906'],
   ['-0.09891933','-0.12885627','-0.10300966','-0.08370336',
    '-0.052203313'],
   ['-0.05209607','-0.13896996','-0.13178425','-0.10311645',
    '-0.0035043408']],

  [['-0.21320105','-0.43007773','-0.28793168','-0.16546074',
    '0.115482666'],
   ['-0.3110255','-0.12944557','-0.15231015','-0.03199248',
    '-0.100172065'],
   ['-0.19952162','-0.06453828','-0.13473733','-0.20691802','-0.361745'],
   ['-0.086375676','-0.051834792','-0.15330668','-0.13052122',
    '-0.14347522'],
   ['-0.19052418','-0.0861771','0.02454474','-0.20973551','-0.3907895']],

  [['-0.14550115','-0.14610305','-0.09278425','-0.07443236',
    '-0.22680168'],
   ['-0.14265308','-0.09723889','-0.07111574','-0.06695283',
    '-0.1073982'],
   ['-0.05503205','-0.030179653','-0.0457208','-0.11520224',
    '-0.114349745'],
   ['-0.0422678','-0.088938646','-0.095830046','-0.11178189',
    '-0.22041053'],
   ['-0.09155279','-0.10965153','-0.048079744','-0.10269456',
    '-0.28511122']]],


 ...,


 [[['-0.22103047','-0.04024325','-0.22296327','-0.059910282',
    '0.020846173'],
   ['-0.17792547','-0.111548685','-0.03764924','0.012709996',
    '0.038680773'],
   ['-0.3031961','-0.077910244','-0.092802376','-0.004725622',
    '-0.10662066'],
   ['-0.027035872','-0.2836506','-0.27700096','-0.020689478',
    '-0.088756666'],
   ['-0.055490486','-0.3701089','-0.17073491','0.017281957',
    '-0.20614195']],

  [['-0.06301472','-0.1102764','-0.08691011','-0.117159486',
    '-0.083736025'],
   ['-0.13750876','-0.030083662','-0.091110975','0.069530785',
    '-0.15541302'],
   ['0.018808382','-0.0894634','-0.093731366','-0.05643412',
    '-0.13267313'],
   ['-0.042051118','-0.078422815','-0.15853922','-0.07488846',
    '-0.051173497'],
   ['-0.03878613','-0.098763764','-0.06923501','-0.08523243',
    '-0.10118123']],

  [['0.009172983','-0.048054326','-0.032545533','-0.08382858',
    '-0.008611488'],
   ['0.009961742','0.04883057','0.043089595','0.013343232','0.02072916'],
   ['-0.03535175','0.038752317','-0.029321318','-0.0075438204',
    '-0.029209748'],
   ['-0.0044183256','0.021747185','-0.049908567','0.03389127',
    '-0.06858359'],
   ['0.048235644','-0.0304344','-0.042149723','-0.041446917',
    '-0.001981232']],

  ...,

  [['-0.09928702','-0.1253144','-0.13064589','-0.025813958',
    '0.074772485'],
   ['-0.05444383','-0.09711311','0.0014911762','-0.018148724',
    '0.0104480265'],
   ['-0.033794038','0.0033847773','0.055815235','-0.0549867',
    '-0.076784484'],
   ['-0.09083668','-0.115291975','-0.06886103','-0.0121945795',
    '-0.08338794'],
   ['-0.09163335','-0.0920419','-0.08673044','-0.08974558',
    '-0.027928198']],

  [['-0.18999659','-0.059684094','-0.07107588','-0.055274587',
    '-0.1380321'],
   ['-0.14181685','0.02639972','0.020339046','-0.022022879',
    '0.042547785'],
   ['0.042016074','0.041669916','0.026786976','-0.03745328',
    '0.035779238'],
   ['0.048492156','-0.05543257','-0.051574044','-0.14419153',
    '-0.10610124'],
   ['0.024877273','-0.10835043','-0.108071364','-0.064271525',
    '0.03361394']],

  [['-0.07384733','-0.013839541','0.0071782367','-0.13740107',
    '-0.12280168'],
   ['-0.05702575','-0.034828857','-0.11705756','-0.036173202',
    '-0.045710053'],
   ['-0.17786941','-0.10143109','-0.08521568','-0.08750467',
    '-0.10642653'],
   ['-0.08792771','-0.034733698','-0.08328342','-0.076804616',
    '-0.07670991'],
   ['-0.077316456','-0.06907965','-0.14866483','-0.1716414',
    '0.03097241']]],


 [[['-1.2992653','0.8294747','0.6440171','-0.0069959713','-0.23219764'],
   ['-1.5860441','0.14169407','0.4348257','0.15884309','-0.3741105'],
   ['-1.106348','-0.21334836','0.070902474','-0.10270295','-0.19535534'],
   ['-1.5598537','-0.33516538','0.27293417','-0.09333047','-0.48418164'],
   ['-2.4266927','-0.6552843','-0.12292422','-0.24904363','-0.91246474']],

  [['-0.1357035','-0.2514711','0.006226483','0.982255','0.8456555'],
   ['0.46716186','-0.48296672','-0.9412234','-0.871506','-0.6011427'],
   ['-0.3305514','-1.2741573','-1.1531605','-1.7982296','-1.4494555'],
   ['-0.24387242','-0.91071045','-1.074243','-1.6990508','0.7316783'],
   ['0.3867534','-0.54973155','-1.2720532','-0.0044636726',
    '-0.22421668']],

  [['0.015276466','-0.031885576','-0.073201805','-0.040056843',
    '0.011622506'],
   ['-0.04271872','-0.078244284','-0.03479501','0.02888282',
    '-0.09970154'],
   ['0.023431122','-0.10672728','-0.039282385','-0.08021097',
    '-0.05838105'],
   ['-0.023339847','-0.0008401474','-0.10250981','0.05587667',
    '-0.03822771'],
   ['-0.012649309','-0.012752852','0.051303014','0.090680346',
    '0.0826663']],

  ...,

  [['-0.7442434','-1.3028687','-0.05212564','-0.35975072','-0.7672915'],
   ['-0.3793758','-0.1980981','-0.08377036','0.40178946','0.19909053'],
   ['-0.18443716','0.8027427','-0.22628507','0.60570246','0.7563316'],
   ['0.13652864','0.26256883','0.101028904','0.50431967','0.20986618'],
   ['-0.4015828','-0.6159375','-0.4922922','-0.45635885','0.23586279']],

  [['-0.187597','-0.32487684','-0.50531','-1.2764848','-0.5204446'],
   ['-1.480486','-0.67091364','-1.3035077','-2.1183932','0.119506545'],
   ['-0.63437206','-0.20388635','-0.020525722','-1.0399284',
    '-0.35201177'],
   ['-0.10855823','-0.13251719','0.072957255','0.3987344',
    '-0.071134575'],
   ['-0.92457205','-0.10347872','0.20680603','0.81574965',
    '-0.007416215']],

  [['0.1717889','0.23886982','-0.40158096','-0.4505215','-0.2140067'],
   ['0.29443792','-0.33893016','-0.72521555','-0.30436754','0.29873404'],
   ['-1.1066108','0.6569862','-0.780085','0.18239431','-0.5710694'],
   ['-0.85350865','0.08015492','0.2241109','0.91419613','-0.52040476'],
   ['-0.9367091','-0.67837507','-0.63135684','-0.18806878','-1.1562883']]],


 [[['-0.15224956','-0.25998527','-0.38638863','-0.06278942','-0.192025'],
   ['-0.22335474','-0.18493967','-0.72317296','0.06441997',
    '-0.35296556'],
   ['-0.24865393','-0.2388125','-0.37067983','-0.33722824',
    '-0.35929734'],
   ['-0.15546279','-0.3849048','-0.3603004','0.05905582','-0.1678461'],
   ['-0.3614963','-0.47910225','-0.48135543','0.09347288',
    '-0.005277194']],

  [['-0.33055606','-0.12988162','-0.3324588','-0.48545322',
    '-0.37686384'],
   ['-0.33556223','-0.22568919','-0.1598185','-0.13131727',
    '-0.089512594'],
   ['-0.3980814','-0.20885372','-0.11822518','-0.3411174','-0.26534858'],
   ['-0.33430067','-0.35338604','-0.34867796','-0.48367506',
    '-0.5610871'],
   ['-0.31291872','-0.3527713','-0.43805626','-0.44482806',
    '-0.14048123']],

  [['-0.10652515','-0.08079014','-0.067980655','-0.086651415',
    '0.0436909'],
   ['0.03443674','0.04627128','0.019227194','0.03602258','0.015659753'],
   ['-0.08996772','-0.013066901','0.039875995','-0.05402091',
    '0.07769053'],
   ['-0.03172873','-0.01885678','0.018711671','-0.040961385',
    '0.07557023'],
   ['-0.10676043','-0.054908082','-0.036023784','0.09765128',
    '0.005421656']],

  ...,

  [['-0.065573454','-0.05919296','-0.26186147','-0.06542047',
    '-0.029075962'],
   ['-0.021321194','-0.07252443','-0.21056437','-0.0879577',
    '-0.017357897'],
   ['-0.07819736','-0.018040538','-0.09886257','-0.09362673',
    '-0.028672475'],
   ['0.015884671','-0.13559882','-0.013200686','-0.19933009',
    '-0.038697854'],
   ['-0.026526088','-0.12695761','-0.31919312','0.10120506',
    '-0.030272443']],

  [['-0.13386784','-0.140262','-0.3289512','-0.36840308','-0.05257569'],
   ['-0.29826573','-0.38124028','-0.12578167','-0.195277','-0.2469098'],
   ['-0.26633132','-0.35381982','-0.35846135','-0.23966481',
    '-0.41137767'],
   ['-0.20290525','-0.26188225','-0.20241962','-0.36809033',
    '-0.2667721'],
   ['-0.0377575','-0.124492176','-0.20241277','-0.20931229','-0.229897']],

  [['0.33782852','-0.33199894','-0.3915409','-0.41262746','-0.36662227'],
   ['0.20136054','-0.23291656','-0.35224333','-0.34719083',
    '-0.25533798'],
   ['-0.21157348','-0.0866599','-0.504521','-0.15198699','-0.054499194'],
   ['-0.14816315','-0.09925146','-0.48313218','-0.30188724',
    '-0.2902227'],
   ['-0.094103605','-0.34124652','-0.36901352','-0.07294315',
    '-0.24035728']]]]