{{{{-0.070928015,0.13142398,-0.15985148,-0.104523584,
    0.18182117},
   {-0.08146247,-0.11106474,-0.04474627,0.024605844,
    -0.20271726},
   {-0.08138395,-0.27756733,-0.079641506,-0.04002959,
    0.24552213},
   {-0.001542968,-0.11766796,-0.09339394,-0.27934116,
    0.31030783},
   {0.9151858,-0.4998979,-0.13893805,-0.07058473,-0.690138}},

  {{-0.61123484,-0.09886916,0.46193352,-0.2607194,-0.30001748},
   {-0.6410109,0.5606133,0.053468153,-0.20459029,-0.5053767},
   {-0.122172736,0.50675863,-0.06903987,-0.43321922,
    -0.7404213},
   {0.24789542,0.10923515,-0.4206064,-0.46576762,0.12917195},
   {-0.093047045,0.46866503,-0.38105983,-0.32355514,
    -0.13524607}},

  {{0.26518115,-0.34320402,-0.7050473,0.08257134,-0.77507794},
   {0.30022076,-0.411413,-0.21551377,-0.57349384,-0.49864838},
   {-0.63504887,0.32774317,-0.29539546,0.94631106,-0.2467279},
   {-0.35740113,-1.381966,-0.2387356,-0.19008815,-0.27423155},
   {-1.0942959,-0.33634266,0.56291276,0.10034189,0.45542127}},

  {{0.12874368,-0.6391165,-0.5136967,0.32185665,0.16766311},
   {-0.07260532,-1.8440117,-0.13051645,0.54799056,-0.49183398},
   {-0.28075212,-0.36045128,0.15517174,-0.5721574,-1.3427032},
   {0.083791204,-0.45784906,-0.9337001,-0.5916414,-1.2154794},
   {1.2564532,-0.43425363,-1.4053878,-0.895725,-1.8964406}},

  {{2.028215,0.046352975,-0.67933875,-0.33189422,-0.0336978},
   {-0.25837862,-0.22632673,-0.15239741,0.56362665,
    -0.32322988},
   {-1.2531238,-0.118293844,-0.20372398,-0.133992,-1.6585845},
   {-0.45790285,-0.069573015,-0.19511113,-0.5192449,-1.852311},
   {0.05231945,0.17283447,-1.1426321,-1.8224285,-0.43217915}},

  {{0.53837854,-1.18429,-0.8183843,0.9993888,-0.21411902},
   {0.41269237,-0.8970547,-0.8202598,0.9119655,0.16441569},
   {0.1565134,-0.78745496,-0.8016301,0.23128329,-0.110334225},
   {0.34138685,-0.76857656,-0.31562927,0.64342636,0.03046278},
   {0.67196167,-0.7485586,-0.5862715,0.116615,0.18269007}},

  {{-0.23694621,-0.03863787,-0.275996,-1.1549621,-0.40831083},
   {-0.34223685,-0.07048386,-0.12921382,-0.6461524,-0.6435396},
   {-0.46452275,-0.821582,-0.20826747,-0.48477715,-1.3560126},
   {-0.5824521,-0.010745854,0.17847148,-0.6707615,-0.8226819},
   {-0.09049812,0.5553528,0.6295175,0.25954154,-1.599292}},

  {{-0.07682534,-0.09268085,-0.64805657,-0.18453294,0.4383584},
   {0.0994729,-0.564105,-0.70787334,-0.036684636,0.39466944},
   {0.6656311,-0.11540787,-0.6857332,0.045649022,0.3060143},
   {0.21767005,-0.33815786,-1.5974697,0.13463467,0.5091171},
   {-0.022193743,0.5689359,-1.0600379,0.15406781,0.7122755}},

  {{-0.043983094,-0.79304713,0.0011077201,-0.1292779,
    -0.19356734},
   {-0.79995066,-0.35075942,-0.13456681,0.06531838,
    -0.20078123},
   {-0.03871974,-0.25659236,-0.4164411,-0.016217321,
    -0.24547528},
   {0.61199564,-0.37713733,-0.309724,0.47758922,-0.2562567},
   {0.28616813,-0.7599011,-0.19940972,-0.23756778,0.30118522}},

  {{-0.366266,-0.26860395,0.27042857,-0.16579472,-0.3395203},
   {-0.37424922,0.0494628,0.79926836,-0.02705606,-0.6074238},
   {-0.03043111,-0.31574088,-0.12062397,0.32609686,0.07279254},
   {0.0006460963,-0.33840922,-0.50060153,0.6132504,
    -0.044848815},
   {0.32378295,-0.3062543,0.07983328,0.3877131,-0.018695658}},

  {{-0.3667974,-0.689166,-0.6890273,-0.54604435,-0.741515},
   {-0.6111382,-0.22287427,-0.22798443,-0.15946749,
    -0.12565163},
   {0.25583234,0.550826,-0.5196694,-0.28295857,-0.24997528},
   {0.49885127,0.25562227,-0.15857145,-0.25308692,-0.50640476},
   {0.30889484,0.15080851,-0.1843896,-0.49160397,-0.9119588}},

  {{0.37017834,0.6990186,-0.5095122,-0.22792011,-0.1819184},
   {-0.3269215,-0.60576344,0.34873968,0.05565963,-0.7716381},
   {-0.12301788,0.38077435,0.33920684,-0.45979753,-1.1917535},
   {0.1313311,-0.13386276,-0.5796041,-0.56324214,-1.0656658},
   {0.39056316,0.4974288,-0.6217706,-0.0857996,-0.9222811}},

  {{-0.6361118,-1.2157457,-0.97425246,-0.64308006,1.2630581},
   {-0.67664284,-1.4378421,-0.43905184,-0.78317654,-1.0638466},
   {-0.93847513,-0.0027159797,-0.21601656,0.260325,
    -0.07195546},
   {0.3043341,0.86604345,0.5805796,-0.0022760956,-0.37264562},
   {-0.3635144,0.10300711,-0.55412054,-0.8741871,-1.2622746}},

  {{-0.53937453,-0.07725784,0.18663014,-0.43089414,
    -0.53723085},
   {-0.70088553,0.050651487,0.42393357,-0.07311366,-1.7841663},
   {-1.11846,-0.83849955,-0.68265724,-0.30597952,-1.2122185},
   {-0.52629334,-0.46604484,-0.2528042,-0.111648194,
    -0.8689964},
   {-0.19188067,-0.6575969,0.09125974,-0.18445916,-0.8052234}},

  {{-0.7995503,-1.4144417,-0.5608873,-0.0086844,0.78755647},
   {-2.0070374,-1.445866,0.75161743,0.26492998,0.22469999},
   {-0.76674145,-0.05513706,0.32995844,-0.17853129,-0.6976878},
   {0.3279444,-0.5675623,-0.5560913,-1.2828813,-1.2084235},
   {0.44679856,0.049256507,-0.010072633,-0.23432958,
    -1.2549734}},

  {{0.44356525,0.09806999,-0.5920719,-0.4482146,0.05365496},
   {-0.229235,0.16024001,0.015140772,-0.17642029,-1.3367556},
   {-0.25505936,0.28892943,0.031169698,-0.1917885,-1.3347942},
   {0.29243064,-0.01695534,-0.69796175,-0.6016542,-1.569168},
   {0.4660204,0.5506742,0.88751733,-0.43295667,-1.2992848}}},


 {{{-0.06448672,-0.07076136,-0.08252498,-0.09890954,
    -0.065847665},
   {-0.056929085,-0.12024703,-0.10226134,-0.047245745,
    -0.05095067},
   {-0.05790143,-0.051141392,-0.10568325,-0.0708937,
    -0.09222934},
   {-0.06872456,-0.06531027,0.0049779867,-0.05402267,
    -0.11344935},
   {-0.09632067,0.029789483,-0.034398407,-0.06420859,
    0.013639097}},

  {{0.07663793,0.02402447,-0.09134235,-0.058958057,
    -0.076859675},
   {-0.031872984,-0.085002005,-0.015543707,-0.06547124,
    -0.06560564},
   {-0.02987984,-0.09991472,-0.034036305,-0.028776836,
    -0.06962399},
   {-0.08881595,-0.048302416,-0.040087115,-0.058197703,
    -0.14897172},
   {-0.0408753,0.21718028,-0.2780384,-0.021204539,-0.07550299}},

  {{-0.35774264,-0.15031376,-0.38009685,-0.034414746,
    -0.06562795},
   {-0.38441092,-0.6961903,-0.12617858,-0.42288768,
    -0.23582125},
   {-0.31398493,-0.36569017,-0.79728085,-0.53351694,
    -0.09069665},
   {0.025258996,0.066240236,-0.5885049,0.186539,-0.030271735},
   {-0.36902475,-0.27032337,-0.2938897,-0.84395796,-0.6431545}},

  {{0.0005574382,0.16408792,-0.39659566,-0.6762843,-0.5602609},
   {-0.28607127,-0.32924488,-0.53567564,-0.08616757,
    -0.69161654},
   {-0.42561883,-0.35189652,-0.23216036,-0.06905592,
    -0.19898735},
   {-0.48793668,0.18840238,-0.18525638,-0.21833381,0.16704842},
   {-0.12613389,-0.19836117,-0.038533784,-0.21147382,
    -0.6834285}},

  {{-0.094906785,-0.51954705,0.0023315793,0.08495491,
    -0.10753024},
   {-0.2968371,-0.4149698,-0.38916764,-0.24569404,-0.1854421},
   {-0.017538238,-0.3058213,-0.2337282,-0.6480022,-0.63433087},
   {-0.37930188,-0.34657592,-0.34239838,-0.09379385,
    -0.4242952},
   {-0.09354951,0.04787247,-0.40937015,-0.49951175,-0.5076712}},

  {{-0.31984836,-0.4901115,-0.70508206,-0.5175801,-0.4474089},
   {0.34896517,-0.64245087,-0.73876554,-0.08375662,0.30664268},
   {-0.5962945,-0.049079895,-0.39807355,0.08646339,0.2129797},
   {0.26112917,-0.4551895,-0.18455964,-0.21466078,
    -0.034970343},
   {0.11220501,-0.13737652,-0.37083748,-0.4511021,-0.45386854}},

  {{-0.40293017,0.07127998,0.13556682,-0.1778033,-0.7151823},
   {-0.18117224,0.07924675,-0.06483466,-0.23166315,
    -0.50901866},
   {-0.27369103,-0.03664541,0.14155762,-0.0030434208,
    -0.2095713},
   {-0.14583476,-0.7909997,-0.007758586,0.046687078,
    -0.39053044},
   {-0.0043668356,-0.54402506,-0.29586753,0.16434726,
    -0.33604512}},

  {{-0.34677488,-0.07068662,0.16986875,0.56144637,-0.26467445},
   {-0.28328282,-0.19723468,0.1354082,0.23132169,-0.18523568},
   {-0.07731925,-0.62349856,0.14636429,-0.37274927,
    -0.11109692},
   {-0.096322864,-0.40175253,-0.12797925,-0.29078683,
    -0.056522276},
   {-0.2836137,-0.47032475,-0.28913954,-0.43888733,
    -0.15087488}},

  {{-0.31388813,-0.48764053,-0.6350825,-0.5549862,-0.19279638},
   {0.06599648,-0.14591125,-0.29216015,-0.5136724,
    0.0054455213},
   {0.04008796,-0.026209585,-0.120704666,-0.20339465,
    0.31713852},
   {-0.25395852,-0.16915633,-0.1425165,-0.47636425,
    0.095811285},
   {0.07020662,-0.066943325,-0.06502719,-0.32011032,
    0.011468001}},

  {{-0.05933362,-0.07358668,-0.09013841,-0.048621964,
    -0.09604096},
   {-0.023841063,-0.06095614,-0.023262462,-0.026844963,
    -0.049099237},
   {-0.063703716,-0.061813276,-0.07198466,-0.09883096,
    -0.111447},
   {-0.064884536,-0.100683376,-0.08329346,0.033789035,
    0.06626004},
   {-0.02532361,0.011709509,-0.107745126,-0.06493612,
    0.029153895}},

  {{-0.03827993,-0.013760046,-0.054575454,-0.06294025,
    -0.11546032},
   {-0.059256855,-0.060999382,-0.1079414,-0.05425121,
    -0.045150675},
   {-0.109860085,-0.010325536,-0.0657519,0.101127096,
    -0.0321451},
   {-0.03886952,0.028282097,-0.03583867,0.01179689,
    -0.0064687924},
   {-0.10647389,0.099809565,-0.2665879,-0.085698515,
    0.011578483}},

  {{-0.21661101,0.1667207,-1.0093765,-0.3304553,0.032390267},
   {-0.10793744,-0.46316838,-0.2659157,0.057809338,-0.40737},
   {-0.221949,-0.33886904,-0.38823798,-0.26158684,-0.12486848},
   {-0.2060766,-0.12145685,-0.16973786,-0.08725892,
    -0.026140282},
   {-0.18504296,-0.05084428,0.09634721,-0.08698348,-0.6815159}},

  {{-0.7143625,-0.32903188,-0.41864288,-0.6531552,-0.5913509},
   {-0.5218616,-0.26503354,-0.60636,0.24794233,0.37496144},
   {-0.42472568,-0.25395715,-0.12388472,-0.52360815,
    -0.6291464},
   {0.12806603,0.17608346,-0.2957357,-0.34197533,-0.34861088},
   {0.057607885,-0.1549025,-0.22452787,0.0006727668,
    0.106507316}},

  {{-0.30989918,-0.2840368,-0.3897711,-0.2027886,-0.22852485},
   {0.081160426,-0.16145296,0.05366792,-0.24215445,-0.3880261},
   {-0.52126986,-0.22904328,-0.57189685,-0.7790121,
    -0.91925776},
   {-0.5213194,-0.61247563,-0.086449124,-0.12687884,
    -0.66295713},
   {-0.28839317,-0.48166636,-0.49128032,0.124684304,
    0.24334434}},

  {{-0.43276757,-0.37570733,-0.20062529,-0.9701998,
    -0.16014165},
   {0.054765485,-0.4414272,-0.73742193,-0.25286165,
    -0.119821705},
   {-0.32900935,-0.40222964,-0.4696379,-0.6952162,-0.6275707},
   {-0.20235425,-0.40753663,-0.5380359,-0.35179237,
    -0.47945982},
   {-0.19216682,-0.78365093,-0.5873556,-0.5803446,-0.3811734}},

  {{0.13065739,0.14594688,-0.23477879,-0.42256606,0.19973667},
   {0.18232735,0.43933102,-0.16345996,-0.17209104,-0.15576419},
   {0.24946979,-0.29303196,-0.2988842,-0.23770349,-0.44045287},
   {-0.58421105,-0.07123073,-0.29183617,0.06831578,
    -0.49138704},
   {-0.40023246,0.09271565,-0.09341925,-0.37204838,
    -0.06458963}}},


 {{{-0.41658026,0.4945079,-0.2124912,0.258413,0.0998671},
   {-0.25872853,0.5469276,0.052605163,-0.09541937,-0.09149378},
   {0.09014901,0.041920353,0.11321657,0.08190155,0.06475626},
   {-0.21026653,-0.038715493,-0.32166916,-0.16750148,
    -0.067239955},
   {-0.12440608,0.028596843,-0.36280158,-0.34189147,
    -0.26429728}},

  {{0.26357484,-0.96509045,0.007990905,-0.590156,0.041070893},
   {0.29985434,-1.1583568,-0.061759867,-0.50425357,0.24412589},
   {-0.12595929,-0.40921518,0.03190752,-0.45146602,
    -0.14754573},
   {-0.86278754,-0.22205189,0.19129865,-0.12217295,0.40977755},
   {-0.51486754,-0.6197124,-0.05388086,0.36736795,-0.2458499}},

  {{-0.8336924,-0.18172036,0.59537303,0.36860326,-0.15563492},
   {-0.78628325,0.11861016,-0.03859939,0.83981454,0.9870304},
   {-0.25729498,0.46317852,-0.10787685,0.30601728,0.4781342},
   {0.57971406,0.3761437,0.5854458,-0.14523046,0.027973436},
   {0.6093818,1.3650329,-0.22395137,-0.3713054,-0.47683275}},

  {{-0.17224966,-0.45304424,-0.07468451,-1.0935514,-0.2970811},
   {1.3299074,0.011179496,-0.24561024,-0.5454498,0.7193304},
   {-0.020082792,-0.30879223,0.17393991,-0.018604366,
    -0.6472841},
   {0.36990598,-0.017700452,-1.0324899,-0.01722295,
    -0.28980765},
   {-0.20716874,-0.096867055,-1.5050877,-0.39565498,
    -0.39764765}},

  {{-0.8001804,-0.92061985,-1.2065899,-1.2454107,-1.2313776},
   {-0.47953033,-0.36164865,-0.16690907,-1.2175112,
    -0.91339844},
   {-0.31411514,0.21768135,-0.34346646,-0.6053097,-0.41408372},
   {-0.32069317,-0.064092524,-0.22999454,-0.46095273,
    0.18471953},
   {-1.5310252,-0.653863,0.3078049,0.19731602,1.0786737}},

  {{0.42751557,0.06122002,-1.5059767,-0.71255827,-0.47128782},
   {0.30710903,-0.08117362,-1.5445956,-0.83497876,0.19705714},
   {0.3728212,-0.75935286,-1.1660278,-0.9280547,-0.72518426},
   {-0.42747462,-0.9659548,-0.59884757,-0.5860836,-0.965403},
   {-1.9615391,-0.47004572,-1.0457671,0.043153778,-0.65488964}},

  {{0.6308928,-1.4692085,-0.1717496,-1.5809284,-0.18142106},
   {0.31043985,0.10919944,-0.21104394,-0.75208074,-0.29188463},
   {0.211499,-0.48061362,-0.64784515,-0.5159375,-0.27249822},
   {0.14814255,-0.6776787,-0.5377851,-1.0257916,-0.3419679},
   {-0.3866194,-0.94703287,-1.1757121,-0.43922088,-0.34532234}},

  {{-0.3443073,-0.80760825,-0.09174237,0.29180163,0.5047516},
   {-0.32117277,-0.16206574,0.14116211,-0.16529202,0.13625301},
   {-0.4909789,0.11641211,0.006397697,-0.5687655,-0.5226973},
   {-0.24870735,0.21911506,-0.20116226,-0.3397057,-1.0937402},
   {-0.40824324,0.4088452,0.31390822,0.4570196,-0.7360955}},

  {{0.6318673,-0.077991664,-0.32844418,0.02747765,0.24818097},
   {0.51644546,0.01280194,-0.90367,-0.19422187,-0.40916264},
   {-0.6091727,-0.4936779,-0.41656145,-0.4120984,0.52656335},
   {0.0073111174,-0.032691892,-0.7113907,-0.012242906,
    0.18825561},
   {-0.61219853,-0.9086465,-0.8181373,0.4016036,-0.49228814}},

  {{0.21909428,-0.7165535,-0.2727336,0.21071821,0.41300115},
   {-0.44812247,-0.019816857,0.23973654,0.3344172,-0.5178218},
   {-0.031339534,-0.34679765,-0.0049683247,0.34184766,
    -0.577373},
   {0.6990784,0.27752408,0.19462216,0.9251576,0.078027196},
   {-0.05473681,-0.5533192,-0.38451484,-0.2914603,-0.06830692}},

  {{0.32707405,0.008878921,-0.6689465,-0.16425681,0.23390569},
   {-0.20508175,-1.2576385,-0.5641707,0.079395905,-0.09291491},
   {0.5151325,-0.053468753,-0.29514876,-0.11387099,
    -0.46987817},
   {0.4083533,-0.32092318,-0.33686176,-0.104722075,
    -0.52399814},
   {-0.5854158,0.010758238,0.17138323,-0.73283076,-0.96458167}},

  {{0.050748732,0.13648887,-0.28686184,-0.9309711,-0.7026924},
   {0.6820321,0.32526177,-0.9026094,-0.6116238,-0.81817985},
   {-0.22300741,-1.2410741,-1.601704,-0.6961965,-0.068469375},
   {0.10862763,-0.8410247,-0.85492605,0.59650797,0.20210469},
   {-0.17182773,-1.0730919,-0.111568324,-0.032845993,
    -0.2879002}},

  {{-0.38206425,-0.1653604,0.302647,0.45430583,-0.61838746},
   {-0.7984166,0.077091426,1.0498267,-0.14673486,0.026752366},
   {-0.838332,0.21725573,0.4784157,0.37981656,0.40057573},
   {0.06184998,0.09839962,0.5191221,0.005972849,-0.36514446},
   {0.44710076,-1.3520795,-0.35991862,0.18783554,-0.26110965}},

  {{-0.46694756,-0.9853917,0.11692515,0.37234572,0.16112757},
   {-0.3041128,-0.39363483,-0.18200816,0.4674324,0.38241532},
   {-0.4135947,-0.3029984,0.07844426,0.28273976,-0.2723187},
   {0.005035574,0.25266653,-0.015370094,0.019456333,
    0.62256086},
   {-0.5124757,-0.5155735,-1.3461374,-0.33306468,-0.1315189}},

  {{0.5008991,0.24968101,0.23607317,0.47296283,0.014473667},
   {0.19846606,0.18602197,-0.0676888,0.30052668,-0.34617636},
   {0.77159494,-0.3309993,-0.19958688,0.1823072,-0.59461653},
   {0.83845353,-0.8971427,-0.42147356,0.289557,0.85907614},
   {-0.39104202,-1.8037165,-0.0006281673,-0.03165562,
    0.62892014}},

  {{-1.3418502,-0.20280373,0.37794662,-0.74367183,0.019434843},
   {-0.8276663,0.205835,0.9074386,-0.32452554,-0.20883328},
   {-0.26182306,-0.35240847,0.4706709,-0.19128324,0.32375613},
   {-0.13129678,-0.09352096,-0.68949515,-0.502129,-0.390372},
   {-0.17188217,-0.3345954,-0.34235942,-0.3080535,0.032308426}}},


 {{{-0.09349655,-0.09820279,-0.05743645,-0.06794026,
    -0.10747429},
   {-0.014658394,-0.061541677,-0.07322741,-0.050956488,
    -0.06133293},
   {-0.095741846,-0.05466879,-0.050659113,-0.050410613,
    -0.066969834},
   {-0.07988326,-0.10445543,-0.043490324,-0.04263992,
    -0.037245918},
   {-0.0473352,-0.0844372,-0.07011021,-0.08482359,
    -0.042333465}},

  {{-0.028113611,-0.03478055,-0.0397512,-0.052306786,
    -0.03575139},
   {-0.105038576,-0.03489636,-0.0847867,-0.026383914,
    -0.08186835},
   {-0.03895815,-0.05569096,-0.108951926,-0.018667739,
    -0.0761526},
   {-0.09270909,-0.06081565,-0.031723514,-0.023714423,
    -0.022793883},
   {0.04789917,-0.10050952,-0.01540496,-0.012452866,
    -0.08294076}},

  {{-0.027398968,-0.016851343,-0.04377968,-0.043631434,
    0.052632313},
   {-0.09980332,0.016580531,-0.0822628,-0.26045036,
    -0.14808561},
   {0.043263324,-0.118437946,-0.11411802,-0.24220133,
    -0.035551332},
   {0.061257947,0.040636733,-0.10455973,0.03804463,
    -0.084155306},
   {0.069073476,0.06829041,0.043747827,-0.10342362,
    0.027021086}},

  {{-0.07152891,-0.070050985,-0.10469466,-0.10671471,
    -0.10932578},
   {-0.052169934,-0.09536517,-0.09153642,-0.09949309,
    -0.0962306},
   {-0.07110728,-0.016697925,-0.0715364,-0.10329899,
    -0.04253092},
   {-0.09951306,-0.050238162,-0.02804532,-0.10141594,
    -0.08509684},
   {-0.067124724,-0.024569003,-0.06272191,-0.09249591,
    -0.09439339}},

  {{0.083049715,0.052367672,-0.013188376,-0.092656076,
    -0.057774253},
   {0.06734977,0.011171579,-0.05815119,-0.0840914,
    -0.026719693},
   {-0.07310431,-0.08351739,-0.023350358,-0.012041312,
    -0.068981946},
   {-0.08968929,-0.06592993,-0.06688414,-0.052293804,
    -0.10892597},
   {-0.0790263,0.042225335,-0.09079851,-0.06298803,
    -0.012683012}},

  {{-0.06680555,-0.033542074,0.09116956,-0.059261512,
    -0.057802446},
   {-0.10313532,-0.08010389,-0.023669705,-0.03324428,
    -0.057417642},
   {-0.106775396,-0.089872,0.019643625,-0.08371598,0.07595421},
   {-0.010238447,-0.06962539,-0.10894469,-0.014983316,
    -0.091871835},
   {-0.049634043,-0.012064388,-0.07610976,0.039659906,
    -0.044401776}},

  {{0.03761387,-0.09670751,-0.026634378,-0.058767978,
    -0.044361204},
   {0.009686649,-0.10267975,-0.0518903,-0.08574983,
    -0.026640771},
   {-0.0412065,-0.04268208,-0.06905323,-0.1095324,-0.09893208},
   {-0.013992421,-0.055250682,-0.024197038,-0.054755945,
    -0.047898598},
   {0.034689177,0.012299057,-0.029669592,-0.0144281825,
    -0.016284222}},

  {{-0.029029278,-0.10275909,-0.033953432,-0.081151545,
    -0.051574104},
   {-0.08652191,-0.052259088,-0.06318436,-0.030978728,
    -0.09698428},
   {-0.055661604,-0.06571915,-0.03113398,-0.053500194,
    -0.07823187},
   {-0.102134116,-0.08039897,-0.101749845,-0.025696099,
    -0.07644356},
   {-0.059934143,-0.074294806,-0.09413359,-0.074085824,
    -0.05130852}},

  {{-0.10941693,-0.10551522,-0.07185407,0.07091409,
    -0.071026094},
   {-0.10485684,-0.022874521,-0.086543515,-0.08387453,
    -0.042005997},
   {-0.054286078,-0.01983551,-0.105619915,-0.04869532,
    -0.07029509},
   {-0.06348804,-0.088300735,-0.10133249,-0.022181848,
    -0.04286621},
   {-0.102895595,-0.072431564,-0.010901103,-0.037927788,
    -0.011974982}},

  {{-0.012587964,-0.043485828,-0.077986374,-0.07232152,
    -0.0633674},
   {-0.06929959,-0.022318317,-0.023252176,-0.09386681,
    -0.082278416},
   {-0.08048863,-0.07976335,-0.047949117,-0.0634773,
    -0.01190023},
   {-0.04913921,-0.09488254,-0.090504564,-0.10780128,
    -0.04589486},
   {-0.07378753,-0.08990575,-0.070685394,-0.094433956,
    -0.032729596}},

  {{-0.056819316,-0.014582184,-0.015452191,-0.072387,
    -0.068174995},
   {-0.06022135,-0.07840639,-0.02134677,-0.056240354,
    -0.07057839},
   {-0.05863467,-0.06827426,-0.016215693,-0.0145971915,
    -0.08297542},
   {-0.07572366,-0.0458359,-0.09248512,-0.0483604,-0.04475944},
   {-0.014707844,-0.01943062,-0.057292942,-0.02882305,
    -0.048106015}},

  {{-0.05726519,-0.09835649,-0.028300675,-0.0205706,
    -0.095353685},
   {-0.070152394,-0.0868377,-0.089171015,-0.06395982,
    -0.06684301},
   {-0.020558318,-0.09012623,-0.030076526,-0.08584408,
    -0.10467723},
   {-0.07176516,-0.047929574,-0.05210283,-0.0798605,
    -0.023242543},
   {-0.034598958,-0.07334838,-0.01607431,-0.057479996,
    -0.07174533}},

  {{-0.023958623,-0.030854706,-0.1083725,-0.013104488,
    -0.06569195},
   {-0.04511557,-0.06794104,-0.06554082,-0.020567637,
    -0.035573546},
   {-0.055621758,-0.055412874,-0.05913478,-0.057876896,
    -0.041548606},
   {0.07394866,-0.0100277625,-0.03386402,-0.040078968,
    -0.06791423},
   {0.020336783,-0.017582312,-0.08045761,-0.08259663,
    -0.011437964}},

  {{-0.062488567,-0.060979296,-0.058729555,-0.34339768,
    -0.07565039},
   {-0.020581832,-0.08731431,-0.012537076,-0.05574236,
    -0.040820688},
   {-0.053261224,-0.054461367,-0.07183745,-0.083719045,
    0.07459035},
   {-0.014763615,-0.013239951,-0.02557493,-0.069823384,
    0.054131534},
   {-0.09370933,-0.03155603,-0.07865019,-0.0661102,
    -0.05746375}},

  {{-0.016838707,-0.088365145,-0.04165429,-0.06452884,
    -0.048758328},
   {-0.07199149,-0.08376747,-0.096390955,-0.08129254,
    -0.0930776},
   {-0.011754084,-0.02039326,-0.022149157,-0.036785226,
    -0.04690504},
   {-0.017116716,-0.104955725,-0.090217575,-0.020174317,
    -0.05395159},
   {-0.07123074,-0.016702773,-0.036579825,-0.04570213,
    -0.01496971}},

  {{-0.016583038,-0.028804291,-0.059626486,-0.09208512,
    -0.0798269},
   {-0.050109394,-0.04412549,-0.09313066,-0.020023854,
    -0.03698749},
   {-0.08095845,-0.09891215,-0.045586422,-0.01373101,
    -0.028109033},
   {-0.07062461,-0.09325359,-0.10678097,-0.033608817,
    -0.010473156},
   {0.055129137,-0.09641633,-0.092717715,-0.0371842,
    -0.0240983}}},


 {{{0.77781546,-0.05168153,0.073109426,0.31948707,0.32820025},
   {0.079554655,0.07944022,-0.0010337452,0.081306845,
    0.079656124},
   {0.004182843,-0.08413376,0.037931204,0.04912183,
    -0.043493718},
   {0.06693941,-0.019052526,0.047033314,-0.14024161,
    -0.29627928},
   {-0.15861109,-0.008688117,-0.02621939,0.11098574,
    0.018655172}},

  {{-0.31794217,-0.53696597,-0.42040128,0.40732962,0.22149919},
   {-0.19450752,-0.35945413,0.023073303,0.17576371,-0.3157229},
   {-0.3172531,-0.13222204,0.2732062,0.25089237,0.14518218},
   {-0.20110974,-0.09197933,0.46331146,-0.50501,-0.36818144},
   {-0.013091064,0.73044765,0.43049923,-0.07789033,
    -0.01604905}},

  {{0.412065,-1.2815912,-1.3684939,-1.7461874,-2.1182885},
   {-1.1149325,-0.47524396,0.16509211,-0.52629113,-1.2075493},
   {1.1011318,0.24694224,-0.19211042,-0.000087556895,
    0.40549833},
   {-0.48647752,-0.2641283,-0.26484406,0.8466313,-1.2962664},
   {-0.10861042,-0.8392575,-0.16604735,-0.622382,-0.85110414}},

  {{-0.08716133,-0.5295004,-0.55221486,-0.8095601,-0.4486888},
   {0.80800813,-0.19275753,0.32417968,0.2595545,0.956845},
   {-0.6530943,0.7067214,0.025896467,-0.4541285,-0.8985723},
   {-0.056949135,0.043917794,-0.55108976,-0.642425,
    -0.18896957},
   {0.29401898,1.1211997,-0.32424253,0.19956468,0.5643961}},

  {{1.1684031,0.22829883,-0.4380775,-0.10007331,0.6976241},
   {-0.1151651,-0.3430517,-0.13005507,-0.013569904,-0.4001973},
   {-0.18664706,-0.5652494,-0.193801,-0.7235295,-0.43778792},
   {-0.4112786,-0.5583574,-0.114797756,-1.459225,-0.7883705},
   {-0.67147934,0.13308284,-0.09804803,-0.71755236,0.17576429}},

  {{0.49133468,0.40516883,0.29681063,-0.047445424,-0.85558367},
   {1.2136223,0.045063175,-0.09258579,-0.40578565,-0.23093846},
   {0.6399564,-0.16998605,-1.0896586,-0.6634631,-0.69067514},
   {-0.26904383,-0.32860577,-0.4346933,-0.12207791,
    -0.030093055},
   {0.43479452,-0.9399168,-0.04456966,0.9617848,0.061026175}},

  {{0.15958327,0.14315237,0.08139999,0.424392,-0.5918381},
   {-0.22620526,-0.6497485,-0.8636918,-0.42472956,-1.1665878},
   {-0.5574093,-0.5689531,0.34702873,-0.9542723,-0.97138745},
   {-0.29365936,0.12628557,-0.08771301,-0.8964765,-0.83780986},
   {-1.0331806,-0.15214515,-0.08088045,-0.7421426,-0.26539478}},

  {{-0.1566233,-0.37618905,-0.30345434,-0.9350048,-0.839344},
   {0.1330035,-0.11037365,-0.9103857,-0.7016065,-0.5727189},
   {0.25887915,-0.16784726,-0.3774473,-0.14830242,0.36037332},
   {-0.011744078,-0.29466146,-0.18191092,0.32552478,
    0.56161773},
   {-0.30584282,0.0770385,0.105970174,0.38597602,0.26946664}},

  {{-0.018962897,0.52726316,0.13705426,-0.2110215,-0.3395441},
   {-0.22197896,0.009110208,0.26140013,-0.19935925,-0.6948665},
   {0.13749109,-0.42096898,-0.5606431,-0.42787874,-0.48873657},
   {-0.2763495,-0.28007084,-0.3929381,-0.5353652,0.5771143},
   {-0.17270754,-0.4823013,-0.278433,0.3169232,-0.36614564}},

  {{-0.058764987,-0.23674856,0.32629514,0.36023322,0.6557262},
   {0.17256048,0.11519241,-0.19705297,-0.21316727,-0.14217862},
   {-0.09859574,-0.31859645,-0.23071077,-0.35444248,
    -0.15441327},
   {-0.28196815,-0.2998199,-0.22111079,0.0126124825,
    -0.15196595},
   {-0.2964361,-0.26422024,-0.20256726,-0.1057699,0.10205624}},

  {{-0.32796463,-0.04687238,0.022851536,-0.22635601,
    -0.4485947},
   {-0.38433498,-0.16506617,-0.49066082,-0.085532755,
    -0.027681023},
   {-0.34472343,0.17981672,0.20109943,-0.3360324,-0.19620867},
   {0.05941975,0.46518824,0.14937066,-0.22419551,0.12546849},
   {0.0694244,0.19625929,-0.17777228,-0.06336057,-0.4095241}},

  {{0.13372381,-0.22974522,-0.17128982,0.24698478,0.44447067},
   {-0.5300102,-0.09926108,0.11795461,0.3470142,0.36421058},
   {-0.89437497,-0.21465316,-0.5972513,-0.10968167,
    -0.92449015},
   {0.114576116,-0.1513709,-0.599548,-0.3609804,0.16098562},
   {-0.522361,-0.040894397,-1.0801358,-0.8599662,-0.46721074}},

  {{0.27004394,-0.12444668,-0.85500574,-1.1531903,-0.5436862},
   {-0.2739241,-0.5879997,-0.50574946,0.6848254,0.07108859},
   {0.2257869,0.15041704,0.01655807,-0.37820086,-0.6763559},
   {0.0877126,-0.20709065,-0.62218535,-0.15476145,0.07161642},
   {-0.29005682,-0.26232454,-0.29908028,-0.2756026,
    -0.28346077}},

  {{-0.38612312,-0.15877837,0.27606028,-0.10684112,0.25284216},
   {0.13591337,-0.026437612,-0.6450168,-0.5711515,-0.5893952},
   {0.3725412,-1.1908768,-1.2147816,-1.1952503,-1.5308787},
   {-0.3849458,-0.6827959,-1.502096,-0.51763016,-0.38082245},
   {-0.45993492,-0.5753971,-0.3567728,-0.22609219,-0.22043374}},

  {{-1.1098038,-1.7543476,-0.44119,-0.5952529,0.3421274},
   {-1.31026,-0.41968733,-0.6213283,-0.342998,0.44307762},
   {-0.9067629,-1.0004382,0.16233711,0.30331296,-0.0860274},
   {-0.39748615,-0.42314616,0.33778343,0.07806056,-1.6711383},
   {-0.107646964,0.046572983,-0.07025349,-1.0877981,
    -0.6130128}},

  {{-0.31970757,-0.4664228,-0.063354276,-0.034507662,
    0.13611941},
   {-0.7088235,-0.85213214,-0.54278874,-0.076058425,
    -0.7866841},
   {-0.21067779,0.39067844,0.15124743,-0.36042354,-0.44864476},
   {-0.27473617,-0.07077224,0.07810193,-0.6225238,-1.2950194},
   {-0.13768728,0.072924495,-0.2263645,-0.4601868,-0.39459318}}},


 {{{-0.22873463,-0.20373586,-0.22654833,-0.164937,
    0.0005999822},
   {-0.20653792,-0.16603483,0.15637714,-0.07302175,
    -0.25787422},
   {-0.11644142,-0.07357801,-0.024421744,-0.28401628,
    -0.3808622},
   {0.11939017,-0.036097266,-0.01743382,-0.14785296,
    -0.027784588},
   {0.22846472,-0.13013709,-0.23447375,-0.049041595,
    -0.69293857}},

  {{0.4425519,0.38054445,0.38071862,-0.46434844,0.053379405},
   {0.14900406,-0.16533045,-0.1405392,-0.3609962,0.1129648},
   {0.2744587,-0.23140801,0.40710846,-0.23842555,-0.18397982},
   {0.094759904,0.12945993,0.5203927,0.10258683,-0.6025461},
   {-0.26193324,-0.28364915,-0.4738342,-0.43375888,-0.5871688}},

  {{-0.12949027,-1.2112435,0.17719924,0.6945376,-0.03007144},
   {-0.72995853,-0.5877453,0.33966112,0.0782816,-0.7372108},
   {-1.1924499,0.08183757,-0.2564241,-0.24500786,-0.19814183},
   {-1.3095995,-0.24410161,-0.89627683,-1.380414,0.8360718},
   {-0.38222858,-1.3498479,0.7693407,-0.42927188,-1.4038395}},

  {{0.042722534,0.20826046,-0.5336962,0.17475118,-0.55670995},
   {-1.2754409,-0.26104972,0.08512932,-0.40346923,-1.1410363},
   {-1.4811802,-0.46660522,-0.7154499,-1.0239071,-1.1650367},
   {-0.9364544,-0.62646884,0.26087704,-0.620174,-0.13889287},
   {0.7070966,0.46646637,0.20914456,0.09757768,0.37633154}},

  {{-0.9024373,-0.49058738,0.08439202,-0.087140016,-0.935528},
   {-0.53687125,0.36942992,0.25332585,-0.10207677,0.5327551},
   {-1.5686498,-0.19544625,-0.7176408,-0.3648648,-0.47486076},
   {0.41329995,-0.17703971,-0.44011873,-0.1683847,0.6621709},
   {1.0514791,-0.13830523,-0.54389274,-0.4854984,-0.47040388}},

  {{-0.67637324,-0.2461242,0.85564834,-0.19490726,-0.92745966},
   {-1.3023518,-1.377885,-1.0492676,-0.17148516,-0.8078211},
   {-1.1044271,-1.5471227,-0.6525747,0.25111842,-0.7339627},
   {-0.79104656,-0.5276982,-0.76650286,0.38824087,0.1426628},
   {0.53657126,-0.43484545,-0.48226944,-0.23202898,
    -0.016621046}},

  {{-0.6235132,0.34509388,-0.3680111,0.31932482,-0.17988627},
   {-0.8983447,-0.25831994,0.19532444,-0.24407874,-0.30385816},
   {0.23559298,-0.25036973,-0.10502461,0.25886753,-0.42126888},
   {0.4728976,0.5054382,-1.4115074,0.015860401,-0.4187912},
   {0.304814,-0.16883133,-0.8133305,-0.089511536,0.40013644}},

  {{-0.2733181,-0.3031916,-0.05774625,0.43404928,0.4926018},
   {-0.1993566,0.08816255,0.045167208,0.21233119,-0.37304646},
   {-0.6033508,-0.044597954,-0.34810096,0.42265627,
    -0.45972377},
   {-0.174459,-0.24153467,-0.5776066,0.40524852,-0.6723282},
   {-0.8562963,-0.72010237,-0.5021886,-0.044024695,0.13602889}},

  {{0.10934508,0.2710403,1.2179207,-0.3735755,-1.3046864},
   {-0.68582046,-0.36534205,-0.34352672,-0.76978254,
    -0.45587328},
   {-0.4885441,-0.0951138,-0.29023018,-0.09963359,-0.5122239},
   {-0.6717481,0.14137863,-0.08135308,0.7477084,0.115187},
   {0.16881655,0.16961052,0.1917189,-0.07346788,0.35116982}},

  {{-0.12370888,-0.4584516,-0.7662536,0.14527783,0.17035706},
   {0.13253805,0.21053123,0.06801805,-0.11111187,-0.4588928},
   {-0.3206247,0.2000447,-0.34316334,-0.54174864,0.21326798},
   {-0.04063594,0.10886788,-0.16867398,-0.7504047,-0.63200533},
   {0.86449915,0.2922901,0.50821435,0.2208701,0.15177593}},

  {{0.47665134,0.86289966,0.07193252,0.3238515,-0.059952285},
   {0.3322121,0.086573824,-0.031783026,-0.23881368,
    -0.09989299},
   {0.2092624,0.6223839,-0.35474494,-0.35332623,0.15035325},
   {-0.19278851,0.49932614,0.08391645,-0.06147484,0.25639212},
   {-0.22337845,-0.36644328,-0.61528057,-0.23048215,0.7668216}},

  {{-0.1336343,0.16624185,0.3870105,-0.54752886,-1.2713213},
   {-0.58709043,0.7411542,-0.12858139,-0.79476655,-1.3778318},
   {-0.7790232,0.3493262,-1.2927389,-0.35761744,-0.060111903},
   {-0.9883825,0.04552408,0.3641445,-0.12640187,0.03138215},
   {0.21755107,0.649333,0.634544,0.5074137,0.1747309}},

  {{-1.0164907,-0.8036502,0.16118704,-0.2378388,0.26343316},
   {0.82604086,0.40942633,-0.38798383,0.014827009,0.26988527},
   {-0.48368835,-0.5275816,-0.9563886,-1.6579686,-1.6968831},
   {-0.8813044,0.4715158,-0.74470174,0.11414108,-0.10651835},
   {-1.3311919,-0.14640626,0.058791842,-0.021843044,
    -1.1671481}},

  {{-0.6513898,0.3121473,0.53786063,-0.0991033,0.628364},
   {-0.22408909,0.5804437,0.30547526,-0.18143113,-1.2346646},
   {-0.70996326,-0.0765762,-0.98830825,-0.8389743,-1.5867317},
   {-0.9802946,0.060222674,-1.6330974,-1.1756552,0.43587747},
   {0.4855271,-0.42944917,-0.75634986,0.17575338,-0.5747762}},

  {{-0.048154324,-0.5776703,-1.2930391,-0.65985626,
    -0.028724004},
   {0.40435028,-1.0754486,-1.531699,0.05213898,0.13356757},
   {-0.0860939,-0.9704968,0.42292768,0.89456534,0.10075073},
   {-1.2209054,-0.99316424,0.40395972,0.58592194,-1.0488656},
   {-1.1852459,-0.25787452,-0.45904726,0.057150543,
    0.017272674}},

  {{0.54128164,-0.4143224,-0.2756534,0.5872465,0.25755554},
   {-0.23548326,0.49485466,0.14395301,-0.21153077,-0.25740808},
   {-0.0017953091,0.36413226,0.77013034,-0.2823758,
    -0.16641809},
   {0.8978151,-0.24583498,-0.24629375,-0.19128385,0.062260088},
   {-0.05862883,-0.48103884,-0.45114893,-0.20843977,
    -0.5425387}}},


 {{{0.381196,0.14502749,-0.10553254,0.25571844,-0.41206065},
   {0.22188134,0.061203487,-0.13994198,0.112615004,
    -0.29324088},
   {-0.31580716,-0.05681202,-0.14355059,0.043301698,
    -0.2887165},
   {0.1275561,-0.24623802,-0.14288294,-0.23329048,-0.09968596},
   {-0.23439635,0.21465556,-0.09543312,-0.107929684,
    -0.13858333}},

  {{-0.74179316,0.58841103,0.13543847,-0.18205315,-0.18827403},
   {0.4936326,0.6653126,-0.37584308,0.61113364,0.081280194},
   {0.8518204,-0.24541481,-0.7494377,-0.90319467,-0.5787872},
   {-0.27751043,-0.6517112,-0.30951455,-0.5587937,-0.47550896},
   {-0.004776406,0.401624,0.35039145,-0.25084564,-0.37257808}},

  {{-0.09697148,-0.66842836,-0.5749621,-1.4123163,-1.7569788},
   {-1.4221452,-0.5899669,-0.16472782,-0.46641326,-2.0869515},
   {-0.21060759,-1.0185515,0.31243473,-0.6542916,-0.9234629},
   {-0.19712177,-1.0449617,-0.33171248,-1.2500539,0.17720652},
   {-1.0661592,-0.90973234,-1.1237713,-0.28763404,-0.5941295}},

  {{-0.17556684,0.5679023,-0.323597,-0.6558075,-1.3329893},
   {0.19516805,-0.46560264,-0.06217027,-0.18505183,0.25876752},
   {0.66827625,0.6098434,0.166706,-0.3519749,-0.40172103},
   {0.733753,-1.0484328,-0.49758226,-0.47799388,-1.1810746},
   {-0.57498604,-0.3702885,-1.1351186,-0.72640955,-0.07697659}},

  {{-0.40643698,0.38720974,-0.64678335,-0.39159706,0.31909943},
   {0.1643002,0.073921345,-0.2141719,0.13054681,0.0240936},
   {0.16721381,-0.026134294,-0.83276296,-0.5767523,0.06646443},
   {0.36597517,0.120439805,-0.98227286,-0.23810321,0.35050523},
   {-0.5862653,-0.5122406,-0.393422,-0.07624333,-1.3681662}},

  {{-1.2500877,-1.0574682,0.2716799,-0.076669104,0.99940276},
   {-0.7818311,-0.9550575,-0.7655052,-0.60641336,-0.44057205},
   {-0.43459114,0.22983108,0.14568838,0.17457025,-1.211783},
   {-0.13012227,0.074866265,-0.33570123,-0.89529604,
    -0.39754122},
   {-0.41350642,-0.3418904,-0.37645862,-1.0721875,-0.6288621}},

  {{0.19944456,-0.33997026,0.11207637,0.10910251,0.14361548},
   {0.026212793,-0.84363496,-0.8407472,0.40909913,-0.15604395},
   {0.18782057,-0.27762896,-1.1189884,-0.08909182,-0.8472823},
   {0.5731237,0.3711314,0.100494646,0.62391454,-0.22878027},
   {0.6659236,0.22033027,0.43518198,0.43139917,0.19535886}},

  {{-0.01886565,1.2803476,0.6455771,-0.65245545,-1.4701599},
   {-0.6581594,-0.37247887,0.077417,-0.8630424,-1.2658991},
   {-0.5889755,-0.39584523,-0.95842975,-1.1266474,-1.7787435},
   {-0.52107006,-0.40407723,-1.2749275,-0.98392195,
    -0.98086685},
   {0.21678355,-0.27569738,-0.9265622,-1.6654739,-1.4736398}},

  {{-0.6619935,0.1451009,1.1391795,-0.20787019,0.21627729},
   {0.2471034,0.5359029,0.62272644,-0.006303113,0.42110136},
   {0.1640608,-0.3481748,0.37187546,0.04941101,-0.23790804},
   {0.036313795,-0.35974127,-1.058432,-0.82566226,-0.8001029},
   {0.40643257,-0.5205999,0.25379583,-0.43393958,-0.8521874}},

  {{-0.4930104,-0.15144514,-0.55916315,-0.042566407,
    0.07989989},
   {-0.102916084,-0.0034567676,-0.45632473,-0.611521,
    -1.1360841},
   {-0.19692223,-0.3695042,0.3373432,-0.34622437,0.048289564},
   {0.13343674,-0.99005383,-0.48000914,-0.52692145,
    -0.0075865877},
   {0.39579734,-0.39064157,-0.4279664,-0.3875323,-0.43802145}},

  {{0.084765,0.5201015,0.58443487,0.37743202,-0.5955857},
   {0.060252752,0.48826334,0.08544215,0.96454245,-0.41944087},
   {-0.61150056,-0.035770174,-0.5118015,-0.6883389,
    -0.13298354},
   {-1.2562239,0.614256,-0.9566141,-0.12260129,0.33103198},
   {0.747282,0.65209866,-1.1292797,-0.12669359,-0.08855858}},

  {{0.57172704,0.54594105,0.03560351,-0.65928304,-0.43818304},
   {-0.29358962,0.6478541,0.39930135,0.31996733,-0.09256292},
   {-0.14045523,-0.018876338,0.332209,-0.4891136,-0.089842215},
   {0.40371162,-2.5091724,-1.0490562,-0.7926751,-0.9117549},
   {-0.34063354,-0.27026507,-0.86168844,-0.9250471,-0.5405435}},

  {{0.65764123,0.2758067,-0.20037152,-0.23770703,-0.1402327},
   {0.3253245,0.4821153,0.8493096,0.013924991,-0.9287581},
   {-0.8797633,-0.2613216,0.15766469,-0.4392088,-0.78275365},
   {0.6904453,0.4904212,-0.5169523,-0.38943547,-0.2757973},
   {-0.16833957,-0.40828764,-1.3582722,0.0544169,0.13020302}},

  {{0.31606323,0.330016,-0.1654746,0.0104828775,-1.2853491},
   {0.14445204,-1.5645207,-1.0885246,-1.0541663,-0.4967328},
   {-1.3440163,0.033617593,0.54680043,0.07478508,-0.6720836},
   {-0.73468536,0.4726692,0.5544251,0.44463482,-0.5541898},
   {-0.021066591,-0.23487827,-0.38652548,0.021756494,
    0.6204527}},

  {{-0.21477267,0.8778989,0.7732119,0.32932374,1.0757982},
   {-1.2153832,0.64547867,0.9035746,0.7734498,1.1092628},
   {-0.817372,-0.74121857,-0.9740713,0.083580896,0.07822509},
   {0.075960256,-1.8631291,-0.95771426,-1.1339226,-1.7228479},
   {0.042879168,0.11471961,0.078782134,-0.5535818,-0.21011776}},

  {{-0.2266643,0.051117454,0.17095822,0.58837503,-1.0622846},
   {-0.27170765,-0.18993093,-0.2010154,-0.44341877,
    -0.88620013},
   {-0.0061124815,0.009232767,-0.66468036,-0.7453497,
    -0.5539986},
   {0.1878188,-0.49040136,-1.1301627,-0.9248218,-0.65210605},
   {-0.44097385,0.14642456,-0.65510976,-0.6681802,-0.80527985}}},


 {{{-0.07585547,-0.060200013,-0.28133595,-0.19760552,
    -0.33607224},
   {0.89722234,0.06897856,-0.34146592,-0.3934465,0.70302534},
   {0.13344437,0.49400875,-0.13016023,-0.360984,-0.15024771},
   {-0.23890935,0.21385391,0.14600265,-0.3715711,-0.13007973},
   {-0.20046248,0.09877508,0.07646389,-0.33264914,0.1216145}},

  {{-0.45843503,-0.058169696,-1.1187656,-0.97630996,
    -0.3562761},
   {-0.57405925,-0.3300072,-0.77624977,-0.6528164,0.18671359},
   {0.08719597,-0.26027313,0.04099594,-0.18965761,-0.15768477},
   {-0.40689775,0.60303664,0.613686,-0.22193578,-0.57846516},
   {-0.4848423,0.29889333,0.07665828,0.19457528,-0.64761525}},

  {{-0.59369063,-2.3204463,-0.27412257,0.9637392,1.0772747},
   {0.89616466,0.26640546,-0.84523875,1.0814229,0.05582298},
   {0.7490567,0.7538148,-0.22214551,-0.11418892,0.3979775},
   {-0.7246641,-0.74132836,-1.4093401,-0.101489395,
    -0.76282215},
   {-1.3609343,-0.64904356,-1.2957999,-0.9192158,-0.4762577}},

  {{0.41952884,-0.61353403,-0.5992085,-0.9452827,-0.13500981},
   {-0.48494273,0.16431794,-1.040118,-0.63881046,-0.24731095},
   {-0.52518517,-0.16296339,-0.6749735,-0.09309161,0.23907854},
   {0.07883017,-1.3873334,-1.7170603,-0.3252321,-0.25605965},
   {0.5820833,-0.33118194,-0.82892567,-0.62348014,-0.37948883}},

  {{0.09554537,-0.44677487,-0.27229598,-0.24507643,-0.8611746},
   {0.1649828,-0.9540031,-0.74831223,-0.8081407,0.20133328},
   {0.124374315,0.32968912,-0.8778038,-0.5763269,-0.7196731},
   {-0.057804566,-0.40042904,-0.5162987,-0.15476015,
    0.32759538},
   {-0.27054265,-0.073674336,-0.1978859,0.113055184,
    -0.0022904733}},

  {{-1.2348081,-0.56523097,0.0329093,0.26914215,0.2441669},
   {-1.1379659,-0.76342,0.43319803,0.21002437,-0.10212125},
   {0.2959178,-0.5448232,-0.38892457,-0.26480782,0.1698437},
   {0.13707581,0.9188413,0.1914467,-0.40273687,-0.9047202},
   {0.123912774,0.47375855,-0.43692306,-1.4532107,-0.3746361}},

  {{-0.022790942,-0.43658337,-1.1661643,-1.4707892,-1.089988},
   {-0.0024346518,0.22868773,-0.20089294,-0.9203742,
    -1.0296416},
   {-0.6233568,0.047366407,0.20265599,0.024082731,-0.98648983},
   {-0.23539965,-0.002815836,0.58454806,0.97395855,
    -0.40226024},
   {-0.41374862,-0.5607095,0.36795402,0.34493265,0.03804883}},

  {{-1.282189,-1.9614152,-0.4477921,0.49158987,1.3077359},
   {-1.1460412,-0.89503235,-1.4661747,0.30330518,0.62802047},
   {0.21680467,0.27711204,-0.21432292,-0.53363717,
    0.0028915866},
   {0.6919833,0.43923146,-0.024253175,-0.598839,-0.17775412},
   {0.31334916,0.38261607,-0.39003608,-0.4871468,-0.5456097}},

  {{-0.72491443,-0.6223752,-0.13600053,0.4049282,-0.008504183},
   {-0.18127996,-0.09902571,0.017458742,-0.2609236,
    0.108614855},
   {-0.08877272,-0.2055596,-0.094006166,-0.25857735,
    0.31654906},
   {0.46272984,0.065691516,0.18643118,-0.19228198,-0.7675609},
   {-0.11442205,0.78718144,-0.012797163,-0.10927791,0.6012577}},

  {{-0.00885274,-0.5387125,-0.60393363,-0.6151993,-0.3404254},
   {0.2778981,-0.61717814,-1.1486814,-0.7412713,-0.61844635},
   {0.13635527,-0.11563486,-0.31180802,-0.072956145,
    -0.04724269},
   {0.27473962,0.5463012,0.52566314,0.17766675,-0.011238343},
   {-0.16991231,-0.13356856,-0.19455905,-0.5423749,
    -0.21554223}},

  {{-0.16297407,0.16984767,-1.1091154,-0.48720172,-0.40515324},
   {-0.22859222,-0.5439537,-1.0247058,-0.15498173,-0.64833605},
   {-0.16098398,-0.15439223,0.6988511,-0.20251586,-0.3637897},
   {0.01566815,0.15429369,0.13889281,-0.102377824,0.11824464},
   {0.5663165,-0.21533374,0.06091395,0.27166244,-0.17113559}},

  {{-0.055907894,-0.54928315,-0.76638615,-0.6786027,
    -0.3930311},
   {-0.05116629,-0.30117577,-0.7801323,-1.3905085,-0.37817398},
   {-0.6013236,-0.81891376,-0.8805728,-0.5405316,-0.18404931},
   {0.09961668,-0.36805093,-0.9616371,-0.91347563,-0.30801436},
   {0.1267073,0.33289802,-0.073997825,0.12113323,-0.23689611}},

  {{-0.2986201,-0.9006296,-0.676562,-1.5568368,-0.058985792},
   {0.14532422,-0.047674943,-0.33200595,-1.031913,-0.51359546},
   {0.15888469,0.37486726,-0.2269168,-0.37325168,0.27095142},
   {0.41789168,-0.580064,-0.57363683,-0.63902307,0.3748055},
   {0.66051626,0.39492428,-0.44864133,-0.38734806,0.51316357}},

  {{0.46937954,0.5715202,-0.49506173,-1.5742853,-0.5030821},
   {-0.23035501,0.61187375,0.6595383,0.06730387,-0.3478238},
   {-0.594319,0.26082537,0.13563916,-0.19129954,-0.31855696},
   {-0.81066203,-0.35801965,0.5803989,0.43586785,0.09898898},
   {-1.2502646,-0.3927793,-0.9013295,-0.36040205,0.17473565}},

  {{-0.0023209564,0.033549506,0.11405372,-0.5018946,
    -1.5827302},
   {-0.2813259,-0.8223543,-1.9305984,-2.0577195,-0.16659395},
   {-0.60994226,-0.47075072,0.13878691,-0.57479095,
    -0.26211157},
   {-1.0860299,0.14292003,-0.09852278,-0.6518024,-0.37239274},
   {-1.1569467,0.59733605,1.0649773,0.07510969,-0.12219795}},

  {{0.30735308,-0.46553195,-0.90193975,-0.57553047,0.14074342},
   {0.26181132,-0.009415384,-0.3354561,-0.60925704,
    0.101399995},
   {-0.011463119,0.28023934,-0.054713387,-0.22052172,
    0.48947904},
   {-0.081000626,0.52083576,0.31397063,-0.095873505,
    0.33666337},
   {-1.0357896,-0.17941852,-0.27360085,-0.5875616,-0.5486479}}},


 {{{0.33169562,-0.2703068,-0.56664973,-0.17830092,-0.20175704},
   {-0.085519545,-0.27985984,-0.0131225195,-0.22048816,
    -0.17272006},
   {-0.43344322,-0.3899894,-0.047896173,0.076605864,
    0.14717369},
   {-0.19958948,-0.4516544,0.20533589,-0.08514235,-0.06204682},
   {-0.28857273,-0.48994395,-0.36920848,0.19460717,0.14343427}},

  {{-0.46223938,-0.34262222,-0.21890153,0.4145791,
    -0.002192449},
   {-0.5331186,-0.9341206,0.16237246,0.3350257,0.27777568},
   {0.8208427,-0.5624197,-0.07717366,0.62032336,-0.093144104},
   {0.7053706,-0.19420694,0.6626283,0.65771294,0.08642005},
   {0.4187737,0.4333874,0.25373343,0.5330873,0.25227526}},

  {{0.6495143,-0.98530275,-0.8180835,0.11128216,-1.058648},
   {-0.8772736,-1.1641024,-0.7678417,-0.25790858,0.30352175},
   {-0.22033219,0.084347226,-1.4583892,-0.97614264,
    -0.79598594},
   {0.7015477,-1.0545982,-1.0243711,-0.63820934,-0.7177059},
   {-0.32049212,-0.48716295,-1.3255277,-1.0225055,-1.2998174}},

  {{0.39996856,0.87959,0.13690248,-2.0326588,-0.8176671},
   {-0.37428108,0.84099215,-1.2688887,-1.7531034,0.16967939},
   {0.2236612,-0.31222358,-0.94503796,-1.6553636,0.88060725},
   {0.3920988,-1.2653382,-0.07979772,-0.18519127,-1.4460799},
   {-1.5710272,-0.69975823,0.7022002,0.07584705,-0.8931966}},

  {{-0.10772323,0.5740968,-0.048662625,-0.8929213,0.9660429},
   {-0.013385053,0.41368088,-0.2727911,-1.2962658,0.87656224},
   {0.6364327,-0.77975905,-0.41513422,-0.5807771,-0.47918317},
   {-0.31833443,-0.96635437,-0.21668202,-0.3999976,-0.7718333},
   {-0.83027166,-0.33642012,0.015985433,0.5301546,0.19675195}},

  {{-0.100002035,0.031012036,-1.4044331,-0.97235954,-1.104256},
   {0.4876424,-0.34204882,-0.9682262,-1.5053915,-0.52890074},
   {-0.22828111,-0.40453064,-0.18093932,-1.8993883,0.4997957},
   {-0.90456784,0.40580302,0.99882597,-0.7680204,-0.47196436},
   {-0.24222466,1.072194,0.9444034,-0.16389498,-0.69676304}},

  {{-0.37395585,-0.082450405,-0.06635885,-0.36270303,
    0.24661538},
   {0.04134607,-0.492042,-0.5100945,-0.22626412,-0.29289922},
   {-0.96521294,-1.6870233,-1.0998113,-0.13733009,0.28133985},
   {-0.57396567,-0.33935943,-0.4495892,0.15176745,0.5388381},
   {0.35496652,-0.18257351,-0.5684394,0.4419486,0.6121407}},

  {{0.4020626,0.41905028,-0.61811996,-0.6255127,-1.8643848},
   {-0.5236404,-0.2393597,-0.53071475,-0.41349304,-1.6612184},
   {-0.20950931,-0.08171741,-0.040235683,-0.52787364,
    -1.2631619},
   {-0.020056449,0.12414114,0.0718172,-0.111604266,
    -0.24501403},
   {0.9831268,0.6326025,0.81768304,-0.46647897,-0.18374024}},

  {{-0.6102152,-0.6882828,-0.84529287,-0.535058,-0.7386669},
   {0.30933782,0.023142615,-0.41021416,-0.70242894,0.3388898},
   {-0.08066484,-0.18260989,-0.41598916,-0.30039054,
    -0.41363046},
   {-0.5199145,-0.12611037,0.6778016,0.13792586,-0.008008833},
   {0.019530758,0.49894705,0.62627584,0.42704195,0.0731617}},

  {{-0.49102923,-0.6248659,-0.50817615,-0.09702553,1.2550924},
   {-0.35447347,0.39042512,0.26504764,-0.47323224,-1.10355},
   {0.26134047,0.056793023,0.11681095,-0.24599929,-0.7607389},
   {0.12719247,-0.14196743,0.27797323,-0.06009694,-0.49991596},
   {-0.101533964,0.10527005,-0.44629696,0.723594,0.8891174}},

  {{0.05692951,-0.0964162,-0.53819776,-0.5156106,-0.26245695},
   {0.5113534,-0.1522702,-0.35663673,-0.2027739,-0.13614132},
   {0.503134,-0.9338711,0.07610421,-0.454392,-0.1587807},
   {0.018564556,0.25468,0.37638173,0.47628725,-0.43865368},
   {0.51612175,0.22871837,0.4297484,-0.21167809,-0.02508805}},

  {{-0.074270114,0.7841365,0.2888729,-1.167252,-0.727901},
   {-0.9132798,0.30008674,-0.28011724,-1.1792818,0.5443838},
   {0.46870726,0.04460743,-1.1736758,-0.51656854,0.06447812},
   {0.22647849,-0.40255868,0.3055186,-0.09517612,-0.84143525},
   {-0.62840545,-0.2692393,-0.14986402,0.018400576,
    -0.69321847}},

  {{0.29414845,0.029356975,0.27755383,-0.062906615,
    -0.113268204},
   {0.40114802,-0.3362037,-1.6579875,-2.0562289,-0.64014286},
   {0.074210696,-0.6324067,-1.1700596,-0.6430805,-1.4599924},
   {0.59924966,-0.6444873,-0.4162462,0.92378676,-0.95292366},
   {0.014618896,-0.69845974,0.2043096,-0.20017278,-0.17802633}},

  {{0.21858278,0.60241526,0.3484118,-0.2335075,0.5094378},
   {0.027461626,0.18557765,-1.0056348,-1.1049054,-1.6050526},
   {-0.543736,-1.2061034,-1.0664032,-0.60377043,0.32766217},
   {-1.5430954,-1.6814915,-1.0058326,-0.60946906,-0.841615},
   {-2.2564888,-1.0373901,-0.27082086,-1.6048793,-0.36761004}},

  {{-0.6757349,-1.9632798,-1.1714215,-1.2021773,-0.27351335},
   {-1.3924224,-2.4098759,-1.2655275,-0.6651078,0.061482042},
   {-0.85564065,-0.80420935,-2.514667,0.0031168456,-0.1886768},
   {1.0757756,0.51671225,-0.012652574,0.1369026,0.20266479},
   {0.12843245,0.8543005,0.15635435,0.7481907,0.9662576}},

  {{-0.28515407,0.8089093,-0.19511999,-0.7408777,-0.3750821},
   {-0.1825163,-0.0026069782,0.1180152,-0.57887626,
    -0.039397385},
   {-0.889816,-1.1874934,0.10456305,0.49101377,0.62626535},
   {-0.68432826,-0.1028503,0.4441392,0.37559122,0.10777212},
   {-0.7859889,-0.72190446,0.8047194,0.47225612,0.7415575}}},


 {{{-0.12415571,-0.24182832,-0.08867441,-0.25038335,
    -0.07821495},
   {-0.1871237,-0.257697,-0.20292188,0.004963254,-0.08446027},
   {-0.086469136,-0.059941307,-0.106225304,-0.102294676,
    -0.056656994},
   {-0.077767774,-0.19425236,-0.08539647,-0.0115927905,
    -0.05258078},
   {-0.24179038,-0.045659427,-0.1694418,0.040293694,
    -0.06199635}},

  {{-0.45471203,-0.53633785,-0.43318543,-0.43117955,
    -0.03646921},
   {-0.28032285,-0.518659,-0.25291017,-0.3269967,0.164775},
   {-0.120206945,-0.32416138,-0.6919082,-0.6013775,
    -0.054162256},
   {-0.25420523,-0.29423726,-0.16893767,-0.57704836,
    0.08784062},
   {-0.055181403,-0.14042436,-0.14326254,-0.61818475,
    -0.5626294}},

  {{-0.21390544,0.21195322,-0.72625774,-0.7418545,-0.5487691},
   {-0.26175997,-0.15307392,-0.5509696,-0.6984557,-0.5619422},
   {-0.2009851,0.056895707,-0.37555867,-0.27055088,-0.338243},
   {-0.39516482,-0.1503567,0.22162344,0.0355368,0.1878863},
   {-0.6241409,-0.23729818,0.26497284,0.23249744,-0.1736917}},

  {{-0.3261933,-0.33001208,-0.2315125,-0.21506332,-0.1693385},
   {-0.2982954,-0.13279074,-0.17263563,-0.27594975,
    -0.12187013},
   {0.33882982,0.032212,-0.0047710827,0.18837065,-0.060210075},
   {-0.36717284,-0.48372263,-0.3270153,-0.2830241,0.006111726},
   {-0.18552804,-0.11333107,0.12887385,-0.2626531,-0.4268626}},

  {{-0.04935641,-0.100388326,-0.092163235,-0.006906625,
    -0.35727164},
   {0.32884908,-0.07121807,-0.18577407,-0.17361508,0.02500658},
   {-0.26053503,-0.50739086,-0.60063046,-0.583252,-0.27973047},
   {0.085012235,0.02677429,0.057224404,-0.3672623,-0.36464348},
   {-0.3836782,-0.3821341,-0.07966534,0.05788342,-0.03801492}},

  {{-0.47599867,-0.5587908,-0.40853024,-0.14579658,
    0.048262704},
   {-0.5790122,-0.038424294,-0.1303715,0.065371595,
    -0.16592042},
   {-0.076100126,0.18296696,0.18536416,-0.07957668,0.08520071},
   {-0.39973274,-0.06625617,-0.330308,-0.5320227,-0.36476982},
   {0.025053546,-0.049608923,-0.2692988,-0.5875329,-0.6054282}},

  {{0.1612441,-0.34631965,-0.40680876,-0.31723168,
    0.0098576825},
   {-0.31970504,-0.46766114,-0.5237255,-0.66159946,-0.3766059},
   {0.10592379,-0.2473403,-0.34079066,-0.35785854,-0.1501593},
   {-0.16279438,-0.16441965,-0.036394175,-0.58859074,
    -0.4713393},
   {-0.22322603,-0.3087947,0.018318325,-0.5088065,-0.66625553}},

  {{-0.4438495,-0.18812895,-0.06831007,0.09440165,0.11804937},
   {-0.48969957,-0.2834499,-0.13242763,0.20686619,
    -0.110466324},
   {-0.4821288,-0.4956536,-0.6231685,-0.17742638,-0.32088062},
   {-0.11183504,-0.5070924,-0.3523955,-0.17625742,-0.4392126},
   {-0.08100683,-0.48806152,-0.15559229,-0.24990058,
    -0.5067078}},

  {{-0.19989489,-0.28936443,-0.24952315,-0.14463748,
    -0.19886763},
   {-0.4004463,-0.040907837,0.07081817,-0.29120338,
    -0.29751024},
   {-0.09352901,-0.20273958,0.02495216,0.097012796,
    -0.072002515},
   {-0.6647953,-0.37605163,-0.56918323,-0.034818348,
    0.30425924},
   {-0.07743593,0.02003008,-0.18419825,-0.4965098,-0.17484741}},

  {{-0.004561187,0.07916335,0.17063002,0.12747364,-0.19886574},
   {0.026752856,-0.054760113,-0.040698685,-0.015433017,
    -0.08731432},
   {-0.24109824,-0.19018044,-0.16223717,-0.18294859,
    -0.112126306},
   {0.36340678,-0.15075654,-0.11626789,-0.12861109,
    -0.23259448},
   {-0.13896863,-0.16984257,-0.3871041,-0.31321082,
    -0.38305813}},

  {{-0.37654918,-0.22292773,-0.19199798,-0.15099427,
    -0.22088888},
   {-0.2697224,-0.40795252,-0.41300985,-0.25627348,-0.4969701},
   {-0.563931,-0.4394779,-0.5105973,-0.52832115,-0.25693646},
   {-0.34135503,-0.27231222,-0.21502653,-0.18770775,
    -0.14007734},
   {-0.15483852,-0.13208449,-0.30289218,-0.3160415,
    -0.21695362}},

  {{-0.52040136,-0.31272635,-0.12182484,-0.11431481,
    -0.13910899},
   {0.15161693,0.24410433,0.020042526,-0.09785121,
    -0.018438866},
   {0.0036356729,0.044835247,0.055431675,0.10122234,
    -0.030090315},
   {-0.54853076,-0.47890648,-0.4020711,-0.13996708,
    -0.050917998},
   {-0.36963674,-0.29225728,-0.2522537,-0.47209385,
    -0.35578132}},

  {{-0.072162166,-0.41176334,0.028153032,-0.5172336,
    -0.69916123},
   {-0.6197253,-0.65998477,-0.4714685,-0.47194526,-0.33532104},
   {0.05787774,0.044639308,-0.31355506,-0.6841758,-0.7163807},
   {-0.23913346,-0.20323946,-0.38509247,-0.71392393,
    -0.41308388},
   {-0.42690122,-0.38572276,-0.5939057,-0.47538838,
    -0.19768254}},

  {{-0.3977662,-0.37943995,-0.5247751,-0.18976861,-0.52835554},
   {-0.42082494,-0.4415437,-0.7515323,-0.7197089,-0.7395103},
   {-0.3635774,-0.26098296,-0.2804674,-0.41284734,-0.41170457},
   {-0.19248444,-0.18211576,-0.36698174,-0.5017568,-0.5619249},
   {-0.64956576,-0.45992708,-0.50062287,-0.5815816,-0.6417507}},

  {{-0.04222074,-0.382856,-0.35058564,-0.34749648,-0.4128585},
   {-0.47007823,-0.703879,-0.54980665,-0.46374425,-0.40742376},
   {-0.3659724,-0.5575415,-0.5860856,-0.44967338,-0.2991228},
   {-0.47832382,-0.28471276,-0.48938018,-0.23689772,
    -0.35416064},
   {-0.19179127,-0.3845258,-0.24497026,-0.3086452,-0.27594036}},

  {{-0.05409341,-0.18450847,-0.17218319,-0.1048499,-0.2533565},
   {-0.8099315,-0.7257377,-0.49486953,-0.6869133,-0.38292953},
   {-0.38688967,-0.4811458,-0.48689312,-0.5391128,-0.13602683},
   {-0.22345403,-0.1060736,-0.26806563,-0.6476924,-0.18073538},
   {-0.30478746,-0.2878009,-0.23740503,-0.41640845,
    -0.35877243}}},


 {{{0.10980992,-0.5425702,-0.1980322,-0.11449282,-0.2504219},
   {0.00869984,-0.14540066,-0.11612213,0.08768341,-0.04991615},
   {-0.06049547,-0.28148568,0.15817896,0.215273,-0.2186593},
   {-0.070068896,-0.2296282,-0.061012752,0.32556853,
    -0.51832277},
   {-0.6683899,-0.10581879,0.5928685,0.65675896,0.26145196}},

  {{-0.115918376,-0.32429865,-0.3806035,0.15723777,0.49836484},
   {-0.22079924,0.02308196,0.04264974,0.34842402,0.050848685},
   {0.46436456,0.11698657,0.09486455,0.9952411,0.5772419},
   {0.77472144,0.19670263,-0.031355146,1.043556,-0.109107465},
   {-0.13814242,-0.03484712,-0.44524732,0.39063975,-0.5034518}},

  {{-0.84490526,-0.46256334,0.6719113,0.30190453,0.4475479},
   {-0.29935503,0.21806563,0.52061605,0.5033126,-1.3913946},
   {-0.54175025,0.6362244,0.16142091,-0.52728254,0.1881029},
   {-2.1236613,-0.27040052,-0.4062339,-1.9383805,-1.0848597},
   {-1.386475,-1.954082,-0.932394,-3.1659305,-2.2123504}},

  {{-0.6448414,-0.030324087,-0.042779066,0.517697,-0.278588},
   {0.020310583,-0.8618781,-0.064994946,-0.9228363,-1.6557689},
   {0.3767958,-0.642315,-1.3015077,-1.5288846,-0.22051547},
   {-1.0227281,-0.73695374,-1.3296974,-2.3418808,-0.52874714},
   {-0.5354181,-0.3127565,-0.3479169,0.05090302,0.08126538}},

  {{-0.92038476,-0.56859213,-0.75366306,-0.48879528,
    -0.53927386},
   {-0.49163952,0.20811123,-0.80916744,0.02421306,-0.2969168},
   {0.10671298,-0.36226842,0.028557777,-0.35503542,
    -0.16708149},
   {0.21213937,-0.891796,-0.6205254,0.19321519,-0.468332},
   {0.16086155,0.24635412,-0.6589776,0.16169988,0.66633785}},

  {{-0.27763397,0.28341854,-0.03537256,-0.6669648,-1.0867993},
   {-0.40373644,0.33867836,-0.9745883,0.435602,0.6044425},
   {-0.3915836,0.56412864,0.5623168,-0.34643683,-0.76775426},
   {-1.122059,0.1279158,0.6406517,-0.13533433,-1.6615372},
   {-0.031737324,0.22499043,0.7351236,0.61752677,0.35463333}},

  {{-0.49258813,-0.11624758,0.28541234,0.17121801,0.14190562},
   {-0.6404335,-0.8249883,-0.09582064,0.02834251,-0.15249556},
   {-0.45347804,-0.053123582,-0.4284776,0.5029593,-0.20847425},
   {-0.013014169,0.060789276,-0.30720496,0.40803838,
    0.49201185},
   {-0.031508926,0.10235807,0.14028737,0.7229595,-0.044577032}},

  {{-0.098433964,0.40322593,0.21825452,-0.45666382,
    -0.28767794},
   {0.2534286,-0.07820341,0.20106679,0.21650675,-0.07333921},
   {0.28526625,0.21452253,0.09104469,0.052844934,-0.26506448},
   {-0.39609474,0.45960706,0.24576394,0.27392069,-0.2538974},
   {-0.92307574,-0.5869913,-0.28016615,0.6498455,-0.50319606}},

  {{-0.19426413,0.32383162,0.3824444,-0.53939426,-0.65504926},
   {-0.42092213,0.5945659,-0.025286075,-0.34720832,0.522735},
   {-0.26476374,1.0288609,-0.2599132,-0.22417337,-0.041275453},
   {-0.8980019,-0.06067448,0.579668,-0.35734367,0.3854629},
   {-0.5629524,-0.25061965,0.38229734,0.038071755,-0.2560328}},

  {{-0.675484,-0.30455366,-0.36914486,-0.14283133,0.011656517},
   {0.4225586,0.17442727,0.39929342,-0.07708581,0.22103527},
   {0.056322113,0.06606651,0.48920205,-0.02748659,0.43591124},
   {0.46431056,0.32045817,0.013295293,-0.15735242,0.15086712},
   {-0.21124986,-0.13019319,-0.45855078,-0.5501717,0.02618206}},

  {{-0.43707305,-0.14032035,-0.34405425,-0.5065374,
    -0.45824233},
   {-0.11162099,-0.036773816,-0.40200135,-0.51746505,
    -0.32030192},
   {0.045227814,-0.2647608,-0.16006975,0.18929249,0.09183261},
   {0.33826348,0.117208146,-0.002331307,0.57009244,
    -0.15000787},
   {0.38704446,0.014063041,0.65868837,-0.32510966,
    -0.106937416}},

  {{-0.89554393,-0.95438933,-0.60534686,-0.8068398,-1.1391531},
   {0.5642444,-0.36104864,-0.49511978,-0.49259534,-1.2526944},
   {0.39997163,0.23054181,-0.8076349,-0.3333625,-0.17135042},
   {0.5704038,0.7443188,-0.31194887,-0.8990936,-0.042846784},
   {-0.8408377,-1.7492566,-0.08103021,-0.29369116,0.20463325}},

  {{-0.9143665,-0.287593,-0.23093003,-0.47217152,0.65454674},
   {0.3883762,0.3005474,-0.028448444,0.15464151,-0.034271464},
   {-0.689265,-1.7889348,-0.24514273,0.22443165,-0.08477789},
   {0.16560438,-0.6406796,-0.9778679,-1.0147929,0.24477416},
   {-0.063432254,-0.26033768,-0.44347066,-0.3976398,
    -0.5944107}},

  {{-0.4380775,-0.8262652,-0.7340276,0.43866268,1.0410752},
   {0.07026496,-0.5211875,0.080977246,-0.53029794,0.35694537},
   {-0.6989735,-0.7542008,-0.5659962,-1.6683865,-0.7863469},
   {-0.51970357,0.030019183,-2.1231723,-1.4317485,-0.28552154},
   {0.9906984,0.6100457,-0.64404476,-0.33804694,0.32742158}},

  {{-0.7757273,-0.030733023,-1.0002854,-0.148691,0.6965783},
   {0.15893652,-0.10631162,-0.80653846,-0.36545506,0.17926663},
   {0.28009468,-0.019452149,-0.6635554,0.49949238,-0.38737357},
   {-0.13156009,-0.32396996,-0.43282217,0.825815,0.07627248},
   {-0.53843397,-0.81665766,-2.039238,-1.5276401,-0.6051204}},

  {{-0.6114561,0.04051139,-0.54634833,-0.50685537,0.13012403},
   {-0.14357598,0.09395588,-0.10868089,-0.44381958,0.32627884},
   {0.1702402,0.091168016,0.16749181,0.4089252,-0.3700248},
   {-0.18586555,-0.44294664,-0.030778341,1.0069715,
    -0.15108842},
   {-0.5973173,-0.42545998,0.63083565,0.56680673,0.06902603}}},


 {{{0.1142199,0.09463981,-0.08581936,-0.10386908,-0.099141054},
   {-0.063905686,-0.07507724,-0.1028897,-0.055319134,
    -0.12039421},
   {0.00007259559,-0.0059803776,-0.074471995,-0.053829707,
    -0.04592033},
   {0.12923612,0.0016179156,-0.059923198,0.0024362053,
    -0.05647114},
   {0.42897496,0.30188945,-0.19639161,0.1605221,-0.09899455}},

  {{0.33046645,-0.15005302,-0.0057450053,-0.30133036,
    -0.20653246},
   {0.24752846,-0.2311966,-0.044251796,-0.1853506,-0.12170918},
   {-0.19139312,-0.18167247,-0.074826665,-0.048609316,
    -0.071605824},
   {-0.17746314,0.12361527,-0.0022213028,0.31335318,
    0.20954505},
   {-0.4648671,-0.28510037,-0.22941305,0.28544757,
    0.0014869117}},

  {{-1.2653054,-0.5671388,-0.52004534,0.24671759,0.50867003},
   {-0.26898232,-0.6164276,0.6478878,0.13601601,-0.74311155},
   {-0.33390832,-0.40406588,0.030298466,-0.3471505,-0.7942078},
   {1.056369,-0.16287822,-0.49471226,0.20419145,-1.0205812},
   {-0.01320237,0.43360263,-0.9453439,-0.95894647,-0.65660846}},

  {{-0.07312149,0.40943995,0.34077242,0.4933477,0.15779462},
   {0.24838476,0.09266532,-0.18915392,-0.93639404,-1.0520853},
   {0.6445993,0.2896907,1.0455487,-0.3171353,0.0097224135},
   {-0.08732665,-0.6703831,-1.0387737,-0.51293564,-1.268716},
   {-0.6106518,0.1560838,-0.00068287307,-0.5790086,
    -0.055998605}},

  {{-0.5453961,-0.10426711,-0.39706007,-1.024808,-0.70131695},
   {-0.2562494,0.2042742,0.43727726,-0.19320227,-0.19032915},
   {-1.0914036,-0.590715,0.18165052,-0.26354992,-0.31410098},
   {-0.29866982,-0.35409787,-0.6092226,-1.5203054,-0.9736556},
   {-0.18608165,0.4070994,0.6175269,0.7339538,0.8919324}},

  {{0.010941531,0.40890533,-0.29230174,-1.4017985,-2.1533298},
   {0.011433281,-0.1479795,-0.5697676,0.43661904,-0.26419517},
   {-1.7133802,-0.8954416,-0.6712878,0.0643986,0.24340272},
   {-1.354042,-1.8353847,-1.2249764,-0.52661884,-0.2896396},
   {0.32429534,-0.5278135,-1.4951855,-1.1014583,-0.1721646}},

  {{-0.24472396,0.39081758,0.6869396,0.07447134,-1.216188},
   {-0.49322218,0.2089023,-0.08811494,0.17920552,-0.19141911},
   {-0.115321055,-0.4960766,-0.087679625,-0.108612455,
    -0.05783556},
   {-0.3296504,-0.28847536,0.096278,0.63878685,0.59138197},
   {-0.67469335,-0.29218748,0.29863313,-0.07111546,0.77552575}},

  {{-0.6044479,-0.9266315,0.29303834,-0.19784199,-0.33187675},
   {-0.290144,-0.8138929,0.30114225,-0.56076515,-0.31059134},
   {0.14410774,-0.35278904,-0.07753588,-0.1523991,-0.46709538},
   {0.498411,-0.5720734,-0.59676194,-0.17401175,-0.123581246},
   {0.54412705,-0.85369664,-0.6298227,-0.5798567,-0.40392545}},

  {{0.21509363,-0.14582019,-0.33726645,-0.5118614,-0.27947158},
   {0.56122917,0.026151452,-0.26916876,-0.1413307,-0.2963288},
   {-0.32818517,-0.059996955,-0.26609364,-0.1110532,
    -0.11502209},
   {-0.34669396,0.017414182,-0.016105063,-0.2078779,
    0.019177092},
   {1.0983182,-0.7418828,-0.23327641,0.03800885,-0.15641887}},

  {{0.11596291,-0.5780651,-0.17078994,-0.37861323,-0.10719972},
   {0.11690671,0.037577026,0.0493832,-0.024398644,0.025928738},
   {-0.35481748,-0.13060763,-0.20151103,-0.2051374,-0.1698745},
   {-0.12254868,-0.08744019,-0.220117,-0.4196279,-0.5000684},
   {-0.37641847,-0.15452053,0.031984437,-0.1760086,0.3767233}},

  {{0.14307861,-0.27936643,-0.5388826,-0.33857378,0.17060252},
   {0.31112623,-0.6059301,-0.14026193,0.113514826,0.023620453},
   {0.007561366,-0.2777183,-0.058507938,0.31177917,0.32647988},
   {-0.20487167,-0.14273967,0.21886095,0.004091867,0.07374287},
   {-0.081970945,-0.20694108,-0.37593332,0.034305472,
    -0.04423971}},

  {{-0.264012,-0.506491,-0.20557572,-0.36185238,-0.5522674},
   {0.6196886,-0.027522584,-0.4317098,-0.52321726,-0.6483882},
   {0.15056577,-0.13845286,-0.34197852,-0.57410336,0.5275679},
   {-0.5253966,-0.33962658,-0.9758032,-0.6285954,-0.33740833},
   {-0.20431164,-0.51321083,-0.3703109,-0.025842948,
    0.012776863}},

  {{-0.42214802,-0.12833883,-0.8580785,-0.71913254,
    -0.07294658},
   {0.34432328,-0.2690677,0.17013113,0.5279572,-0.53268385},
   {0.82289624,0.50669664,0.13488305,-0.1881661,-0.64332753},
   {-0.13934855,0.46965417,-0.5119291,-0.94972456,-0.5391478},
   {-0.36338156,-0.2305463,-0.5131438,-0.6534057,-0.37390164}},

  {{-0.32797095,0.036790743,-0.9080165,-0.7542686,-0.6558371},
   {-0.4737862,-0.45334274,-0.3225236,-0.19620632,0.017251844},
   {0.48588258,0.8596795,0.25935555,0.5410652,0.17647406},
   {0.05001392,0.054506116,-0.007966359,-0.46768755,
    -0.20852998},
   {-0.89385974,-0.5427187,-0.86472386,-0.8785754,0.533596}},

  {{1.0225413,0.5630474,0.46699917,0.58782375,-0.78406006},
   {-0.21462265,0.35326657,-0.3940565,-0.97046334,-0.27535895},
   {-0.25071383,-0.3738346,-0.8205033,-0.76907265,0.92249346},
   {-1.4095259,-0.7952584,-1.4162632,-0.13578914,0.003429159},
   {-0.51270753,-1.1159562,-0.37632287,-0.21175182,0.04608938}},

  {{-0.03639795,-0.18202852,0.11487379,-0.23256683,
    -0.23904692},
   {-0.077157,-0.36590075,-0.14291738,0.02858765,0.1838198},
   {-0.0019165075,0.14053588,-0.12817127,0.19379316,
    -0.08931848},
   {-0.5940623,-0.37523142,-0.30992505,0.0417338,0.03233157},
   {-0.6235946,-0.62589264,-0.41924155,0.34150907,
    -0.081351906}}},


 {{{-0.45650268,-0.7193145,-0.022896118,-0.115704045,
    -0.49179217},
   {0.113650195,0.054572273,0.22450115,-0.043209378,0.6769113},
   {-0.11924951,0.22347425,0.21744247,-0.21553019,
    -0.116567254},
   {-0.2926541,-0.27951074,0.24168882,-0.21766597,-0.1701856},
   {0.038598653,-0.302275,-0.5166511,-0.14456017,-0.4272274}},

  {{0.24751246,0.31894493,-0.6410883,-0.4703209,-0.99318963},
   {-0.4920554,0.25684434,0.065421075,-0.8090318,-1.2032554},
   {0.15782611,0.7319675,0.13127552,-0.20020792,-1.0680014},
   {-0.16706096,0.63666505,0.36646998,0.13405086,-0.62583786},
   {-0.70345414,0.26675555,0.16008136,-0.11603132,-0.28642938}},

  {{-0.56635714,0.2918293,0.15902159,-1.1456448,1.1990237},
   {-0.5038861,0.54594,1.0840635,-0.4167069,1.9651251},
   {0.60699445,0.06507594,-1.1603173,-1.0799618,-0.47473323},
   {1.1024525,0.5547236,-1.0608267,-0.31236568,0.1492747},
   {0.65121764,-0.8984137,-1.5611658,-0.36329937,1.2383946}},

  {{0.09910498,-0.4267144,0.30150673,-0.13348106,0.35922},
   {-0.5475471,0.38189048,-0.23823115,-1.1093419,1.0716842},
   {0.25435853,-0.12965134,-1.5337259,-1.2508385,-0.48236015},
   {-0.37557802,-1.230333,-1.1338063,-0.7174598,-1.2218213},
   {-0.8699538,-0.83818334,-1.2031331,-0.77617896,-1.3456724}},

  {{-0.28646323,0.4530088,0.10163819,-0.6418297,-1.0649047},
   {0.11067762,0.124624245,0.79149485,-0.5801607,-0.83746713},
   {0.2421371,-1.6504788,-0.93534076,-1.217632,-1.2426987},
   {-1.1211194,-0.6784817,0.077063896,-0.3497693,-1.4467696},
   {0.3012301,0.35038432,0.13179131,-0.4677094,-1.5898294}},

  {{-1.6314617,-0.80233324,-0.9030891,0.37016177,0.32353747},
   {-0.68787146,-0.14424454,0.62842715,0.32598498,-0.18129785},
   {-0.28903994,0.026280973,-0.40818003,-0.85022897,
    -0.7369294},
   {-1.8794225,-1.4424194,-0.6385596,0.41485536,-0.90051585},
   {-0.45990404,-1.219608,-0.9457001,-0.9279792,-0.7363574}},

  {{0.46334624,-0.13626076,-0.14646854,-1.3639452,-1.4563565},
   {-0.5105427,0.41755605,0.33781546,0.26284146,-1.7847514},
   {-0.5116037,0.22262499,0.47423548,0.29425487,0.03370396},
   {0.084764995,-1.0068593,0.25185582,-0.30468437,-0.16668081},
   {0.25526494,-1.9832902,-0.066934936,-0.17051592,-0.3107002}},

  {{-1.2416693,-0.83941984,-0.2098059,-0.8131087,0.80709004},
   {-0.8747577,-0.20028801,0.10233938,-1.0999666,0.32233074},
   {0.004563546,0.47307053,0.3588726,-0.38182226,0.13869761},
   {0.69191855,0.28009164,-0.2526982,-0.71356624,0.47072932},
   {0.24330209,-0.22929358,-1.1874961,-0.79166454,0.1319845}},

  {{-0.37703755,-0.44169104,-0.40283322,0.15551674,
    -0.11572434},
   {-0.0746036,-0.04297411,-0.51540524,-0.68780494,-0.8727119},
   {0.15586507,0.417535,-0.4424931,-0.35607758,-1.0401303},
   {-0.72278196,0.03582972,-0.24297671,0.0684598,-1.2231011},
   {-0.66763324,-0.35906684,-0.37459508,-0.79282874,
    -0.8445655}},

  {{0.49406058,-0.1330573,-0.44169632,-0.84336644,0.68217057},
   {0.3510294,0.14243081,0.56063884,-0.3441607,-0.63096625},
   {-0.44984266,-0.025607001,-0.14770192,-0.21409437,
    0.05514267},
   {0.26683053,-0.2614847,0.34400553,0.24575143,0.46970072},
   {0.28169706,0.7282633,0.5920366,0.110889964,0.13158807}},

  {{0.006047077,-0.16571037,-0.3259251,-0.07461651,-0.7140527},
   {-0.43399882,-1.3054743,-0.66986835,-0.9693587,-1.2097529},
   {-0.019259369,-0.29357383,0.15828648,-0.16814744,
    -0.6110188},
   {0.15388982,0.45655802,-0.056960803,0.12635387,0.023561845},
   {0.22308363,0.75375384,-0.10181208,-0.6653393,0.21544246}},

  {{-0.8416826,0.019269144,0.20385762,-0.35485205,-0.9172009},
   {0.16191824,-0.6454475,-0.7038517,-0.4932813,-1.1906326},
   {-0.31827217,-0.83414173,-0.8792486,-0.6371068,-0.9107874},
   {0.66758746,0.21265523,-0.06841404,-0.27097267,-2.1224494},
   {0.4500418,0.7310651,0.32603106,0.4490558,-0.64890677}},

  {{0.9897838,0.17655107,-0.083308145,-1.2238652,-1.5142628},
   {0.11067982,0.03382056,-0.16450037,-1.2686671,-0.21881533},
   {0.39545637,-0.16971429,-0.87920535,-1.5378289,1.0226116},
   {0.6001672,-0.09565809,-0.1763189,0.004873461,0.3991833},
   {0.6745334,0.37223136,-0.9780725,0.41906306,-0.03762755}},

  {{-0.18240164,0.17246158,0.622121,0.01490691,-0.7714793},
   {-0.2829098,0.41366467,0.3455839,0.121565595,-0.17213476},
   {-1.046814,0.07885611,0.059529476,0.07085131,-0.51769894},
   {-0.016046805,-0.6940094,-1.0781192,0.027520599,
    -0.15719253},
   {-1.2183126,-1.5752451,-0.032875046,0.76344365,0.19751061}},

  {{-0.98918194,-0.78369147,-0.6810077,-0.40692416,-1.8176031},
   {-1.0349648,-1.0099878,-0.7564551,-0.949876,-1.5612265},
   {0.028317813,0.12581538,0.30571324,0.5361311,-0.6067441},
   {0.5548161,0.9162769,1.1159556,0.89133096,-0.21920478},
   {0.08788206,0.1456161,0.107194856,-0.18626969,0.036289353}},

  {{-0.40030798,-0.910116,-0.616941,-0.72540385,-1.5552869},
   {0.42478734,-0.31492454,-0.065050595,-0.37297264,
    -0.09620152},
   {0.0965428,-0.23970115,-0.0008956384,0.010662891,
    -0.9721628},
   {-0.9773262,-0.48055005,-0.14172152,-0.5535722,
    -0.068719216},
   {-0.8294956,-0.2481575,-0.009466453,-0.9328284,-0.8705639}}},


 {{{0.084733106,-0.0721737,-0.08643572,-0.033054397,
    -0.06764452},
   {-0.034615364,-0.016572094,-0.03728294,-0.07677738,
    -0.033665992},
   {-0.06205587,-0.056624204,-0.0454618,-0.036079656,
    -0.034539018},
   {-0.027184837,-0.09154159,-0.023363302,-0.08420526,
    -0.077461384},
   {-0.028732812,-0.093348995,-0.061690446,-0.04675179,
    -0.02289415}},

  {{0.017922021,0.045062814,-0.014096029,-0.028632129,
    0.040602993},
   {0.05527989,0.01841308,-0.06630397,-0.064504445,
    -0.07408934},
   {0.021467803,-0.12775183,-0.056643177,-0.08999226,
    -0.063835114},
   {0.016041791,-0.065921634,-0.04049913,-0.044116504,
    -0.16326493},
   {-0.047148712,-0.019118777,-0.029133001,-0.05840708,
    -0.17194912}},

  {{0.07610561,-0.24022467,-0.2716611,-0.22849599,-0.11471504},
   {-0.026989399,-0.2678848,-0.6233687,-0.22915395,
    -0.060739294},
   {-0.16831218,-0.20465171,-0.232188,-0.21864182,
    -0.018590026},
   {-0.18973424,-0.003312064,-0.30132255,-0.048720933,
    0.031213278},
   {-0.19617203,-0.43503922,-0.22022183,-0.02879668,
    -0.09305939}},

  {{-0.024117358,-0.06919052,-0.0707439,-0.20549648,
    -0.03923331},
   {-0.0847999,-0.08075801,-0.0703565,-0.042284008,
    -0.102780536},
   {-0.06405759,-0.06909219,-0.10729901,-0.045820538,
    -0.026975876},
   {-0.108460926,-0.051499885,-0.056427605,-0.10153613,
    -0.08650782},
   {-0.088023044,-0.09102904,-0.09012882,-0.038150907,
    -0.039502762}},

  {{-0.058092497,0.036213968,0.028612407,-0.103528835,
    -0.053212717},
   {0.010942397,0.024404105,0.041004237,-0.060293823,
    -0.096275285},
   {-0.038933564,0.053001437,-0.02366759,-0.104471244,
    -0.042250443},
   {0.03995647,-0.094483495,-0.015561071,-0.028122213,
    -0.030492509},
   {-0.038104814,-0.085112534,-0.020300739,-0.066748075,
    0.014734277}},

  {{-0.07764983,-0.09981105,-0.09380438,-0.16709301,
    -0.06944133},
   {-0.018908516,-0.10233552,-0.1048956,0.05391411,-0.0444863},
   {-0.050732207,-0.032773986,-0.09569417,0.07976251,
    0.021483965},
   {-0.05737027,-0.04844646,-0.038846355,-0.037191585,
    -0.0974375},
   {-0.047474127,-0.018464316,-0.35750383,-0.0778401,
    0.04709385}},

  {{-0.008850748,-0.006106477,-0.07793332,-0.06837259,
    -0.07118716},
   {0.014109509,-0.045434974,-0.1126806,-0.074086346,
    -0.10644342},
   {-0.102695405,-0.110324144,-0.06824349,-0.083723366,
    -0.07517854},
   {-0.10226463,-0.04398922,-0.048122413,-0.049110282,
    -0.08413844},
   {-0.09662626,-0.02553107,-0.016768832,-0.0574327,
    -0.12387187}},

  {{-0.050142176,-0.051017486,-0.028240044,-0.10771405,
    -0.22747667},
   {-0.03133982,-0.048464675,-0.019299565,-0.03541323,
    -0.036959764},
   {-0.050940137,-0.036135286,-0.10878974,-0.18702066,
    -0.020375062},
   {-0.07307147,-0.05700087,-0.0728985,-0.29160827,
    -0.03814354},
   {-0.070827805,-0.01138769,-0.10260872,-0.21893781,
    -0.09908446}},

  {{0.05800431,-0.03193264,-0.060169682,0.06779293,
    -0.013435965},
   {-0.012251569,-0.02537897,-0.022395808,0.013240343,
    -0.087534904},
   {-0.05963862,-0.07317506,-0.023590036,-0.09517236,
    -0.07014514},
   {-0.06588425,-0.06847571,-0.104856856,-0.06534535,
    -0.07749937},
   {-0.03005924,-0.08375091,-0.081253015,-0.08799966,
    0.038417973}},

  {{-0.05635108,-0.026726933,-0.027235204,-0.04636568,
    -0.08461205},
   {-0.018808216,-0.05592437,-0.082032815,-0.06361361,
    -0.06317536},
   {-0.037434652,-0.035607703,-0.026852781,-0.04132232,
    -0.040425256},
   {-0.018645879,-0.10768553,-0.06005325,-0.02849752,
    -0.0974005},
   {-0.027199253,-0.05804473,-0.012110891,-0.07370217,
    -0.09142984}},

  {{0.08260711,-0.08731234,-0.014420732,-0.07970332,
    0.07158632},
   {-0.059244078,-0.082490206,-0.07806566,-0.075314805,
    -0.14984876},
   {-0.09195101,-0.01156359,-0.05482317,-0.077573895,
    -0.3433043},
   {-0.019597,-0.09576088,-0.04905746,0.09774647,-0.41830647},
   {-0.10509168,-0.025375934,-0.046358604,-0.24809934,
    -0.3172223}},

  {{-0.0439778,0.06277795,-0.047675937,-0.045789845,
    -0.10543015},
   {-0.09562035,-0.20180134,-0.11360327,-0.10272272,
    -0.057433832},
   {-0.03281854,-0.14031792,-0.086256154,-0.06458925,
    -0.047506887},
   {-0.12699132,-0.044780206,-0.022736803,-0.054329976,
    -0.071000755},
   {-0.026942438,-0.08836923,-0.088659205,-0.035597026,
    -0.07828092}},

  {{-0.03361301,-0.0986355,-0.024007918,-0.053567287,
    -0.017265791},
   {-0.066633,-0.068992905,-0.09095016,-0.19521712,
    -0.023947168},
   {-0.07298157,-0.07554541,-0.02138076,-0.06739321,
    -0.09074921},
   {-0.060754552,-0.060427863,0.021881767,0.061278503,
    -0.08764684},
   {-0.091307975,-0.09415082,-0.298583,-0.095761105,
    -0.059664506}},

  {{-0.011849503,-0.07933284,-0.031226631,-0.09425531,
    -0.07786667},
   {-0.036028683,-0.09448871,-0.06321452,-0.02060185,
    -0.09202508},
   {-0.054439675,-0.056730144,-0.06979311,-0.067182265,
    -0.04007534},
   {-0.019600062,-0.028187133,-0.083931625,-0.05468417,
    -0.022260843},
   {-0.011478822,-0.09546389,-0.051893845,-0.10433647,
    -0.07040251}},

  {{-0.045914847,-0.14358892,-0.10766437,-0.14897892,
    -0.037653472},
   {-0.07644118,-0.076368734,-0.04237725,-0.1266294,
    -0.030283017},
   {-0.09745265,-0.19162422,-0.04427241,-0.11660816,
    -0.025661457},
   {-0.23712021,-0.1489175,-0.1499282,-0.06640848,-0.01443},
   {-0.09003921,-0.07179933,-0.13392358,-0.030335486,
    -0.3573708}},

  {{0.021290282,0.09025269,-0.07862342,-0.06528247,
    -0.11016927},
   {0.037822235,-0.053605042,-0.01800377,-0.024699347,
    -0.06001923},
   {-0.10960193,-0.048959613,-0.027467927,-0.0942857,
    -0.35660645},
   {-0.0482425,-0.03047033,-0.089607656,-0.046669263,
    -0.34846282},
   {-0.027220106,-0.04904497,-0.080038965,-0.20424052,
    -0.360083}}},


 {{{-0.083603196,-0.026975095,-0.13357489,-0.092022516,
    -0.17710221},
   {-0.14865273,-0.049558017,-0.11125144,-0.2393917,
    -0.055623256},
   {-0.07834159,-0.16677594,-0.24588744,-0.16904005,
    0.19665512},
   {-0.1782034,-0.19727887,-0.27559003,-0.32160082,
    -0.059588704},
   {-0.1291494,-0.17808558,-0.080156304,-0.21656412,
    -0.13297145}},

  {{-0.32155007,-0.16055587,-0.009735126,-0.31488636,
    -0.096199974},
   {-0.10306172,-0.16055657,-0.020863283,-0.18407981,
    -0.08606981},
   {0.005262978,-0.07012183,-0.07951459,-0.285726,-0.09856031},
   {-0.1187363,-0.16731073,-0.23646106,-0.26365823,
    -0.13898566},
   {-0.08592622,-0.3011074,-0.19781497,-0.058586072,
    -0.10568953}},

  {{0.03161628,0.020338098,-0.18872051,-0.40595412,
    -0.31053698},
   {-0.24054918,-0.0701471,-0.1411365,-0.19877626,-0.48835486},
   {-0.30746442,-0.18789348,-0.003961736,-0.16023038,
    -0.11423617},
   {-0.37948978,0.047935057,-0.25141725,-0.098114446,
    -0.0633243},
   {-0.42031252,0.065851055,-0.091595426,-0.19678114,
    -0.31283358}},

  {{-0.14270173,-0.17740324,-0.18218924,-0.15124728,
    -0.049812317},
   {-0.12514219,-0.22782518,-0.16408004,-0.14444612,
    -0.086279765},
   {-0.23942192,-0.34499997,-0.22842638,-0.062949404,
    -0.10980408},
   {-0.13461332,-0.12388874,-0.21123587,-0.21423294,
    -0.33273107},
   {-0.18744919,-0.26381403,-0.38582388,-0.34480196,
    -0.16493806}},

  {{-0.24168278,-0.38926467,-0.28874874,-0.19640923,
    -0.026574241},
   {-0.36410177,-0.29683527,-0.3091655,-0.16672157,0.08574366},
   {-0.22000438,-0.13831554,-0.047449086,-0.012213957,
    -0.14199191},
   {0.046178035,-0.16782966,-0.14556164,-0.16935645,
    0.060439814},
   {-0.21136104,-0.24671078,-0.24078579,-0.17856938,
    -0.2680908}},

  {{-0.18389346,-0.11598486,-0.06585958,-0.104158334,
    0.059709825},
   {-0.13382953,-0.12096431,-0.19197185,0.003716347,
    -0.086906716},
   {0.068216346,0.1899655,-0.3379202,-0.04532516,0.04067302},
   {-0.23343803,0.020914678,-0.039130993,-0.16606312,
    -0.10822874},
   {-0.27599934,-0.12049368,-0.20157208,-0.20769665,
    0.05423044}},

  {{-0.06563575,-0.12814689,-0.1452516,-0.12944579,
    -0.18609975},
   {-0.056793198,-0.14858936,-0.040691033,-0.24947482,
    -0.18984762},
   {-0.06422481,-0.10783882,-0.0588034,-0.30502272,0.06976831},
   {-0.04629288,-0.06776875,-0.11180908,-0.3046813,
    -0.052499566},
   {-0.025840487,-0.077868626,-0.0985403,-0.0163841,
    0.07790815}},

  {{-0.11600359,-0.03757254,-0.15700927,-0.24432018,
    -0.5223487},
   {-0.27717748,-0.007280554,-0.07839076,-0.23593348,
    -0.4453968},
   {-0.30928183,-0.115606904,-0.2009399,-0.28242695,
    -0.27564812},
   {-0.37085342,-0.2119702,-0.22408853,-0.42085013,
    -0.14336431},
   {-0.38908052,-0.21269938,-0.14328487,-0.40362552,
    -0.07758844}},

  {{-0.14825378,-0.13325852,-0.15863337,-0.13875012,
    -0.02509945},
   {-0.14650528,-0.059981897,-0.09204705,-0.075612575,
    -0.11309588},
   {-0.21453525,-0.10558509,-0.054362897,0.026141815,
    -0.14469045},
   {-0.1616107,-0.010404693,-0.04992128,-0.05399002,
    -0.09903991},
   {-0.2219518,-0.018535806,-0.17785093,-0.30593893,
    0.15070987}},

  {{-0.10046327,-0.07549543,-0.11685074,-0.08504561,
    -0.076751806},
   {-0.04939794,-0.08140201,-0.13163194,-0.34549153,
    -0.1819004},
   {-0.058322877,-0.056980055,-0.19249062,0.0697297,
    0.08400223},
   {-0.044590294,-0.16190505,-0.26791134,-0.36368856,
    0.1027268},
   {-0.08090853,-0.0672933,-0.115667805,-0.24913433,
    -0.13382608}},

  {{-0.1606592,-0.13944024,-0.020349182,-0.071038045,
    -0.20142533},
   {-0.3323402,0.062191803,-0.05786681,-0.15927097,
    -0.13975053},
   {-0.2795805,-0.08186568,-0.092691794,-0.1777756,
    -0.14306347},
   {-0.17768192,-0.1921815,-0.10297798,-0.12203438,
    -0.09994192},
   {-0.28220323,-0.45239273,-0.25560555,-0.14535241,
    -0.022988116}},

  {{-0.1554902,-0.24802424,-0.2061112,-0.14452927,-0.14164664},
   {-0.08718946,-0.11329899,-0.12634838,-0.07832057,
    -0.1763928},
   {-0.19200875,-0.2013329,-0.26381558,-0.36669073,
    -0.28382418},
   {-0.13667351,-0.12297241,-0.15168382,-0.1619482,
    -0.30437732},
   {-0.10560124,-0.28181168,-0.2425998,-0.3484168,
    -0.098879516}},

  {{-0.21378437,-0.062068187,-0.15257259,-0.37582573,
    -0.26272613},
   {-0.16006744,-0.0551991,-0.10755032,-0.10202471,
    -0.010704963},
   {-0.1964606,-0.25364286,-0.19233026,-0.17570327,-0.2264127},
   {-0.4596417,-0.5652762,-0.42986074,-0.3828667,0.20481947},
   {-0.3593793,-0.4279608,-0.21595374,-0.10862731,-0.41741425}},

  {{-0.013825883,-0.07542777,-0.26251158,-0.40667617,
    -0.39384317},
   {-0.18303859,-0.22723126,-0.2649922,-0.26579085,
    -0.14775784},
   {-0.1762576,-0.31798935,-0.2832379,-0.27039212,-0.14320928},
   {-0.20813337,-0.15832736,-0.14936401,-0.33720598,
    -0.4619596},
   {-0.2271928,-0.24469747,-0.19292454,-0.1619386,-0.21683651}},

  {{-0.1371254,-0.13604979,-0.067801744,-0.14287238,
    -0.17216809},
   {-0.13635048,-0.06536975,-0.04745633,-0.01597476,
    -0.21675494},
   {-0.08724187,-0.107450336,-0.04569124,-0.071219824,
    -0.1968113},
   {-0.04307063,-0.112297185,-0.032359086,-0.23917839,
    -0.33566368},
   {-0.08108028,-0.04097601,-0.20635425,-0.32954732,
    -0.48203573}},

  {{-0.078890875,-0.05156506,-0.061015997,-0.3333571,
    -0.18280329},
   {-0.13622776,-0.17565641,-0.16792643,-0.17095076,
    -0.14607054},
   {-0.22513613,-0.40919924,-0.16258335,-0.17314407,
    0.055389103},
   {-0.15742055,-0.2401713,-0.23652959,-0.23428889,
    0.103388265},
   {-0.16013418,-0.18895452,-0.056817226,-0.0943607,
    -0.2196273}}},


 {{{0.6737919,-0.057596013,0.106352,-0.25427034,-0.22215576},
   {-0.06727747,-0.5170992,-0.2524364,-0.21861432,-0.18961692},
   {0.014411656,-0.06786888,0.117560714,-0.12495921,
    0.033742126},
   {-0.1584004,-0.12240403,-0.061668724,-0.091223344,
    -0.0636945},
   {-0.31413525,-0.06510652,-0.39609998,0.12699494,
    -0.016707167}},

  {{-0.0736023,-0.3121557,-0.37879592,-0.2344942,0.49074274},
   {-0.4129828,-0.8965017,-0.15432686,-0.32429004,0.32337147},
   {-0.6519944,-0.4616264,0.13955902,0.01588837,0.6719682},
   {-0.5258385,-0.74803454,0.4167632,0.021659316,-0.30334604},
   {-0.42839316,-0.037614357,0.16428229,-0.06635621,
    -0.8964799}},

  {{-0.08469128,0.09471088,-0.023123553,0.15778576,-0.7474359},
   {0.09061809,0.564658,0.7338738,0.13078973,-1.1519941},
   {-0.045458775,0.6168452,0.031092089,-1.2375696,-2.289012},
   {0.4014271,0.116157904,-0.23927385,-0.5153268,-0.655993},
   {-0.39196083,-0.40492886,-1.0763649,-0.46567476,
    -0.014985773}},

  {{-0.78345996,-0.4142012,0.4563961,0.7094447,-1.5162146},
   {0.53371465,0.6729343,-0.44542775,-1.3873295,-0.19896187},
   {0.20067641,-0.5324152,-1.9210689,-0.80185866,-0.019988833},
   {-0.4100511,-1.4861274,-0.10075036,-0.7215684,0.5259552},
   {-1.9210831,-0.9387102,-0.72289246,-0.40889323,0.022097588}},

  {{-0.24874108,-0.12812391,0.12433032,-0.6462082,
    -0.022146014},
   {0.70165694,0.02041558,-0.723901,-0.77747893,0.6263054},
   {0.26070932,-1.9706118,-0.7970605,-0.3895498,-0.10135472},
   {-0.50241184,-0.70105195,-0.25410768,0.03763072,0.5836034},
   {-0.7158493,0.29696164,-0.4881772,-0.35839897,-0.56644666}},

  {{0.60345256,0.39955196,-0.49277565,0.39684927,-0.6475737},
   {0.81342745,-0.56565094,-1.8203232,-1.8064393,-2.0932243},
   {-0.2257346,-0.9894445,-1.4695375,-1.7772706,0.27449593},
   {-1.3642977,-0.5066228,-1.1824179,-1.6345309,1.3073715},
   {-1.3993998,-0.63040346,-0.8000972,-0.70378464,-0.2872023}},

  {{-0.036841203,0.08815172,-0.055157285,-0.5830222,
    0.21518508},
   {-0.3857069,0.3764287,-1.2820067,-0.40088224,-0.4433813},
   {-0.30018243,-1.080069,-0.8780005,-0.36732244,-1.1719618},
   {0.21943788,-0.27359867,-0.93569213,0.083777726,0.6106577},
   {0.30424798,-1.4072067,0.49896577,0.41768795,0.07480701}},

  {{0.22785322,-0.41513038,-0.04803714,0.17490476,0.2995563},
   {-0.3409739,-0.11003527,0.0026852184,-0.29939073,
    -0.5605398},
   {-0.24393249,0.21448413,0.1347654,-0.34200245,-0.7738889},
   {-0.04390435,0.06409341,0.088816196,-0.57456636,-0.6925249},
   {0.64304847,-0.025869181,0.4911638,-0.4547624,-0.63411623}},

  {{0.38180366,1.1747571,-0.31508616,0.17674454,-0.32814658},
   {0.36707225,0.22405896,-0.7072807,-0.2518918,0.10516308},
   {-0.1570369,-0.048927393,-0.6045897,-0.084666185,
    -0.13110453},
   {-0.4004668,-1.0100425,-0.58987594,-0.15329058,0.3600817},
   {-1.1367536,-1.226992,-0.17632386,-0.62288576,0.1245831}},

  {{0.7439979,-0.2962308,-0.6814529,-0.40854013,-0.05761497},
   {0.8254472,0.3730902,-0.5710656,0.17451853,1.2320503},
   {0.89108074,-0.00241833,-0.5546375,0.23511134,0.5038716},
   {0.9063258,-0.04238205,-0.37202063,-0.8123256,-0.96924025},
   {0.23951893,-0.15184967,0.22749129,0.32260257,0.9725504}},

  {{-0.2908866,-0.5350993,-0.0836958,0.40140447,-0.10834759},
   {0.05489229,-0.020858327,0.06532314,0.0068353903,
    0.15903772},
   {0.16419135,0.15094675,0.08709801,0.08460724,0.12371726},
   {-0.16710594,0.097692706,-0.05781135,-0.5999546,-1.0707207},
   {0.48364726,-0.12824075,-0.7256734,-0.8276326,-0.96720684}},

  {{-0.7582724,-0.07964447,-0.023406813,-1.1584772,
    -0.68466693},
   {0.16310622,0.3236654,0.10474533,-0.47000358,0.8389558},
   {0.35177004,-1.0778925,-1.1162363,0.8066824,0.7276988},
   {-0.5090753,-0.61636156,0.55184287,0.53117377,-0.62641644},
   {-0.51714826,-0.31083515,-0.72938466,-0.17047824,0.5594302}},

  {{-0.4666839,0.5226264,0.8626637,0.097422026,0.43097332},
   {-0.42531797,-0.21840605,-0.22595298,0.44051704,-0.7005823},
   {-0.34334695,0.221353,0.2634204,-0.0139497155,-0.4967144},
   {0.6578818,-0.4495501,-0.90997887,-0.18396844,0.13940576},
   {-0.20840397,-0.014236665,-0.052903943,0.10943256,
    -0.19203919}},

  {{0.35078356,0.09489227,-0.36075938,-0.09160073,-0.33080527},
   {-0.4386198,-0.3462162,-0.8125945,-0.6020561,-1.0584263},
   {0.8508038,-0.6407665,-2.1031845,-1.9405332,-0.65952045},
   {0.48232108,-0.9149026,-1.5377084,-1.4328762,-0.0026294156},
   {-0.052134436,-0.80561745,-0.7191072,0.7143494,1.1851254}},

  {{0.22101602,-0.33100662,-0.9200369,-0.9318486,-0.06099502},
   {0.61853206,-0.40798417,-0.42700416,0.6493756,0.67836004},
   {0.2543947,-0.11321916,-1.4688945,0.48329154,0.7874731},
   {-0.53539497,-1.1192714,-0.36399218,0.006672239,-0.7248174},
   {0.33341554,0.7464229,-0.3650377,-0.14361456,-0.43603384}},

  {{0.34487167,-0.12110065,-0.4566144,0.15879232,0.36388317},
   {-0.36419547,-0.6179905,-0.6478663,0.17898965,-0.61903673},
   {-0.03699119,-0.438523,-0.35663524,0.00774486,-0.20626552},
   {-0.22591577,-0.89749986,0.06494864,0.39442503,0.17089167},
   {0.27000436,-0.3113099,-0.392164,-0.12273632,0.3135989}}},


 {{{-0.26111045,-0.24525084,-0.14422002,-0.21207435,
    0.23618644},
   {0.05368264,0.03440961,0.1279,-0.22988328,-0.105053715},
   {0.40277076,-0.025582489,-0.28665707,-0.14508797,
    0.18378116},
   {0.106131814,-0.17736484,-0.22706445,-0.14426191,
    -0.013538445},
   {0.47024748,0.32079795,-0.09850864,-0.38715264,0.3613822}},

  {{-0.30968502,-0.6122864,0.27470583,-0.27721998,0.54050106},
   {-0.32410982,-0.2865154,-0.042235084,-0.14780037,
    0.27000064},
   {-0.29165772,-0.21520472,-0.099027365,0.13374253,
    0.47003603},
   {-0.46652344,-0.2154825,-0.52483416,0.6514496,-0.8839871},
   {-0.124710105,-0.40366206,-0.65592766,-0.33363238,
    -0.9872815}},

  {{-0.4699917,-0.108729966,-0.19412315,0.016655512,0.7267247},
   {0.5068848,-0.16229752,0.3431264,-0.5093713,-0.8634787},
   {-0.14864133,-1.5027798,-0.12629128,-0.48655108,
    -0.45044255},
   {-1.0484556,-1.5608927,-1.4222709,-0.39268413,0.21080115},
   {1.055694,0.7545245,0.06772821,0.71985954,0.1258832}},

  {{-0.07870437,-0.7296051,0.08274764,-1.0805516,-0.3408365},
   {-0.98755,-0.21600838,0.071516335,-1.0004383,0.7129909},
   {-0.49070072,0.45636246,0.28148326,0.389336,-0.13551597},
   {-1.1421045,-0.08655759,0.7123974,1.0384507,-0.46675777},
   {0.052809466,0.10109679,0.17808318,-0.53086644,-0.48648158}},

  {{0.4861921,-0.5100005,-0.952948,-0.7642798,0.6321655},
   {-0.6496767,0.39504242,0.22446312,-0.36544418,0.09486022},
   {-1.1934217,-0.00348402,0.5601466,-0.7114689,-1.3662416},
   {-0.39645553,-0.62141377,-0.7522374,0.1904513,-0.3967928},
   {0.69995487,0.37537,0.10033567,-0.12168756,-0.1691392}},

  {{-0.3823903,-1.1113304,-1.243196,-1.7090712,-0.9394948},
   {-0.64781743,-0.21305333,-0.10789807,-0.17547993,
    -0.20701365},
   {-0.24339871,-0.10143726,0.7878547,0.23232396,0.11014714},
   {-0.14406048,0.44724151,0.8469111,-0.6672231,-0.9100804},
   {-1.3105261,-0.6291805,-0.51205176,-0.87949425,-0.53169346}},

  {{0.0115293395,-0.5089652,0.1496804,-0.3748725,0.016394742},
   {-0.06963918,-0.94154876,-0.09492504,-0.06011056,
    -0.7165257},
   {-1.0964752,-1.1199051,-0.93694097,0.3824576,-0.44345498},
   {-1.2317184,-1.3409251,-0.743313,-0.37579185,-0.16603626},
   {-0.80092835,-0.08643481,-0.19400811,0.42735463,-0.6852379}},

  {{-1.1379641,0.5765936,0.50026596,0.14206073,-0.033026826},
   {-0.87589675,0.08997344,0.035025816,-0.036787357,
    -0.8236341},
   {-0.70546937,0.07072724,0.25052378,0.075755015,-0.9377334},
   {-1.0211542,-0.2021204,-0.7135832,-0.8793732,-0.012113866},
   {-0.5533938,-0.23093523,-1.4628892,-0.6016383,-0.82126576}},

  {{0.011447005,-1.114693,-0.24798797,-0.42491412,0.24376558},
   {-0.8267325,0.103920005,-0.82171875,-0.5009646,-0.18371293},
   {-0.62564313,-0.46118563,0.2434745,0.5066749,-0.0890081},
   {-0.13464902,-0.06814453,0.85877675,0.253423,-0.02938396},
   {-0.3289521,-0.2623566,-0.21523885,-0.5510581,0.013386833}},

  {{-0.3796863,-0.45149955,-0.44330662,-0.29751956,
    -0.47308838},
   {-0.043173477,-0.26783806,-0.44616148,-0.95081073,
    -0.5880981},
   {-0.5175066,-0.48999694,-0.7817905,0.11217672,0.114262424},
   {-0.58660066,-0.21628663,-0.7080833,-0.11500342,0.69062793},
   {0.9835546,1.3078338,0.29792473,0.51452255,-0.16787314}},

  {{-0.14786407,-0.21990515,-0.21443547,0.23707941,-0.2859095},
   {0.33460873,-0.2150041,0.081921265,0.0117080975,
    -0.09316122},
   {-0.4716139,0.09807651,0.1054208,0.6444426,0.5700025},
   {0.17163956,-0.07613052,-0.2802726,-0.10692558,-0.5222413},
   {0.23652534,-0.45629337,-0.19341661,-0.4690627,0.3708493}},

  {{0.35480663,-0.016089188,-0.27621958,-0.66975045,
    -1.0874028},
   {-0.2936977,-0.28098062,-0.20420969,-0.20297816,0.30348146},
   {0.30964872,-0.46585032,-0.39363655,0.23722792,1.0561718},
   {-0.08605285,-0.5656572,-0.046272915,0.10938865,0.6478869},
   {0.23304877,-0.262744,-0.31407994,-1.041557,-0.59911764}},

  {{0.079540946,0.004830192,-0.41593677,0.00056319404,
    -0.13032427},
   {-0.016527314,0.047072854,-0.12518843,0.06582794,
    -0.79400724},
   {-1.166165,-1.3911134,-0.84876865,-0.2401373,0.5691059},
   {-0.88749135,-1.1504276,-1.2662792,-0.19098985,1.048962},
   {0.5640567,0.59201324,0.41875425,0.5735321,0.60317415}},

  {{-0.33884865,-0.8557208,-0.66899055,-0.7151237,-0.7073648},
   {-1.1554202,-0.8056256,-1.3909917,-1.2104381,-1.1082275},
   {-1.1147059,-1.5658816,-1.5574238,-0.96328354,-0.77347356},
   {-0.6567369,-0.8314651,-0.37986463,-0.32448542,-0.30501413},
   {0.43602446,0.6681027,0.87825376,0.4591223,0.7728665}},

  {{0.034318827,-0.42194462,-0.32162583,-1.2195365,-1.023679},
   {-0.5002291,-0.6558836,-1.1711302,-0.13569055,-0.462436},
   {-0.18911299,-0.83738476,-0.25014308,0.45314485,0.73339474},
   {0.10951776,0.55892456,-0.64544886,0.27042818,1.3537621},
   {0.69819427,0.00029892128,-1.0000283,-1.0648553,
    -0.50117904}},

  {{-0.6442074,-1.1110144,0.26083332,0.0198188,-0.4609111},
   {-0.28401992,-0.26798525,-0.26585835,-0.30874032,
    0.12800425},
   {-0.29651693,-0.9367087,-0.000024938872,-0.07857977,
    -0.6530586},
   {-0.21194829,-0.76627606,-0.73001677,0.53050464,
    0.055976372},
   {-0.27408937,-0.2546891,-0.27473092,-0.5887389,-0.572429}}},


 {{{-0.0887178,-0.029953416,-0.17395896,0.36379567,
    0.0040258607},
   {-0.19270752,-0.17898186,-0.0951466,-0.5006374,0.16915257},
   {-0.06613402,-0.03318572,-0.3541234,-0.06125072,
    -0.10646779},
   {-0.073724605,-0.025632702,-0.12902924,-0.41702518,
    -0.12635699},
   {-0.0811831,-0.056911327,-0.10234364,-0.23343603,
    0.046305478}},

  {{0.07374828,-0.08117787,-0.65339315,-0.29830185,0.16728099},
   {0.0005593731,-0.44591618,-0.55781484,0.075629555,
    -0.60454124},
   {0.08259472,-0.85660887,-0.13223182,-0.61934,-0.46793672},
   {0.16766812,-0.5218479,-0.44770575,-0.70879894,-0.57540816},
   {0.24994452,-0.37375265,-0.43370438,-0.3413817,-0.84558177}},

  {{0.67938197,-0.48106298,-1.1644745,0.6860613,1.5089607},
   {0.1669419,-1.089705,-0.82511,-0.7626615,-0.91558266},
   {-0.357747,-0.5336289,-0.5285428,-0.39903948,-0.34443375},
   {-1.1349827,-1.1996777,-0.54518574,-0.17950833,1.1685084},
   {-0.8969584,-1.2194402,-0.19062245,-1.0705205,-0.49730426}},

  {{-0.70069385,-0.4273027,0.18327112,-0.19869919,0.78741753},
   {0.019023228,-0.2336621,-0.41021958,0.34237757,0.4940293},
   {-0.5607644,0.021825485,-0.5849172,-0.49289015,0.71491104},
   {-0.4596431,-0.6290512,-0.42007136,-0.8519514,-0.13139248},
   {-0.08234542,0.817563,0.5523066,-0.7204297,-0.3234468}},

  {{-0.73513705,-0.39620197,-0.6015797,0.061791502,0.7201304},
   {-0.022579322,-0.5143658,-0.16875082,-0.38110834,0.9602168},
   {0.34590816,-1.3945857,-0.8805411,-1.3926096,0.44583952},
   {-0.28370526,0.17409301,-0.43612376,-0.27777174,
    -0.08084646},
   {0.025531877,-0.22255622,0.19428028,-0.3907403,0.41089803}},

  {{-1.0012333,-0.056906696,-0.26562783,-0.91284263,
    -0.76244926},
   {-0.2125245,-1.3510656,-1.203403,-0.5949994,0.3855138},
   {-0.47567213,-1.5803049,-0.9576435,-0.46202406,-0.3483186},
   {-0.03342269,-1.0467881,-1.4089018,-0.92306393,-0.144406},
   {-0.4909928,0.07356477,-0.33873397,-0.11913965,1.4094687}},

  {{-0.07227168,-0.24577415,0.25361857,-0.25078675,-1.0019196},
   {0.094229095,-0.62758464,-0.9390352,0.34981498,-0.13193972},
   {-0.17147098,-0.0015992098,-0.34517542,0.25010145,
    0.47725508},
   {0.08742305,-0.1786607,-0.7942457,-1.0994226,-0.60496455},
   {-0.5376546,-0.22708718,-1.2611377,-1.3268272,-1.5499995}},

  {{0.15391062,0.16106497,-0.26629195,-0.9288598,-0.19447196},
   {-0.24949117,-0.86395013,-0.53794163,-0.91415423,
    -0.88280874},
   {-0.6291437,-0.12029259,-0.3829121,-1.2726634,-0.9200887},
   {-0.69160455,0.019104227,-0.4099778,-1.3149893,-0.2590725},
   {-0.33986735,-0.6601747,-0.5154374,-1.5101962,-0.49656105}},

  {{-0.62383425,-0.22868267,-0.1808231,-0.8872524,-0.8822026},
   {-0.5708842,-0.5979071,-0.27659333,0.043313768,0.25354972},
   {-0.9346643,-0.5574089,-0.6019033,0.11046362,0.2733789},
   {-0.5141507,-1.4018291,-0.40275604,-0.6875772,-0.88104147},
   {-0.14179516,-0.5634484,-0.7289907,-0.3912739,-0.5722444}},

  {{-0.52035254,-0.39009458,-0.24123555,-0.019595223,
    -0.078539506},
   {-0.33890516,-0.45128787,-0.34218544,-0.40963057,
    -0.6925516},
   {-0.400943,-0.3425378,-0.41049638,-0.44842976,-0.05915742},
   {-0.41554925,-0.32345334,-0.4889205,-0.6740333,-0.51311284},
   {-0.32818228,-0.16936225,-0.30858305,-0.5281199,-0.317185}},

  {{0.47588432,0.3614976,-0.009582876,-0.07182666,-0.75623477},
   {0.27064365,0.17862555,-0.011343499,-0.077415854,
    -0.033199806},
   {0.08124385,0.38572067,-0.30512998,-0.430029,0.6314177},
   {0.02660786,0.0011847683,-0.29777232,0.0029943993,
    -0.119784184},
   {0.2290086,-0.05892715,-0.1860014,-0.9520026,0.07333645}},

  {{-1.3147849,0.0065986784,-0.43765685,0.12731296,
    -0.16842362},
   {-0.6303248,-0.4763342,0.0609233,0.36072743,-0.31285408},
   {-0.94960874,-0.7576125,-0.39307094,-0.64967185,0.13759401},
   {-0.53483063,-0.18864208,-0.071009,-0.22487046,-0.3068727},
   {-0.5204626,0.2655184,-0.047135897,-1.0997348,-1.3198394}},

  {{-0.47371042,0.22644693,-0.5411408,-0.65715146,1.1677581},
   {0.5673247,-0.8341501,-0.27429077,-0.79159045,1.3986919},
   {-0.3656422,-0.16935216,-0.23643242,-1.6670469,-0.5423478},
   {-0.4145119,-0.3337737,-1.6091931,-0.6937061,0.12291707},
   {0.281651,-1.218929,0.021961633,-0.036454182,-0.819842}},

  {{-0.5909141,-0.68660295,-1.276004,-0.9761432,1.0938134},
   {-0.05202206,-0.6456641,-1.2716798,-1.0994246,0.1367466},
   {-0.96023005,-0.42733824,-0.79445857,0.40279377,1.2336055},
   {-0.77618355,-1.1555382,-1.4284718,-0.73837537,-0.45756912},
   {-0.15719348,-1.1534811,-0.89559066,-0.7669427,-0.55888253}},

  {{0.10897028,0.02406,-0.23988591,0.21108012,0.46127483},
   {-0.48819724,0.16656482,-0.813663,0.35484064,-0.41110516},
   {-0.59859556,-0.034151632,-0.4861969,-0.48043832,
    -0.6532986},
   {-0.37869394,-0.39170757,-0.38972646,-0.7462297,
    -0.45650005},
   {-0.4375635,-0.7264752,-0.9383469,-0.32631418,-0.72752947}},

  {{-0.8338745,-0.36118457,-0.08260076,-1.0039313,0.13591419},
   {-0.23412709,-0.40499705,-0.48018456,-0.1385994,-0.2984605},
   {-0.4820217,0.13427407,-0.23861112,-0.29031995,0.09351153},
   {-0.29676712,0.23666067,-0.25956443,-0.14079821,0.22170158},
   {-0.5055428,-0.022752004,-0.3195875,-0.7844037,
    -0.017377201}}},


 {{{0.13617508,-0.08998305,-0.36779037,-0.43079272,0.45666456},
   {-0.16519122,-0.015418099,-0.069217056,-0.21122822,
    0.04649099},
   {-0.023227643,-0.072976924,-0.042110894,-0.06253925,
    0.07692666},
   {-0.24910401,-0.03427078,-0.029379463,0.02897675,
    0.45406896},
   {-0.559961,-0.22932772,0.056354478,-0.45622098,-0.21088926}},

  {{-0.8463701,0.22419135,0.33593285,0.022669299,-0.4758154},
   {-0.2831812,-0.64543897,0.18327205,-0.27324426,
    -0.024823146},
   {-0.036157575,-1.0488346,-0.2035477,0.3737228,-0.52163225},
   {0.11716715,-0.11423343,-0.5324155,-0.33637145,-0.9213057},
   {0.04628356,0.29750636,-0.1874595,-0.8659342,-0.5315702}},

  {{0.12988177,-0.8601102,-0.3385926,-0.53976613,-0.8080885},
   {0.51542664,-0.049130894,-0.15790334,-1.3597894,
    -0.78694195},
   {-0.662639,0.93773377,-0.6343024,-1.0465975,-0.8909423},
   {-1.4441103,-0.3750239,-1.0326668,0.48879147,-0.7353952},
   {-1.2586089,-2.1900167,-0.4333983,0.00562813,0.70677114}},

  {{0.740002,0.1152439,0.15450704,0.63696575,0.19310373},
   {-0.1676515,0.49737296,0.23310256,-0.26995146,0.27765414},
   {0.44388077,0.71278447,0.2886026,-0.37602827,-0.20147845},
   {-0.7443111,-1.283521,-0.29476222,0.38902473,-1.6210368},
   {-0.4366556,-0.9769791,-0.24270028,-0.27477694,-0.03917186}},

  {{-0.10436123,-0.10412849,-0.25409344,-0.7592681,0.73962134},
   {0.3006719,0.07836488,-0.5366769,-1.0507481,-0.5333005},
   {-0.3419317,-0.6551168,-0.545731,-1.1806431,-1.0476805},
   {-0.48327687,-1.103066,-0.9000741,-1.0076907,-0.054168377},
   {-0.14779924,-0.7643405,-0.7234476,0.02158734,-0.83022726}},

  {{0.7156973,-0.8455002,0.2825961,0.21787459,0.63343805},
   {1.1821195,0.56722367,-0.5476658,-0.76239836,0.4680224},
   {0.50319296,0.6960594,-0.28298625,-1.1186246,-0.49799624},
   {-1.1373144,-0.288985,-0.4634899,-0.80992377,0.20187739},
   {-1.5670128,-1.5441208,-1.0885295,-0.5179589,-0.7319084}},

  {{-0.46599388,-1.925404,-0.813147,-1.5456716,-0.5313521},
   {-0.35766333,-0.82027817,-0.0911201,-1.36585,0.15709862},
   {0.9172016,-0.40965766,-0.81609136,-1.0204839,-0.7203753},
   {0.46744564,-0.1454791,-0.952611,-0.6633022,-0.90196174},
   {-0.3036285,0.26817188,0.25969914,-0.0005174725,
    -0.89330965}},

  {{0.87858653,0.15591739,-0.4407241,-1.7886251,-0.674521},
   {0.34480226,0.18328193,-0.5789673,-1.0234691,-0.41885406},
   {-1.1374221,-0.44968316,-0.5143723,-0.9825868,-0.58815426},
   {-1.4286493,-0.454068,-1.3218623,-0.68025184,-0.88987154},
   {-0.9626427,-0.221387,-1.5200454,0.37680492,-0.42968857}},

  {{-0.001065209,-0.89183533,0.5487233,-0.14023353,-0.6038222},
   {0.22883767,-0.73698884,-0.24885339,-0.4031539,0.831002},
   {0.42294115,-0.14866778,-0.28811496,-1.0157033,-0.73863614},
   {0.113790475,0.46025157,-0.4276025,-0.8546873,-0.5353107},
   {-1.1380032,0.09817158,-0.5300364,-0.90019,-0.059966646}},

  {{-0.25945604,-0.32365298,-0.3585062,-0.22401153,0.31087866},
   {-0.4296023,-0.50627667,-0.73325694,-0.32018012,0.4489188},
   {-0.16325474,-0.18674435,-0.15129712,-0.12736654,
    0.22762138},
   {-0.80019,-0.025572667,0.5435552,0.14388402,0.4154359},
   {-0.62528783,0.11737644,-0.008681142,0.41082102,0.17095073}},

  {{0.20783013,1.0453038,-0.30541858,0.31212097,-0.52459776},
   {-0.33932438,-0.17982802,-0.127749,-0.83465445,0.06610465},
   {-1.1579098,-1.2282289,-0.6851396,-0.36423066,-0.45346087},
   {-0.5615312,-1.3156159,-0.015508673,-0.5076276,-0.9538831},
   {0.14534906,-0.017644629,-0.06047639,-0.70231926,
    -1.2026231}},

  {{0.07225217,0.87049747,0.5738463,0.9187076,-0.2724347},
   {-1.1118872,0.29319352,0.08324662,0.26103455,0.29290292},
   {-1.7016305,-1.0561486,-0.29213387,-0.7746174,-0.7752497},
   {-0.012193125,-1.0953981,-0.821274,-1.4050083,-1.9151402},
   {0.2727444,-0.26930946,-0.49972314,-0.8063363,-1.568128}},

  {{0.054998063,-0.156989,0.34932756,-0.96885973,0.2792782},
   {-2.425838,-0.5882672,-0.3272043,-1.0188411,-0.46195307},
   {-2.0379572,-2.071103,0.23220193,-0.39923835,0.23373474},
   {0.09047515,0.03860824,-0.7174424,-0.4639769,-0.37065956},
   {-0.100913785,-2.0585947,-1.500965,-1.4531211,-0.5058083}},

  {{-0.15668692,-1.3190982,-0.67702043,0.21796864,-0.60136026},
   {-0.17254685,-0.88520396,0.21048923,-1.193209,-0.37650055},
   {-0.4057946,-0.46646658,-0.7167413,-1.4806991,-0.06657204},
   {0.045529332,-0.026266705,-0.4468454,-1.4902911,-1.0594171},
   {-0.28648192,-0.2373727,-0.45647967,-1.1360159,-0.5858852}},

  {{-0.16366422,0.22876407,0.0027730397,-0.14155525,
    -0.16906995},
   {-0.3074733,-0.021811113,0.036720816,-0.21243188,
    -0.46854058},
   {-0.25630218,-1.2047977,-0.6700309,-1.017571,-0.07174615},
   {1.1082275,-0.84519666,-1.673625,-0.8862077,-0.04675426},
   {1.0606487,0.37716472,-1.1270146,-0.32092553,-0.22044228}},

  {{-0.6126733,-0.8966813,-0.32033733,-0.6071552,-0.08785242},
   {-0.8435675,-0.19229285,-0.29571578,-0.22934839,-0.4108104},
   {0.24828073,0.44796413,-0.0698309,-0.15706785,-0.24805209},
   {0.277754,-0.20909293,-0.7418017,0.23391595,-0.92469746},
   {-0.49246138,-0.7003327,0.37013078,-0.34811264,-0.2652501}}},


 {{{-0.15497738,-0.22445191,0.24966842,0.2932818,-0.008972469},
   {-0.048216805,-0.045857828,-0.21626255,0.060054496,
